{"name":"pyramid_linearfilters_targetAndGen","nnCache":{"target_level0_filter":{"type":"convolution","name":"target_level0_filter","inDepth":1,"outDepth":1,"filterWidth":3,"filterHeight":3,"strideX":1,"strideY":1,"padX":1,"padY":1,"filters":[-0.04615390832362149,-0.04263548048957909,-0.04055803243843527,-0.008261973461203866,-0.02655394857710948,-0.01398623708870824,-0.032585791859588785,-0.031604745134384486,0.002018664331440307],"biases":[-0.15470804699319504]},"target_level1":{"type":"sequence","name":"sequenceNetwork","networks":[{"type":"meanpool","filterWidth":2,"filterHeight":2,"strideX":2,"strideY":2,"padX":0,"padY":0},{"type":"convolution","name":"target_level1_filter","inDepth":1,"outDepth":1,"filterWidth":3,"filterHeight":3,"strideX":1,"strideY":1,"padX":1,"padY":1,"filters":[0.01385670694861992,0.2900882253339322,0.010051145880484093,0.11390941699276144,0.07359353571809746,0.06159268422056507,0.011133751724062042,-0.0350655229097882,0.0408272327694599],"biases":[0.0808308300254581]}]},"target_level2":{"type":"sequence","name":"sequenceNetwork","networks":[{"type":"meanpool","filterWidth":2,"filterHeight":2,"strideX":2,"strideY":2,"padX":0,"padY":0},{"type":"convolution","name":"target_level2_filter","inDepth":1,"outDepth":1,"filterWidth":3,"filterHeight":3,"strideX":1,"strideY":1,"padX":1,"padY":1,"filters":[-0.0125881861018178,-0.015981695940335716,-0.03838263320036357,-0.0840114201021472,0.36865009945468147,0.08652312440023609,0.0566289255845925,0.3005756527042859,0.10154836914848205],"biases":[0.04345835309641719]}]},"target_level3":{"type":"sequence","name":"sequenceNetwork","networks":[{"type":"meanpool","filterWidth":2,"filterHeight":2,"strideX":2,"strideY":2,"padX":0,"padY":0},{"type":"convolution","name":"target_level3_filter","inDepth":1,"outDepth":1,"filterWidth":3,"filterHeight":3,"strideX":1,"strideY":1,"padX":1,"padY":1,"filters":[-0.024960248379425662,-0.09194572636521585,0.1998450321824549,0.0634602521194426,-0.18685013640336617,0.16233658030022627,0.10970089951313705,0.22792237925428593,-0.04215175814391598],"biases":[0.01139739415278489]}]},"gen_level0_filter":{"type":"convolution","name":"gen_level0_filter","inDepth":1,"outDepth":1,"filterWidth":3,"filterHeight":3,"strideX":1,"strideY":1,"padX":1,"padY":1,"filters":[-0.010849796255543102,-0.13858477937062907,-0.027658270246009423,-0.0314755957727337,-0.006507465736193841,-0.03764405920751058,-0.0272251241079775,-0.07595213584403579,-0.023349255869474485],"biases":[0.152690477067768]},"gen_level1":{"type":"sequence","name":"sequenceNetwork","networks":[{"type":"meanpool","filterWidth":2,"filterHeight":2,"strideX":2,"strideY":2,"padX":0,"padY":0},{"type":"convolution","name":"gen_level1_filter","inDepth":1,"outDepth":1,"filterWidth":3,"filterHeight":3,"strideX":1,"strideY":1,"padX":1,"padY":1,"filters":[-0.12417729408021105,-0.2851589991286262,-0.062081004415002305,-0.09068409009222578,-0.28580211797453786,-0.10088441130681461,0.008147599821910396,0.02289261201554276,0.0029372987608445736],"biases":[-0.07522910637501048]}]},"gen_level2":{"type":"sequence","name":"sequenceNetwork","networks":[{"type":"meanpool","filterWidth":2,"filterHeight":2,"strideX":2,"strideY":2,"padX":0,"padY":0},{"type":"convolution","name":"gen_level2_filter","inDepth":1,"outDepth":1,"filterWidth":3,"filterHeight":3,"strideX":1,"strideY":1,"padX":1,"padY":1,"filters":[0.006559519943686201,-0.10727948567115983,-0.018092844570624596,-0.11009376880179632,0.3255051934597036,0.07532292426172965,0.06855739407141238,0.32195834876553725,0.12832049001478799],"biases":[-0.029587793617584658]}]},"gen_level3":{"type":"sequence","name":"sequenceNetwork","networks":[{"type":"meanpool","filterWidth":2,"filterHeight":2,"strideX":2,"strideY":2,"padX":0,"padY":0},{"type":"convolution","name":"gen_level3_filter","inDepth":1,"outDepth":1,"filterWidth":3,"filterHeight":3,"strideX":1,"strideY":1,"padX":1,"padY":1,"filters":[0.16476152786319218,-0.19968392870142448,0.1973065238313426,0.2080863165105663,0.3303040577063363,0.11833177309259434,0.10820826586874355,0.1758300950072829,0.033747385467620024],"biases":[-0.013008720452051868]}]},"target_outOfBounds":{"type":"constantparams","name":"target_outOfBounds","dims":[4,1],"params":[-0.6946018821449612,-0.05364032072866271,-0.15133671564934784,0.036347922909855335]},"gen_outOfBounds":{"type":"constantparams","name":"gen_outOfBounds","dims":[4,1],"params":[-0.377751118839855,-0.21416988025971956,0.08679444404128367,-0.09855655963770775]},"startAngle":{"type":"sequence","name":"startAngle","networks":[{"type":"linear","name":"startAngle_layer0","inSize":76,"outSize":38,"weights":[0.0542342715282447,-0.027075904509246462,0.12921651633711737,-0.02724631367646735,-0.6197427088238741,-0.027397565835274196,0.13643249323083856,-0.026615014328900455,-0.06767801930910963,-0.02698684440150055,0.021706599429554305,-0.02687176050739505,-0.8750793758940879,-0.027323666234677496,0.23395717076603942,-0.027840324930970384,-0.0962852268861131,-0.02784607837676706,-0.651418249509861,-0.0976307827184805,0.3612414385809551,-0.09816478853026075,-0.3915245102388111,-0.0982941290688921,-0.23470154773044552,-0.09816218512124528,-0.12166230843715006,-0.09726594345457265,-0.7776523585038086,-0.09821930020855754,1.1646282889149284,-0.30741752285903584,0.5311312300573784,-0.307157925599254,-0.5197788440071912,-0.30760032727536907,-0.3927490824665635,-0.22262914229787495,0.4948634663212081,-0.22315032032443377,-0.3789649638108672,-0.22289618999228705,-0.9549234154787897,-0.23763152728721904,-0.6233051114066822,-0.23879272727591005,0.07509029925689652,-0.23871524997923127,0.16531129871595712,-0.2711960413645487,0.15136045982243052,-0.2711993422344435,0.2681159012100288,-0.2705190723596646,-0.5656503811511855,-0.02759410677238504,0.9339051089113063,-0.028037470395549147,0.8695356868985281,-0.02004636497000533,0.10400593310381001,0.34974306778423553,-0.1681757180829563,0.34931501193554265,0.6319818602498934,0.45924184997017514,0.20277558416478164,0.06756005647839709,0.20223219815362742,0.06707429119340713,0.2023051238630843,0.06771949340605461,-0.7753069424669091,0.11326024747836082,0.11266287078408038,-0.11303580927082815,1.6193456072206829,0.041583840310736885,0.11176970220512296,0.04179655137346976,-1.6519947205192893,0.04129650312636745,0.5130179915974058,0.040905748737583646,0.31836425081614284,0.041266611627948306,-0.1009904142204518,0.04098261759401441,1.2910248992884785,0.04101942200054056,0.5372369501334464,0.04098281711700454,0.1812651360973773,0.0413960997669005,1.4205269871752522,-0.14387824013318096,0.23652758123024947,-0.14332286593551385,-0.2622175053900386,-0.1435533145027909,2.766737658503039,-0.14331271352684455,0.8205742721603266,-0.14381514242029814,-2.4476082857881236,-0.14316583235547625,1.4907715570613433,-0.12945553984178365,-2.364362356454382,-0.1291344377723841,-3.302826704140495,-0.129391548760111,0.8843304452492345,0.02836718952788367,0.8376599485054541,0.02807822449925476,1.5764740481766306,0.02899660526172433,2.854465183539775,-0.009558773259552757,-0.28763954565661365,-0.010186250993561699,-2.003933588908234,-0.010665119616594998,1.259481897172183,0.852859533081763,-0.44771343866326,0.8534490371758718,-1.2285420538696525,0.8524104856779646,0.4399314901286567,0.01840188775742965,-0.16363554090976754,0.018206106690605208,-2.503442081229154,0.006603158513636782,-0.5681105038488544,-0.20969507320132114,-1.2894279516410692,-0.21021027574754947,0.47323221388410186,-0.21520584317339733,0.038881594052003275,-0.29695302207337493,0.039509179090494805,-0.2963581562995501,0.03953463570407192,-0.2965580968916317,-1.1280963558975974,0.07375371693064457,0.07432132198141368,-0.07376574755572265,-1.4294128462096582,1.9939399419342454,-2.3518594429177817,1.9930085135259943,0.69267623297827,1.9941349720806887,-2.9447849707356095,1.994296047789678,-2.895624054526261,1.9936317933470584,-0.8417025115815682,1.9942387538835777,0.4898168754372335,1.9935769378349195,0.8279585133670422,1.9947952040505321,2.809747767641257,1.9945543991895793,2.0366812412018014,-1.3801865627701135,0.5088542333208386,-1.380333780391474,1.1690331075728,-1.3804563388840296,3.906199561405936,-1.3811067226028109,-1.7288850865651906,-1.3799080433595383,1.634961039511304,-1.3807505634975274,4.616688622110067,-1.473168872921893,-3.8817269678767334,-1.4731965259944229,2.7321980709305547,-1.4729912344174716,-1.9166697396676782,-1.047540959621881,-2.7780407973323653,-1.0472856967957804,1.0943999234844861,-1.0472544794429661,-0.17800591223429957,-1.0764418626302392,-1.4078278668815545,-1.076652599064471,2.5232268396638786,-1.0771886445889503,-1.8880484090018257,0.5819093888101524,-2.540636688895097,0.5807968955044328,-1.999205710326849,0.5817368875472814,2.3239655872595297,-0.1580843013728878,0.056388966948351056,-0.15789061892512093,1.0632044206121933,-0.0332729775953974,0.5852080401722644,1.16514860884735,0.5160704459110472,1.165135897503993,0.8245170976236236,1.346385990454622,-2.1431286206762046,1.9461691681538913,-2.1425377570372657,1.946320391075403,-2.1435403625928764,1.9460052903558813,0.716875797239134,-2.2120313019384428,-2.2116623778690485,2.211341898864116,0.27569923854385076,0.11820802423095231,0.10761004127915295,0.11802567711815834,0.21795091731549623,0.1188039153403321,0.3383045443575765,0.11860934981870339,-0.07186096672976912,0.11876974825792821,0.2962785485424521,0.11889377006721694,0.20071145628355555,0.11787586773749495,-0.18750769188209515,0.11874025212599273,-0.44670563499746224,0.11795189162838102,0.3292198211312397,0.11053039151694137,0.3320120440177535,0.11073019831784779,-0.9199211667648289,0.11107716141344627,-0.01056966638780862,0.1107246683860874,0.5469587335026918,0.1106933524218268,-0.5726082599332417,0.11084790424899761,-0.32565862770947585,0.10682467809095965,0.25973231289879395,0.10752460387118815,-1.1744487774852408,0.10728365479726945,0.1375513600639889,0.05235801597321536,0.21504077611228153,0.05272719830286367,0.6668529828588838,0.05193997153422863,-0.6155840149367451,0.05465626950275393,0.5198228993019898,0.05481814696179221,0.5128613652927693,0.05515303517819094,0.5991548113046135,-0.5585867965722788,0.29997816569064384,-0.5589377360556005,0.27544140066860767,-0.5588034833116569,-0.5267353735913399,0.006759710955053374,0.30106420392864675,0.006760418527789888,-0.14941366361993438,0.004171907952188793,0.16911001988534305,-0.3108779098189108,0.5925993873764418,-0.31121233656851405,0.15228393461459824,-0.40285225859743745,0.1082769479024835,0.11281628063577964,0.1089758605309354,0.11231436754796775,0.10816963925156182,0.11308891719198866,-0.8512539588177049,0.05746368116789457,0.057958629540044514,-0.058555422048939924,-0.42270695943027703,0.14004808176049416,1.2344605494221808,0.13987030044921395,1.7641291325001507,0.1397114006359793,-0.2745147028722407,0.13945024046618698,0.09930352481892553,0.13997993721685575,0.1562524683640126,0.13985856582783746,1.0554935477841825,0.13993114899996018,-0.022717738364655318,0.13995606779968678,0.01489380879987446,0.1404150142839583,-2.152816585451663,-0.2243211642430675,2.4318861163331027,-0.2242235191231082,1.828159140526939,-0.2244195354073679,-6.013438633019343,-0.22404759521915776,0.9709943446305768,-0.22420477364997446,2.4218413151178257,-0.22375287939999375,-5.114147826587447,-0.2628710079026584,1.4559138530987146,-0.26172258245574126,1.2475809287091681,-0.26269619244437015,0.17944026612122632,-0.10814171646596632,1.1706828093478903,-0.10902151310702649,-1.1346558009305692,-0.10856464628935591,-2.7336036339384875,-0.11689271588193269,0.8214706813950186,-0.11681352485136302,0.3177692024242679,-0.11633036630277131,-1.6487147829717863,-0.7611636925889385,0.6093781054573173,-0.7626020184895412,1.813420450177329,-0.7618308806732139,-2.6126567473982725,-0.030693046239649437,-1.6527027977348867,-0.03096766667886677,0.9873640870290983,0.01837965310014933,0.3216917183228816,-0.054644554141670604,0.6453956706661508,-0.05446430279515997,-0.49533221695494845,-0.054670583630983045,0.005282120106848105,0.12017250293530199,0.00550318864006361,0.11987698173623654,0.005129708983467725,0.11936787527289242,0.8999311376627381,-0.007675931119928023,-0.008174629376064394,0.008517279380781501,0.14151178617700266,-0.07962797353439259,-0.08007095042844298,-0.08036632102259485,0.22313821295220085,-0.07987268396868487,-0.05685808903653797,-0.0793718279076067,0.4637515801060953,-0.0798089204574975,0.3739041927970556,-0.07909757588317894,-0.03355978274125519,-0.08005894104315385,-0.692138622584468,-0.0795420204067629,-0.1834949107742013,-0.07960814635245138,0.058277089415740724,-0.09109217544436672,-0.21974907512563208,-0.09081941724680033,0.031595124217793875,-0.0910125129924332,0.5962404673238839,-0.09090314198121231,0.5902399183544484,-0.09155126840589124,-0.2631290121993231,-0.09086772993409327,0.20941135675266312,-0.05143080322201847,-0.3286600025315502,-0.05089028586451026,0.3118730738904489,-0.05083606873777073,0.44622787385910867,-0.2795375592391009,0.41749567839588075,-0.2799164537960566,-0.7745681404397174,-0.2800881876623626,0.5162264421588351,-0.28124959090220314,-0.9739531446708436,-0.2814712967581854,-0.16037007622859328,-0.2816584464264865,-0.7929540853649133,-0.3067798678330297,-0.7865883637440862,-0.30523716449711363,-0.5968042281451797,-0.3063039682934771,0.5814861593431463,-0.18316780856033774,-0.49168334257153645,-0.18267296310342243,0.2598147551692656,-0.16876625041162782,-0.11441139203358462,0.12771091288230585,-0.12028697143904049,0.12757775729093102,0.45930371161501754,0.12119103047434579,0.04762055441210623,0.08881917609046322,0.0477399615925144,0.08821661514136561,0.04722000430845064,0.0887343986770591,-0.6726018253902728,0.007244277996396561,0.007062655929350899,-0.007798555707128377,-0.000024508936195862495,-0.35213799430724607,0.860819927424244,-0.352209973956312,-1.018490732679386,-0.3523295350724451,1.39067163985061,-0.35277839831654284,1.47672341009551,-0.35198981357324716,1.286600506067876,-0.3516591388925406,1.596927915957103,-0.35164990930927637,1.4057282113061755,-0.3520718531893728,-1.5329144294270014,-0.35208675173559184,-0.9439715122673502,0.15550412536978703,-0.46257424093229005,0.1559682936887971,-0.6364360364584236,0.15616282039790974,-4.244369859158836,0.15590459369506282,1.4335282612576912,0.15579891241463806,-2.0636055514857556,0.15582980568768745,-3.8581841173975633,0.17005124049371892,4.23436844048829,0.17041079695215092,-3.2723254340499346,0.16981495891888623,2.6338911877154056,-0.16855868109141403,2.2216362811796344,-0.16810166018502376,-0.03339813324379063,-0.1680164535648057,0.3650092259695195,-0.16328784109753056,0.7573927309564359,-0.16381929844844054,-2.126864778698998,-0.1636426596561785,0.9534519679450978,0.012752206222971862,1.3770011292859972,0.011633429249418497,2.57726846124218,0.012665157098106904,-2.070700376335553,0.510527181418341,0.09271757714231697,0.5099464239282105,0.23912883078097466,0.5098119235089933,0.6187183969087229,0.07830883128235466,0.5490332391119086,0.07865196472897046,-0.11671474623634978,-0.11092508472563824,0.4173132991323838,-0.3868268681700578,0.41714491435305856,-0.3863741584810218,0.4168808472723622,-0.3869276198855706,-1.299284561747075,0.4749750653747064,0.4750331355555148,-0.47471618965778006,-1.1110249943619168,-0.124541665280432,0.38295578473160513,-0.1248521731714323,2.3332052572180912,-0.1248974415693033,-0.484495960408455,-0.12484241827466439,-0.2677949202110505,-0.12534620668897525,0.24407711683877809,-0.12453327908949088,-0.1137245835336731,-0.12456193067099733,-0.68426711649305,-0.12424613018589521,-0.05629453840176159,-0.1245112908396471,-3.246185184168393,-0.06852478499793291,0.20770841752144542,-0.06769736907024707,3.2257080015419555,-0.06789020433476985,-5.636335915684997,-0.06841316209008644,-0.7924992837978226,-0.06857952194024369,3.685492765331882,-0.06812408511286908,-3.673823603584398,0.033339672559678214,1.1043143060503706,0.033347501911908974,2.3787594278244817,0.03289176529058525,-0.5895196330271186,0.08679613794850566,1.6931130646939454,0.08636069661790474,0.1261515790151139,0.08634603636506116,-4.2925967475598314,0.08050581390547441,1.203017458583694,0.08103747668113552,1.8313903684759814,0.08122907509600223,-1.0366543931965198,0.03032009533936304,0.6283441250463015,0.030076192888553403,1.6667455055387794,0.02988961696517573,-0.7101399598361992,0.21875201285328502,-1.433534083240218,0.21907206161952705,0.5856122465187767,0.22759482259389993,1.5730518562894507,-0.3280508675556173,-0.7107412569372089,-0.32711255942895445,-0.9737983790363728,-0.15735838628200693,0.06423336616604869,-0.06580243827299712,0.0642284825689331,-0.06503601261622906,0.06482796341679817,-0.06567715563671925,1.4451779807246112,-0.01948177557556283,-0.0186074125954419,0.01850935617732054,0.3134098750088582,-0.10780105435497034,-0.3669930444590184,-0.1078895178636301,-1.384698588350221,-0.10782170805254121,0.06841687081217981,-0.10780228733057551,0.0999366295330345,-0.10711859738458365,-0.7991464439159063,-0.10717446208532191,2.791393506446981,-0.1070961960090904,1.237341646686978,-0.10737421784330728,0.1842096939573785,-0.10802071091020049,-0.17372206791793965,-0.15015167518938596,-0.4534334630060347,-0.14973960861012073,-0.8896915152701131,-0.1499860019425571,1.1305952374123973,-0.15012431742768859,-0.9326781091745414,-0.14931253253715657,-2.246914385363197,-0.14984960074140977,0.35431044617412977,-0.23985754786953759,-2.350128967510555,-0.2398466269278071,-3.3415834910100193,-0.24054131715827218,0.7522381481913734,0.1825608998844755,0.5003702424885438,0.18286087121465527,0.6442402169175053,0.18256395838392253,1.6929254356432426,0.06701061190825616,-1.5651796037617058,0.06624618535408489,-1.5492443172472152,0.06771608068823598,0.37179133013372023,1.0681934324553128,-0.3853444530166286,1.0687710806448543,-0.990639526829612,1.069208702354432,-1.1970920895434207,-0.46113344877720425,-1.8838465984524881,-0.46124104356533885,-2.2101754141622756,-0.4787845251308143,-2.1482619653554305,-1.5199114163887881,-1.5393988244259642,-1.5203661097516663,0.039813786862723945,-1.4602821738721259,-0.05465125896253845,-0.22298499967991034,-0.054774745418080896,-0.22322756653529616,-0.05427159691155268,-0.2231498835090527,0.0750759603962111,0.04690362047984404,0.047492869106662,-0.046796220867875445,0.23892487230590984,-0.14215033305903424,-0.1669050758179792,-0.14229622940317643,0.32927714969903576,-0.14182316326105648,0.11181176358480968,-0.1425173267363975,0.06830045061116395,-0.14200599771986172,-0.618943726165439,-0.14198316551576157,0.33247053565434687,-0.14230640618260748,-0.44731089007724084,-0.14169376276601311,-0.05516429947423578,-0.14179578938308704,-0.38903717632429696,-0.12860270859538808,-0.2818115046079822,-0.12838727076291373,1.4782465456337424,-0.1279596472369152,0.4695799754275867,-0.1286862073389176,-0.5909433189583433,-0.1286788857324821,0.5761280209588379,-0.1286994374611758,0.8673342011712446,-0.1393699770015551,-0.8695082734294473,-0.13893640510062197,0.6857670129035228,-0.13898057719315957,-0.6957641618769033,-0.22355538693600058,-0.26709351312341395,-0.22302095279455214,-0.8644811324444949,-0.22379195285647185,0.03820718342837122,-0.22700545503953917,-0.35946589134690654,-0.2271477359281573,-0.11886938920815225,-0.2272620917604531,-0.18487527160630568,-0.14498063467534864,-0.3907798035444835,-0.14486327290756443,-0.04606816527415162,-0.1452323371600385,0.34532647205985917,-0.03449206088257026,0.19988133521595483,-0.03467621004348213,0.5755232946366012,-0.10218893037742208,-0.040796548113691204,-0.7416475755876619,-0.21948156129080892,-0.7410529798626071,0.32304537262540567,-0.7621698852618471,0.13714781097940723,-0.08415540572759844,0.1366288382604234,-0.08369080406541843,0.13625663649401779,-0.08433722019064782,0.8259538959422342,0.033707169664421506,0.03337429894708936,-0.0338516021239904,-3.0687293377417646,2.439066541952336,-1.985193937840147,2.4391092249116912,0.06455100010440627,2.438921145292234,-2.596699257715634,2.4387809801331657,-2.342467332171774,2.439413758850094,-0.23952838209172722,2.43901963363301,-0.4377715429935825,2.4394886944659557,1.0083974903652604,2.438517561224717,2.3826847756880287,2.4391075641908273,0.8917000300449842,-2.4976545841121367,0.8304673919438904,-2.498359511650897,1.812656286402533,-2.498016203309852,-0.27657196186588306,-2.4972176556386114,-0.7139485505261497,-2.4973513680562527,1.3982899682012193,-2.4985086252480184,1.3744687234322912,-2.4680966115880154,1.460723678891653,-2.4679819800360243,3.9939506294305613,-2.467908720190605,-0.7118455176125865,-2.79009385099503,-0.9540822756075856,-2.790415091184713,-0.10828626896543322,-2.7901859277582246,-1.7693850804615185,-2.803471272223441,0.02538827398488754,-2.8036763667349662,1.2901322270068596,-2.8041271332119635,-2.9674455694260993,-2.5672310850306985,-1.7740018375988535,-2.5671708974936367,-0.6989770252348115,-2.5669692615199393,1.956188928849199,-2.239084673933707,2.130329356352989,-2.239139459722705,3.010745629589578,-2.1036580966048906,3.309626299836552,0.2935526755876098,3.18472099017062,0.2931182301094332,2.4316116482887913,0.3339372152357958,-2.5167206257856054,2.5790963302372636,-2.5163990085313874,2.5781183665870935,-2.5167764111384865,2.5790086941667396,0.14278687977580387,-2.5228303885793575,-2.5222778229588227,2.5218354695453633,-0.6168476786702135,0.02135846635687897,0.20366184674230006,0.021793853948061166,0.6298109789336997,0.021158478020680584,-0.1610803701417951,0.02232147629469109,0.005250753472077874,0.02145757611824687,0.06506931752801587,0.022264376492822292,-0.12104268012007727,0.02188917261776297,0.0012919930717883166,0.021451750614366473,-0.14171228676913594,0.022081884351015525,0.8888079243360185,-0.04356249330187655,0.10197486119886665,-0.043189730504236294,0.2503247634065589,-0.04376903447378199,-0.3225065723542464,-0.04318015851818734,-0.0040220466909632584,-0.04371505560282312,-0.2791729081386522,-0.043601959843985565,-0.5457382739189751,-0.05857313105711759,-0.2928433383490373,-0.05923203365221533,-0.6838994598256946,-0.05955185316552894,-0.11391338437937816,0.01991666087419009,-0.05545814199499561,0.019724302361328237,-0.003880947495714969,0.01946531390663412,-0.5280642591410323,0.03403609668940277,-0.16364569052233668,0.03338018092160354,0.21135520188647894,0.033342482855181696,-0.9833358847941966,0.3601871807096573,0.08609912523666614,0.3596016207490589,-0.08389471396445042,0.35943942291962383,-1.3686167019741287,-0.08111829086686508,0.18907180682421568,-0.08166904789696917,0.3434883418185452,-0.08936203068107565,0.5086418354791674,0.30476479415103186,-0.272886865831608,0.30426143276920736,0.7821452395763565,0.2698269631915462,0.06297218339627161,0.04433124894585794,0.062993829447896,0.04440770259731114,0.062479938743763536,0.04488273247030114,0.23824316800135398,0.09968983769508359,0.09949853993191354,-0.09955051088392716,0.5794115273715462,-0.09787560401913212,-0.06939520296349774,-0.09832202167701062,-0.17973658941185347,-0.09793348275058875,0.9455650455225616,-0.09805376796870721,0.23534909544095647,-0.09857845890729874,-0.029953692801329743,-0.09800142337412718,-0.23628354685197725,-0.09809860878646584,0.22154971386751468,-0.09799238847383837,-0.27754349788840266,-0.09713539227934834,-0.45377249288111127,0.13160544160055934,-0.2614430652783858,0.1322678236770934,-0.18615254583018417,0.13251393658476068,-0.8659226369675559,0.13218000734020366,0.12789743497700282,0.13211400869018872,-0.09458991008845494,0.13200001694147098,-0.12779882995879607,0.14400685378803185,0.7449717956784613,0.14436536909971537,-0.04453622593799432,0.14305319816045609,0.7708021051342708,-0.006918119168539026,0.4539279482045244,-0.0065140715317781395,-0.04770659662220219,-0.005933022525751391,0.5044384105857136,-0.014765190656557342,0.48066132585050597,-0.014633716744211595,-0.41574133802962826,-0.01441664559160718,0.42729586379806317,0.21464930952771086,-0.3865897742249467,0.21443723368489384,1.1381919061120587,0.21408924745911048,-0.14683649613099212,0.592809872692881,-0.2677465005800199,0.5934158836273287,-0.5696345443316767,0.6137899935025579,-0.8362282988689166,-0.2820150035777349,-0.5409048116689397,-0.28288858611307255,-0.45334710929524297,-0.3061974446337558,-0.26853183268155345,-0.054807993336172235,-0.268125087974329,-0.05368754502935486,-0.2680182497421899,-0.054144321408849096,1.3106457042755517,-0.15664882169804178,-0.1576590692587941,0.15685957861847172,0.3838099735440647,-0.29051735784825244,-0.3357200665058961,-0.28992596997298997,0.5181783883700641,-0.2901450292139793,-0.6500363397648841,-0.289973264032188,-0.5630015633450141,-0.29093040906250306,-0.7821151949661874,-0.29028866537884074,-0.20473014225714598,-0.29049675593515073,-0.8893862993282415,-0.2904901026774201,0.4936923137247303,-0.29046369459731286,0.9523138513628749,-0.05501442530028592,1.9456482168738651,-0.05419506934702576,0.827965595114928,-0.05477412107925143,2.7533369917967887,-0.054911508864213456,-1.2308968832643523,-0.05421200211926722,1.086400000356899,-0.05395022828526872,3.3273134343186523,-0.007854838429676828,-2.7783412999886306,-0.007742473978742589,3.4863624643045035,-0.008252115853267992,-1.7051035093798141,0.08933306402793968,-1.408455506753531,0.08984879027830096,-0.8280733368204226,0.08932892237653318,-0.2517500037904172,0.09416073975200256,-1.4128894943029104,0.09388242381590456,2.3200382621847626,0.0936824411095123,-1.4511276237910204,-0.6474323864972672,-1.7343904263974392,-0.6474250021456097,-0.39473153648142745,-0.6480873841825807,2.661139967389383,-0.08322957341840201,0.9015639207160391,-0.08295126278770806,1.4510034561275862,-0.09583016806610013,0.2847885115630142,-0.21314894218249475,1.1887870016710504,-0.21315775902349238,-0.43791791755697956,-0.22950043920176832,0.16247326732876377,0.141569299104212,0.16284259929168948,0.14213103292953205,0.1628302833896313,0.14213988827104368,0.45214850581545935,0.004441352622802996,0.004057761367211746,-0.004066339162737033,-0.7931779715093312,0.07975851025476416,0.01439003371759584,0.08043450444649186,0.8525982741734167,0.08056769889114662,-0.6561089353118695,0.07957939117156343,-0.4195874296289498,0.08050603817292329,0.07629966674409831,0.08028858796460558,-0.025008014544671685,0.08013580061831721,0.07249700024988068,0.07983423378830173,-0.189343861102955,0.08001326512559664,0.31292010140719495,-0.10527311736309247,-0.1741604732743052,-0.10527639866180599,-0.5598620886777032,-0.10457531226166478,-0.12514051575539487,-0.10513676527414861,0.11010666386301361,-0.1042363602943489,0.2942263514712078,-0.10566323726372312,-0.5335204232233065,-0.10289224028746344,0.8788793063311146,-0.10285013547141938,-0.4284317131525902,-0.10344753295260747,0.9876917857677888,0.23255124568907184,0.06506490860853985,0.2330120528544766,-0.07212313224449901,0.23254853804228218,0.9253101399052116,0.23865501769546382,0.7466584732923175,0.2393346090873879,0.3528422050926434,0.23934877448454617,0.10996597688532503,0.6041312320333079,0.4688470107133571,0.6040430573825833,1.1029335314668345,0.6042984476346589,-0.48883809772460113,0.2650989855784073,0.5533822934024181,0.26388169274518547,0.6067822960879279,0.27831795618922317,-0.8459751871812395,0.9535156084137422,0.042054445210478096,0.9527996804560104,-0.008784818376919037,0.9288219108339478,-0.024037892480087156,-0.05059729589118537,-0.023288793547941222,-0.050126309296554074,-0.02376240301512418,-0.04944784964131429,-0.05269427867036242,0.02519650222863699,0.025427569688449954,-0.02486989808916657,-1.0989750296163894,0.4194726483952922,0.09744952603255252,0.41802452530582684,1.9785026260013248,0.4193213446137489,-0.6044163073016295,0.4189142848066729,-0.5978569865113756,0.41951693859757655,0.8724815225414448,0.4184683065190078,-1.078806759161971,0.4187237780113744,-0.21349990092767548,0.4185874941983099,0.5975142313688306,0.41876127760375326,-1.4038721403342165,0.15823493265239477,-0.2437782560686245,0.15808921377046772,0.6115123675180225,0.1581297211010735,-2.00571610251988,0.15881474549112265,0.20622651108730866,0.1583576171794028,3.2539697145838136,0.15860063822110296,-0.6958079599975218,0.33138077311556496,3.1865907440956716,0.3312748529689536,4.841722384913003,0.3319432785063821,-2.2709792466363092,-0.13529426733107336,-2.3605059781153614,-0.13542458842195873,-2.0526689925025905,-0.13438385170617848,-2.98842067135185,-0.10573498300161134,0.7337906686104727,-0.10569054528546319,2.087535797099033,-0.1055998122880203,-1.425803219163406,-1.4721234527190974,0.44043123408548823,-1.4727565783093268,1.3325002363895153,-1.4731275233527696,-0.22359817689260103,1.2024258705791282,1.3028619765259486,1.202426131176741,2.359440485188302,1.1498128739485969,2.021199231693447,1.709597338059494,2.9056231477331886,1.7087810537160217,0.40138639629672535,1.7743323900237433,-0.33160766920869666,0.7141182708823586,-0.3312250250745501,0.7138093259263931,-0.3319379856953095,0.7138273324713869,1.1956264401757548,-0.3894356545410332,-0.38928316891487,0.38934526116190615,2.4730283102976145,-2.791395089863189,2.2484730943929816,-2.7900978780725487,0.7626483675189439,-2.790980880757472,3.0139787282930217,-2.7905121725522393,2.7416449899350663,-2.7904296902152006,0.9021336079874288,-2.790398153854048,-0.9033653319282551,-2.790207812041761,-1.529626516565901,-2.7906559976205068,-2.732730708559053,-2.7912063760915635,-1.5878026350866423,1.9948053483978396,-1.093272604831434,1.9946959549513947,-1.7585463943084019,1.995241831981389,-0.8404084353437615,1.9946131866412313,0.7349764345858211,1.9961828667570185,-0.9711403962680516,1.9949268804763973,-2.4788561505148192,2.3365513607556836,-0.29723637310245904,2.33637378743871,-2.3915377528010997,2.3369032703010073,0.8339749267518571,2.494689916421217,0.6254346350581359,2.495070471425498,-0.2899007348245166,2.4941475421130606,1.2161333493328357,2.5115725865100456,0.9927812078654039,2.511687763685221,-0.35773131232748917,2.5110731513003484,2.8812625681635042,2.3709310400973926,2.469479706499535,2.371326441516249,1.4377190353433433,2.3713561586283065,-1.1843060663173435,0.8611201663767589,-1.2564717600369428,0.8609357152924708,-1.5031783744109384,0.8245578742286952,-2.056915211071251,-1.5716299235438655,-2.3253524383437507,-1.5717285483299421,-2.7013172120532385,-1.780981032332816,2.888140901430493,-2.969694494458527,2.8882403199438222,-2.9687575147475402,2.888797747257005,-2.9692232947250727,-0.47908336923235917,2.882586531209395,2.8828665287881656,-2.88241035422792,-2.5308745857666795,2.781377082051462,-1.8982844901366935,2.780771566818943,-0.06613456638266745,2.7808359341629614,-2.797292019265014,2.7809506542184086,-2.461663735833037,2.780529895426468,-0.2786735827364705,2.780662307639464,0.42212099025410105,2.781235878244965,1.2668969012906635,2.7809314892566355,3.0583301132641862,2.7813994211908972,1.3721172169705709,-2.7556635755373757,1.5070691190491794,-2.7561537258102007,2.369431926592268,-2.755494569654321,0.07410572023820601,-2.755530136975149,-0.7194646511226216,-2.7557553194681854,1.0711437101454377,-2.755516678051922,2.2274878172248918,-2.7631707673763146,0.4530866092300964,-2.7635799769068474,2.9861926687359266,-2.763663866420329,-1.1092145598220777,-2.8980921023786017,-0.8012479876197309,-2.898102349306515,-0.3541176398308369,-2.8987609319724683,-1.4528581132120837,-2.8832604843062257,-0.8106462072167236,-2.8833748420353844,1.0605698068109817,-2.8830653868476914,-3.0294514209743757,-2.492792619156087,-1.9809573290707878,-2.4932966652591766,-0.8665966900114742,-2.493506466857734,1.8376377142834959,-0.8257789196307121,1.741463966745597,-0.8255950769894378,3.335109589018023,-0.6936027574014444,2.664917973645067,2.4358453815964713,2.758883369482785,2.4355909843974937,2.3785986063114106,2.573409751047626,-2.6494775044049663,2.6276441622917046,-2.649018013493387,2.6288009013046656,-2.6490660523771896,2.6277837412617853,1.291478665040221,-2.569298240961878,-2.569988987410754,2.569298714530079,0.013644398212963652,-0.13775929335384376,-0.2070138306663186,-0.13822297917100715,0.16173343705528556,-0.1382255898392972,0.1627638074459414,-0.13872901583625324,-0.5140549853108454,-0.1376378888258538,-0.19607580776123973,-0.13794800692713766,0.36018332024212985,-0.13800400188850603,-1.2399892567308162,-0.13808352461393272,-0.1358233614889623,-0.13852881837493902,-0.6651278674318587,-0.12153689363318035,0.3025571391501183,-0.12156231764307127,-0.3062572235132942,-0.12147869539613557,0.3144685927264598,-0.12193616408942046,-0.1341151692497934,-0.12145848146197138,-0.02432179934904816,-0.12102894567156983,1.2805713923379862,-0.1854212701180984,-0.7958939224191551,-0.18607087001862765,0.608455714430468,-0.18580021457593332,-0.5022173345282511,-0.046723386296444055,-0.009710181911731175,-0.04670378581825123,-0.5182292495937484,-0.046727272158125485,-0.4548385921722248,-0.04444352010082981,-0.19911749276802831,-0.04549186719515624,0.5859513339671018,-0.045418728631213344,-0.9699128028647508,0.3583213670197364,0.10116386973823484,0.3579950254303931,0.42688707814208127,0.3578855359891939,0.1592284831633946,0.11530891463427685,1.2078267168211543,0.11531414308330191,0.9431623607103591,0.09270915681937156,-0.041602142072727624,-0.22582620188972186,0.6166017802889582,-0.22586624657414028,-0.0013081799499880878,-0.1501746292485765,0.07605598362294733,0.03696665873367665,0.07574644412810466,0.03670768289275997,0.07606929202199278,0.0363544573213643,0.914680667837995,0.03557190089688617,0.03504985423129719,-0.035043802270723075,0.8074162372872643,-0.12961955223223115,-0.039761162471350614,-0.1287905803950104,-0.17118364065052386,-0.12931032256877684,0.5560428465608982,-0.12892024652915496,0.2286192202973359,-0.12888025388310437,-0.8525184683827151,-0.12923026880387134,-0.12864946913246939,-0.12871114418324725,0.1132816766795483,-0.12936253238892997,0.04062754658802734,-0.12908553714842502,-0.947454204344829,0.09938068698457246,0.2510743441756426,0.09895772627284742,0.1557724710279219,0.09909788805247431,-0.07369006520642715,0.09923222234025346,0.8576709716701016,0.09942159017042539,0.16061544529693395,0.09907150887315662,0.25564183768735627,0.0906458316774475,-0.9325373598029102,0.09104736580897871,0.9784431348084802,0.09049585180442915,-0.7227589769908705,-0.2180669929146269,0.40681584065594456,-0.2181889439941888,-0.6113582299405123,-0.2174753527669782,0.12396906503088796,-0.22512612668922802,0.068682585160552,-0.22482856707600035,0.13115187027007702,-0.22501074212668878,0.2322610349491231,-0.12483067938753845,-0.5168721520255345,-0.12532432647900515,-0.3127497625852676,-0.12553496860509017,0.9846100862939607,-0.3033140019887948,0.22828309347601317,-0.30359502483321305,0.682083326529157,-0.3113998356498357,0.26513543432437453,0.16637046662527952,0.8235053617420396,0.16613723245434633,-0.21342501168193995,0.1390340312157815,-0.14911958759347094,-0.1518560938444759,-0.14842823474405203,-0.1518120310612644,-0.148038716047948,-0.15183796596386834,-0.5610850184225331,-0.03779998897091435,-0.03790995533313808,0.03767494881046009,0.17269742578811945,-0.09181345182121603,-0.3369825536240748,-0.09138632500473104,-0.7814986649865702,-0.09189368802941042,0.4093581212980661,-0.09115878004298014,0.09644464683450701,-0.0913834871105575,-0.31515899218000104,-0.09189320580880903,0.9820557218739412,-0.09160674273720959,-0.0845307415186669,-0.0912768028169487,-0.31095917644251186,-0.09130994559666378,0.05685996332333936,-0.0403857666331699,-0.5273071324579053,-0.0402712752678911,0.041573208852694665,-0.04033956446667831,-0.9988079227476183,-0.0397469040210749,0.6368921644924112,-0.03954453333057429,-0.15647208329174425,-0.03933130234507632,-1.7497374745452472,-0.05737942897081862,1.0118450222451827,-0.05771459664575206,0.21894985663751368,-0.05696681095648728,-0.6135282320669658,-0.26823669624643015,-1.0242797023225596,-0.26859694638021986,-1.095386599311335,-0.26836724047357335,-0.18262095824238916,-0.2667353463737503,-0.9280165384072134,-0.2665865469065206,-0.71328911546708,-0.2666864374678807,0.25091076965898207,0.14010083666969267,0.4224349608647652,0.14013026701989353,-0.004580438524388707,0.14064567929353208,-0.048081164001284524,-0.3774387003973729,-0.04749275178243186,-0.377387888588025,0.8666633639134377,-0.38470625114580315,-0.04749802837651459,-0.8053442291855331,0.15830013991161596,-0.8053793292024265,0.031113009098181047,-0.9089233397947472,-0.06712794209078941,0.05981443160466005,-0.06629116360179906,0.05987146015213391,-0.06652219848944248,0.0592518471877889,-1.3335902307209266,0.024699877082615982,0.02402455803370087,-0.023996774362569716,-0.1616585924680316,-0.037090844030278805,0.2154542847789509,-0.03743976198797089,0.16618113844419652,-0.03703010892563981,0.23135826289811645,-0.037024628261460316,0.2545707076407223,-0.037241227279548095,1.040153396902797,-0.036555025842144484,0.4407047747241387,-0.03746398371129564,0.1915049346572118,-0.03724197039528804,-1.155154778158149,-0.037038831053685065,-0.8238513644748573,0.05984873085406631,-1.1306763520774992,0.06046987071808861,-0.015532690227238657,0.06023598917222758,-0.6199761119072588,0.06025997039390993,0.956771387191085,0.06075664169555557,-0.8819324983405102,0.0608316282508886,-0.5633745644072873,-0.1375222185155846,2.7855152212965173,-0.13839447931443288,-2.877477361075662,-0.1379926945895779,0.3428724862945827,0.07888182073943327,1.0939684917555894,0.07862634841777481,0.8097126884124161,0.07882961354078784,0.698835011594039,0.03675267578320015,0.7043968570848049,0.03768641065956712,-0.9712730311511403,0.03772644581778383,0.644162736855593,-0.7131377675837647,0.5965160130832932,-0.7128265055998506,1.884660529781327,-0.7129291533207347,-1.8866939495026913,0.37485928530637996,-1.0595652070201624,0.3752306782030838,-0.4181110494284509,0.3816818249789062,-0.2857624255710145,0.07930082728997517,-0.8585131048491609,0.07891322750607563,0.3218963961551501,0.08451813437111508,-0.21280938239410113,0.17837394793780487,-0.21234454842706185,0.17801290901101724,-0.21290788729887733,0.1784033577444531,-1.9218787155228076,-0.11382243854221381,-0.11359907466335689,0.1135970440516367,0.5282364900948318,-0.009898665489241931,-0.16086307982594533,-0.010167823708557932,0.2784769830186655,-0.011220339009611576,0.49405753196482277,-0.010434395427550707,-0.3639546780680682,-0.010168590992615556,-0.5323700587082301,-0.01028476726726552,-0.3189229038754087,-0.010178684393760217,-0.9334997994297053,-0.010331793860694554,0.24861846704644808,-0.009834376658006105,0.6277306438020437,0.24456393820127348,1.2892880376469122,0.24465643318571534,1.0146213790734393,0.24490073404563023,0.8824630982891314,0.24490110086453326,-1.155705810699619,0.24427902992562167,0.8883510458338224,0.2448864353704105,1.2114480502743399,0.4745781131049362,-1.5625252544827897,0.4750424625598388,2.3305985018958975,0.47566179137955306,-0.33314454565526946,-0.028529247048629275,-0.8454417157310358,-0.028737354715146254,-0.7853056866520464,-0.02906306716417685,-0.34667864089446354,-0.017625899405008427,-0.4426304780818144,-0.01741342426586284,2.2630654307808737,-0.017523663370387656,-0.7861086420150393,-0.2689284857539499,-1.1845942048783493,-0.2695981221100684,0.07604569401596627,-0.26946967500145835,0.7617937812716697,0.03340422609568869,0.3599321309762809,0.03376474100541352,0.45199349126271043,-0.004720584289165966,0.05721153024628178,-0.3614572676704692,0.7217283510391169,-0.3606336925644034,-0.35061348104058715,-0.4341628378299705,0.1392294856506962,0.0393361831602067,0.1394094052670392,0.03899455450040209,0.13938987334603842,0.03949789351777643,2.0214051015231225,-0.06634337945279475,-0.06603086432254247,0.06654686534611859,-0.23223767262077155,-0.17783424553332483,-0.40635486593086684,-0.17833988270020162,-0.3146777840931568,-0.1773562779814553,0.18299415085352913,-0.17741033533245237,-0.28071223183097316,-0.17789673011238805,-0.6953791294820801,-0.17742744598630877,-0.2496317917045213,-0.17735280599606068,-0.4388572254143767,-0.17775930582703736,0.3325895324676815,-0.17778551502248274,-0.03990797493353508,-0.030663365411439755,0.4071263295880222,-0.03100356782217502,-0.40564385721365115,-0.03023632420075438,-0.1282530400770024,-0.03018473033071427,0.005578661167820851,-0.030835922192413476,-0.3442714308892541,-0.030909615739566618,-0.20115964773540815,-0.020878027912913596,-0.030058179963675158,-0.020703624149945917,0.7421687207219075,-0.020592316416311315,-0.3529972766252026,-0.03289698928363114,0.02417479606173878,-0.03280748895594685,-0.11031529104214235,-0.033268436112727125,-0.40854838683836653,-0.035297355263897656,0.15314236379007262,-0.03500350766399718,-0.1939709236677006,-0.03473623011147409,0.8397261752546643,0.6634856821108046,0.5613991094906868,0.6632427759614357,-0.0434450731816321,0.6631289236191333,0.6877776384064249,0.221883353316217,1.0069609523075365,0.22168724142934282,0.4057295345270015,0.20858051622978327,-0.08206445167521875,0.8549282621488962,0.3119685291065133,0.854692392832341,-0.16789733903271317,0.9712113487767071,-0.10845963963780933,0.1963690940622564,-0.10848616085641352,0.19682380799521654,-0.1084344472739113,0.19723514105639922,0.7390483313732422,-0.03715561789467901,-0.036878954855631446,0.0377609806085326,-0.35018406248155143,-0.08787807069402934,0.44300983842582264,-0.08684063989993338,-1.0453421122696342,-0.08722549329007401,-0.07415911799534747,-0.08722801861174978,0.43393353967768344,-0.0872726875161702,-0.020818855890442797,-0.08728952166078005,-0.007856761724381814,-0.0873743644125746,0.27751504087140233,-0.08745124083678427,-0.7697239091208717,-0.08703079106494921,0.17001765853949644,-0.1097177420092874,0.38983056586167325,-0.1097640510440837,-0.2801253495961767,-0.11025237169813383,-2.2012987895160383,-0.11006846447897399,-0.038813503184691255,-0.10998570321892197,-1.123429883143484,-0.11027330878188045,-3.9933514434179505,-0.0969043236353647,2.2472554929496065,-0.09742030242832038,-2.0127851704176676,-0.09762684824111882,0.6990212721674078,0.055035316680414975,1.0696723794059027,0.05551363459592751,0.7214156983849145,0.055166489191934176,-1.3736084158705584,0.05254490651348436,0.3095540701610434,0.052021353949905855,-1.4323850177031447,0.05203743595118014,0.25637826698150523,0.2763403908886872,1.0216985744053995,0.2758574798042591,0.4513416811509962,0.2765445148043475,-0.8708219396152402,0.016917311054229178,-0.6371900953554015,0.016732801315965006,-0.22389853834522805,0.04912694105895436,0.9741119707785871,-0.16820878842348796,-0.25079285334101153,-0.16799073232722098,0.1597412628205377,-0.07252744913554642,0.15093964953051783,-0.3885443741254556,0.1511542889473935,-0.3875422831284334,0.15051839407543496,-0.38817463374417327,-1.1986839277752466,0.17692318573761373,0.17677869408201113,-0.17645618116398396,-0.4626466022495684,0.04966555082156979,-0.3157668837958581,0.050444350939548105,0.6368306313804024,0.05004064408128486,-0.2959775380392406,0.049837936502628175,-0.012232388032569786,0.049615873964409835,0.17960419176862938,0.050285715468205955,-0.8088501534768909,0.05002855736537562,0.965274194789151,0.05022196348331473,0.2256881803189041,0.049824044058185996,-0.1531238755733674,0.15922587475465305,0.06706673264620346,0.15845947238495334,-0.26155237814874904,0.15871944902041824,-0.6977458301600645,0.1587377038542379,-0.16343578704367262,0.1590243311253018,-0.5326788993808875,0.15934971248341678,0.26563147520575786,0.05376826095753718,0.41282497998946,0.053920653422653016,-0.8523400483204487,0.05337303271170155,0.33584801778226253,0.027809181653725593,-0.1112147474488922,0.026967187822928135,0.026209452643201684,0.02697796136567406,-1.115530147223141,0.030255384860403134,0.4835749844454513,0.02988607464654372,-1.34271423358311,0.029764510130067423,0.25614669853072347,-0.44160266870098913,0.5332584751263095,-0.4411108687536314,-0.21909645817815623,-0.44177078505121165,-0.6033606316858485,-0.27107818425566393,0.392222351935219,-0.2711674570666472,-0.0839602808480451,-0.2883730380431355,-0.3169826427268714,-0.5910092267985178,-0.53835222758343,-0.5914761819920594,0.08318738445288938,-0.4559082188256958,-0.10397414208975862,-0.3304325908523047,-0.10394373021152624,-0.33004581826905743,-0.10290346720425335,-0.330829262074009,1.1142475375143004,0.10896622792917261,0.10884523946209176,-0.10976169896743952,0.41416750800592145,-0.09993840966897717,0.01352186378237697,-0.09937055871603535,0.10105664443422276,-0.09896123001287456,0.668926955422615,-0.09946977752253673,-0.06288151318597787,-0.09905060058590094,-0.006314732667625174,-0.09993261577583325,-0.03811162546288373,-0.0991269083435883,0.20720973946413956,-0.0992488974849104,0.07553495588476497,-0.09995382735257848,-0.23055473103525842,-0.2101558947770222,-0.05180745204494264,-0.20993252174599938,0.5515779971699022,-0.2095445901013606,-0.05817501130808622,-0.20899293739500535,-0.15485042271072788,-0.20871002875234018,0.9909372276439933,-0.20966266754341242,-0.6194980932624647,-0.1825343777513898,-0.0306532638608758,-0.1826178192882475,0.5660629732838536,-0.18228567616137925,-0.5113805944668068,-0.26567471384359953,-0.2746728020704343,-0.26613938547929517,-0.22516963711456164,-0.26519668235997607,0.6562545981766387,-0.267573609271049,-0.43764570120028623,-0.26798259871298813,0.07428173586212375,-0.2676273230915377,0.8808431941005386,0.5663299938462513,-0.0832377742782272,0.5670880876754015,-0.9058779419217989,0.5668315094877204,1.097189371137803,-0.21117392026432955,-0.03318612849296581,-0.2115201104148229,0.2404978615884809,-0.2169118950146927,0.5652419871457869,-0.13679894713034954,-0.0038732472162523106,-0.13690805189979258,-0.30166846662803426,-0.13106927772792343,-0.008365901633018475,0.07062790216471733,-0.008973201517342733,0.07044541253445182,-0.00840800280563841,0.06987398392369715,-0.541010781868467,0.00425071248041698,0.004460750656211933,-0.004313901111013938,0.1264582026637325,0.007174887614205367,0.3511266623715087,0.0067434626752102215,0.32724048015768675,0.007369662864953866,-0.26907675067526043,0.007181553708314409,0.3337465188517312,0.00676198868845348,0.9162967039221306,0.007046942700303533,-0.3224416970104674,0.007205108791526077,-0.5787044205146575,0.006785397208402816,-0.12925561130033936,0.007466520604613678,0.5364318575013306,0.18987294485653716,-0.484587335401464,0.19070112382764276,-0.7196844316063152,0.19105113941205265,0.27205504389214974,0.19027525531824785,-0.07240362242625813,0.19062451192184848,-0.1161161780509151,0.190028926118883,1.4327408970458653,0.1763488863184853,-0.9803544184450937,0.17674046274523966,0.35738557038209434,0.17589377474016224,0.3826888393746274,-0.21732915368501698,0.24003675510300332,-0.21724503667008516,-0.2672641352027888,-0.21755808924440118,0.054573604226627104,-0.20224037523708438,-0.2843154130891352,-0.20229538829768007,-0.2592254123012716,-0.20143667041292468,-0.6733242600240815,-0.039305622723621356,-0.14363183190558926,-0.038785147248829074,-0.4861231431113562,-0.039024418370402617,1.1573964425522332,-0.14905885246864084,-0.24850284355626406,-0.14905732908522687,-0.07809369550107305,-0.08900842954475037,-0.166079236405867,0.12231465910348949,0.15493088648290795,0.1219868126767999,0.2646904765207025,0.19479215626897348,0.03994078381943574,-0.04486056434136924,0.03920793182903522,-0.044822807464669524,0.03900125440583653,-0.0448873184661027,1.2012547390411652,0.02296956913592465,0.022777976313041917,-0.023250457912525564,0.5511824314571533,0.035782257378425955,-0.9780171831592192,0.036080229560261676,-0.7807307256191314,0.036043248390884255,-0.01036257261853513,0.03576602255425961,-0.165001807040432,0.03581479707995615,0.41306949915703833,0.035378681566294715,1.3074593778121475,0.03622418766177181,0.5786073255163985,0.03564162342595139,0.19655394893663602,0.03669076193247732,-0.4098568353981676,0.10654274796642767,0.6521632715517856,0.10618990025261908,0.6722409443594297,0.10693495237414515,1.6429464167417966,0.10700382278622263,1.0047587439587908,0.1071168139087277,-1.645048002583591,0.10666004829609473,2.157235243865008,-0.24115223830859367,-2.381782140111501,-0.24131398612991356,-2.4385555364926264,-0.2412185166929665,-0.02376354391909945,-0.11716547795550383,1.100136331083684,-0.1172517811183156,1.7043686895038086,-0.11744206380929659,1.5787970868597008,-0.1697548882088942,-0.6813990805708118,-0.16965498684771893,-1.7541334571637752,-0.17023599391671548,0.7229673254998243,0.400403457587224,-0.9973648035155983,0.4006424803115603,-1.2226506572325058,0.40113491632390813,0.28038698194123335,0.5355650239921602,-1.4800059248937858,0.5363687172231334,-2.073592373569362,0.544879528338145,-1.0705327916064842,0.12450193359283052,-0.7967149453922854,0.12505561030598827,0.09195600986716213,0.05379476085718288,0.08750252365415734,-0.040390560748624384,0.08755834678803398,-0.040579112388823536,0.08752998220753372,-0.0399777558789852,-1.5327619892911295,0.08251647281332028,0.08250218776884415,-0.0819877633834878,-0.2808316328352815,-0.045599550232384954,-0.30931168988195074,-0.04544542019700947,-0.23653311479567943,-0.045177974259865646,-0.12866531817736845,-0.045298942983903585,-0.14788422670507717,-0.044764972360917955,0.09003287901841876,-0.04534960961985563,0.6599233940036194,-0.04557199466974279,-0.24951528056312547,-0.04460741218765459,-0.13672235645600753,-0.04520464914574202,0.1035096294024034,-0.043580129076745744,-0.31926842473735645,-0.04390302119933784,0.37517851592458357,-0.04362474128103824,-0.779142160970397,-0.04362414096825487,0.21255510276961334,-0.04415819578378907,-0.10669644326950402,-0.04385808624692025,-1.4059371656793487,-0.027151199730653212,0.8396274369512878,-0.02726579198975492,0.07708616641737892,-0.02764449919019151,0.22261988100632762,0.1235383133983896,0.2610937930435879,0.12363029252734463,-0.06041395965665979,0.12365824841949423,0.4663812840740156,0.11995248960325833,-0.4194241167362797,0.11925766957370895,-0.20239809361319144,0.11967240385546218,0.6832469721360298,0.37033110426683263,0.6651979337981557,0.3699798237378123,0.6976437211308073,0.37000088599582664,0.9495933709437628,-0.07211165152665072,-0.07985278079839232,-0.072244332322701,0.5033345910166893,-0.16134290769904092,0.10614411664235511,-0.4104158213352421,0.1233411550662778,-0.4106478312732097,-0.17054874642110837,-0.6248457860782988,0.0015224566539131404,-0.021437304551992727,0.001293078776560225,-0.021530795454379283,0.0020495703279102286,-0.021423689539417708,-0.6210903687849707,0.03100364643363579,0.03144287296804488,-0.030774213402918804,-0.3608456557044206,0.07576789582544045,0.22465574050624557,0.07651602431259748,0.15253103360536904,0.07516665725381903,-0.5773743884917667,0.07536208486069078,-0.03517319038647598,0.07555566802658471,-0.3419228973953567,0.07627627931489443,-0.4276212324303986,0.07559093620160302,0.9282384564163578,0.07595614747682107,0.5333965435696446,0.07514168955940807,0.7160750908019681,0.049719394634203405,0.8279754776713295,0.05012591994875478,0.3149186355432728,0.04963985623551128,0.6805626039665673,0.04983027353917404,-0.627245190360931,0.0491525951046178,-0.2792813701638521,0.049946063208151474,1.4732931297014014,-0.059394087177341244,-1.777857383178607,-0.059878828441167306,0.24814503349113431,-0.05917715531462615,-0.9061984214971883,0.041915474774348184,-0.6676418093958533,0.0413088117479433,-0.09119303171573544,0.04180316188676073,-0.34944031593841207,0.03715823282231081,-0.13032850760827197,0.037130204649709835,0.31844738890003094,0.036306756339450484,-0.4390343251554457,0.7568091050307322,-0.0017767329844788583,0.7567623321424148,-0.8725905940620902,0.7570888892466243,-0.35565601852188833,-0.4179160265470929,0.980084811764298,-0.41811764621440395,0.9237260563095023,-0.42746964750035865,0.5044498399506301,-1.2220100557934686,0.4578767657314986,-1.2220822481707305,0.03362663774891532,-1.340128310984956,-0.007441188324393863,-0.15096756149708118,-0.006898315303088961,-0.15060085930870287,-0.007490639026085102,-0.150824218714108,-0.8169071106611646,0.1369172462390059,0.13609277172704737,-0.1358267491845195,0.3146035887258063,-0.13954780181656834,-0.5732199260963252,-0.14001047768304536,-0.5127273872304161,-0.14025328107913948,0.14882474819857822,-0.1397739596334061,-0.4193116116992322,-0.1396758641918126,-0.7446205225543702,-0.13947939753064242,0.4913530778599138,-0.1395236636511878,0.3537278902387625,-0.13997544428349945,0.45246233875722297,-0.13942519007390292,-0.01671260370179071,0.030386639151253888,0.19832280805461472,0.030438320188077152,0.05272199166436885,0.030065134744039792,0.06345149858027581,0.03052860824034886,-0.23160950586206736,0.03037428911052772,0.13052173264839428,0.029809879852871753,-0.20412730264400417,0.06530667186425895,-0.4070532816413608,0.06471922862476404,1.0337406032385614,0.06483792253099441,0.08908317692210618,-0.1813000281670254,-0.25433018826628156,-0.18065140145056968,-0.33551095531036246,-0.18141598390069702,-0.9741015381025169,-0.1861929460626105,-0.49781021123369024,-0.18634195107180873,0.14198534909379856,-0.18636268327863992,0.33370403518374414,-0.13028958132004975,-0.43310396782917215,-0.13019478471658275,-0.2653383729467362,-0.13022107673851424,-0.519437953956304,0.026231828065348087,0.25914426212025066,0.02595594083435769,0.09016472221319262,0.016835227658822696,0.571928666834184,-0.318590207031441,0.256629092586363,-0.3185489723373392,0.1706891676564375,-0.2706816009887831,0.016910236965412512,-0.22961490425115427,0.017020017413012973,-0.22931697743940094,0.01776908764836282,-0.2303315255124791,0.006914149445045387,-0.041389942996775925,-0.04074991999108916,0.04197783458143493,-0.4786581147175083,0.16586239522063592,0.152277656503645,0.16563084571509978,0.39869693251191607,0.16511878207896405,-0.7856361191007533,0.16511309574142694,0.06793606187638841,0.16536617134146475,-0.011400160603420485,0.165240215980829,-0.0008432092716796897,0.16578781164181497,0.12324812967405599,0.16582799974849247,0.2922895473694861,0.164848576763045,0.27965316807546564,-0.12838064463282609,0.250049634517979,-0.12869259957726262,-0.7259828461662056,-0.12855155679788474,0.22417414197635147,-0.12921333951266403,-0.17011407696477282,-0.12894639990075532,-0.4297281267341565,-0.12914391089216357,0.0672605928048213,-0.13089712467864273,-0.8702100739697559,-0.13060463444664355,-0.3406159645562175,-0.13025313657242024,0.09162315667716908,0.1277207800780483,-0.2273869720822747,0.12742518775571213,-0.07689493474016243,0.12838171217160996,-0.3559795094044397,0.13390118921396202,0.3519482251568453,0.13329887485208627,-0.034464462992112234,0.13331131543941513,-0.7082192090595903,0.33788133505603773,-0.09344324314098254,0.3385080186847575,-0.6691499596079381,0.3385281493264581,0.2710656979291669,0.13151253066750745,-0.5019581501081289,0.13137580811628374,0.24141351402231762,0.14666911242016126,0.4867990168757646,0.06319504637232384,-0.8194262567980916,0.0630433442595287,-0.19082262847259232,0.17246649445030837,0.18842857394039617,0.14210000541151077,0.18774784062166636,0.1422385972600039,0.18811214132956297,0.141434637217035,-0.8376479074901025,0.08008374159735553,0.08044453902301747,-0.08072300203586429,-0.13077370396539428,0.07509315965475796,0.08383589646728065,0.07540055427576295,0.4491201878964975,0.0748804762530553,-0.284644198788224,0.07452930264945082,-0.07154651553243009,0.07516100003274676,0.2657124128820378,0.07461067642928407,-0.5541109138786902,0.07550840938479517,0.6795255429905478,0.07510613490625892,0.226838337547525,0.07537852837289302,0.2152049344819151,-0.0863841642210389,0.49758050926193675,-0.08679757768987789,-0.6703304259324945,-0.0860523628995157,-0.14652960489195002,-0.08661326453267859,0.7376780849688198,-0.08638844318128047,-0.3722143941433595,-0.0863154938610661,0.007421521887005687,-0.14368532275481982,0.07999113713169181,-0.1435415206989089,-0.7066769841056454,-0.14367359626457887,-0.1924248106483883,-0.05199451978919217,0.6121107090069258,-0.05159517368580269,0.6727049974730761,-0.0516568925080515,-0.4016254629329893,-0.049192383613804055,0.5383244991434956,-0.04832080462989623,-0.42093342540378964,-0.048593415295746914,0.13554604056741829,0.21218554128534683,0.2822934219416295,0.21202962276490417,0.16192352323634954,0.21305401693536774,-0.624203410289423,-0.12930230029465703,-0.3701966945186751,-0.12905172735424655,0.4471838841529007,-0.14687107661097593,0.46349988914552387,0.15730391646973307,-0.33870149103597946,0.1565025915025796,0.08742733411869864,0.11153631800731609,-0.050927082374650226,0.2793504110957076,-0.0509441894591834,0.27983889279355045,-0.05110890894902943,0.2785785841442834,-1.1789769317903709,0.1725079849071016,0.17271432300063128,-0.17295118192531173,-0.7762372726118285,0.044893726069637555,-0.243204855413437,0.04542438931224173,-0.25218096772969606,0.045201323257702444,-0.6529494428221825,0.04536819168079119,0.35658742528776255,0.045227657761902976,0.7028415610861778,0.04515382154711338,-0.4455696062294457,0.04487386250532498,0.22833123790611407,0.04537253967845993,0.03372296963088709,0.0451681674079442,0.2368448700362725,-0.03404183444386422,-0.27797998924118583,-0.03398301199673171,-0.18547278589760907,-0.03447204069339186,0.1537040698623785,-0.034571689246365035,-0.610041770305993,-0.03408703174043388,-0.07768521467082672,-0.0342686090103318,-0.6199584968626157,0.05751942801300095,-1.0695201019422123,0.056745389275692455,-0.367186902146488,0.05754024519755389,-0.04526932415825308,-0.04166425576293748,0.34197709015716504,-0.04115206411749849,0.561406052910747,-0.04154981784967705,-0.07182255212084869,-0.0291453911083652,0.23598698605184062,-0.02984802163944769,0.04622668156402088,-0.029028482417166226,0.20052431747039665,0.19456349407655327,0.321166137573418,0.19403836062799706,-0.3322033481319702,0.19431266656560087,0.31371249141078505,0.21521392991400337,-0.0011440186547596416,0.21538225043599948,0.38823084735977037,0.21088893240401074,0.11897686926324816,0.5019615292037607,-0.09915753907133805,0.5023390149429205,0.08567656307013415,0.6953054701303019,0.08238694733209218,-0.1145848041981391,0.08233849012403283,-0.11387862162660845,0.08274881792670274,-0.11413493111720041,0.649410351697146,0.04969444972736192,0.04954942881161216,-0.04988827020474182,0.5900289072185567,-0.027461869889394436,0.31645256866840776,-0.02650275553293344,-0.34886571801700217,-0.02753882613036192,1.1909834428745925,-0.027596375910052946,0.31336285900825284,-0.027247838343984702,-0.2792176769715207,-0.027957564276679062,0.8691823569208403,-0.027386072749841107,-0.029121103599113088,-0.026734362105675775,-0.6256424177414074,-0.02772268544855311,-1.302970325273921,0.10181187833385315,-0.38208352537045914,0.10178909415110161,-0.15250564690223173,0.10165973254731016,-1.0266684874201328,0.10158271380683072,1.0428625731831438,0.10221212755540023,-0.6098401505090131,0.10204058001168083,-0.08623597162409245,0.11800102959265273,2.8036029133558737,0.11821326615063192,-0.9313831546381476,0.11897574723725045,0.7490873060575346,-0.06943840441174301,0.9425541466862717,-0.06978135417603198,-0.6894641785723061,-0.06991083624999644,0.06786895422549757,-0.07483046346559569,0.6672748389217044,-0.07494576671770345,-0.7163900507272452,-0.07495728038659966,0.6722824515473904,-0.34895865140131144,-0.038696464800814595,-0.34906633628058936,0.6701547327301307,-0.34906688430624655,0.16270115114102454,0.20551959136019604,0.3095718303273124,0.20528493617365917,0.018668150562713787,0.2502134420931482,0.4103774712971647,0.19363703797306067,-0.1833030479780082,0.19417087306604144,-0.07110287666896467,0.16602853256545103,-0.04420168192060275,-0.26746215184767375,-0.04390780348119644,-0.26698759497437,-0.04398508498871545,-0.2670529600190716,-0.49081173019958013,-0.1615986637311133,-0.1619612217018794,0.16212234849550863,0.09215291246210784,-0.06632055415748313,0.028096758652652154,-0.06645806026881344,0.1500919044874404,-0.06646268214419208,0.2828996678044491,-0.06648296482190995,0.15110181440536966,-0.06683372351269389,1.1478800597443475,-0.06596041477194982,0.36876728306239565,-0.0664383847171555,0.2816119279989857,-0.06698734536593924,-0.08572018759684791,-0.0662861504071159,-0.02779849859491104,0.15043664514082863,-0.324180515903292,0.15068441020290926,-0.22976128921805558,0.1505008560279709,0.26082004168756906,0.15039875224444663,1.1808151077934796,0.15010374243734734,0.22563110831186703,0.15065590032880286,0.36954158930372033,0.24532838855391217,0.4221477568015135,0.24550748023614458,-1.9205103836018707,0.24594732764179753,-0.7035154180231686,-0.21341658170057412,-0.6746313450731347,-0.21235260380020235,1.1768894062283606,-0.21319730322292194,0.5228521646278395,-0.24099790282030686,-0.05702288212684491,-0.24149574726752132,-1.12230101591944,-0.24103926104013662,0.11439202098490574,-0.3148583098585227,0.49141940032968867,-0.31488801841328895,0.08234286457497221,-0.3148626896835016,-0.25263952215725016,-0.3972536923155401,0.04258031882947588,-0.39644176874322745,-1.3801586044556005,-0.36221763681610986,0.01101138212856678,-0.20948517706536268,-0.2618521407684156,-0.20944391135413187,-0.4740125667395525,-0.2624820758981674,-0.1887693732511784,0.03870573602136597,-0.18932155213762766,0.038785408593902795,-0.18929685195586374,0.03850219403807166,-0.3930880477379947,-0.15880621373350226,-0.15908077398766193,0.15891861868066828,0.14338176257336377,0.12773475614295296,0.14823759111773455,0.12690696243669805,-0.07018420348819983,0.12766757256136615,-0.33642959028358155,0.12685059479723756,0.09275659839554375,0.12752763236060086,0.7924640420267232,0.1276987921995084,0.18825952553353256,0.12772380498921573,-0.0669624753812586,0.1269187423079811,-0.32002217955653217,0.12690756529792832,0.49654754657339256,0.039339669107404225,-0.40076497118367665,0.03989772843743603,-0.5292662959896562,0.03948612193490108,-0.03863828917725685,0.03961318362078347,0.5831040250565259,0.039088274938073174,0.11805692716974873,0.039089651811791436,-0.7658972858141216,0.04502656250256329,1.0829769011304688,0.044347196466160047,0.32513991321390456,0.043858854291846536,0.49348952641571964,0.0022176813728736152,0.11354658176853702,0.001553038884231086,0.560201758542221,0.0013146351471326847,-0.06921149400430261,-0.004941989794780222,-0.41480311086314026,-0.004821922636024767,0.49719091383897024,-0.0045046253540495795,0.3702210922361,0.4703465164444679,0.09224946478468811,0.4701737628012832,0.775747765630875,0.4706177550310763,-1.0087625757842087,0.07802590532446368,-0.5712536421161932,0.07826380260746246,0.27601975060856815,0.1500969340269208,0.5706142220730863,0.7796371046383042,0.32594565920089097,0.7788253817411603,-0.08857585472201912,0.6619142412228805,0.17546116700193143,0.09506344211571796,0.17488349794225,0.09453901528172831,0.17536746107781948,0.095017937080601,0.4349807497041461,0.011350319595641777,0.010882163921657952,-0.010979813138112178],"biases":[0.12320850424656082,0.09185565260474055,-2.203801750411127,0.06629010058299266,0.02026074572068113,-0.0037106150390013807,0.46859509743422456,-0.027090199628116013,0.019173530580551254,0.003980017532448529,-2.545635912809361,0.11380907465509087,-0.18067742970368117,-0.008911725888711723,0.08694399587984701,-0.35934767221105013,2.9006015578835447,-2.5572706499672284,-0.010457670357934367,-0.051976945191088204,-0.005912162816817151,-0.11963674787770269,-0.0978221478793567,-0.06959807845334888,0.1543526038715039,0.1264540435091109,-0.012728428090268841,-0.015063912487750495,0.09372594793782728,0.0023303231739892293,0.1630073410001181,-0.08234003739495555,0.09938885638302444,0.17659436010743831,0.08685543608068279,-0.18349588547594659,-0.16494224438529792,0.04451395928947403]},{"type":"tanh"},{"type":"linear","name":"startAngle_layer1","inSize":38,"outSize":12,"weights":[0.7518900343993912,-6.487083533123133,4.567143626159778,0.284746535752214,-6.3062433413592425,-1.1071569372957308,-4.957022120630956,-1.1356517870864278,-11.895096258325465,0.005558510122929064,12.034741020501327,1.4626117935237828,-0.738217958429144,2.2670221954991416,-0.02774067038114794,8.16392115158299,-9.405587172995377,10.592485644116593,2.2665278413648253,-2.883889734828938,-2.3660450541195854,0.7510617958068806,2.0512899150411323,0.3877840707301722,-0.8772285465397419,-2.2946818883930664,-1.9743115135014295,3.1398470636518416,-5.680920350184047,-1.7338662801748959,-1.090606194679751,2.0138067645585678,-1.5040022295333944,-0.7645933366605487,1.418151441418283,-3.6724853257054844,-3.8841622150791393,-0.8436521783955558,1.2145684561830645,-7.666409620502732,6.742139343330187,-0.4454340089094523,-4.4421119384303065,-1.5619136577370405,-6.589159542505321,-3.183106861495547,-10.803594787653497,-0.901117961701538,11.78967757544491,0.9260401394447364,-0.68529568162013,0.47951715157763697,-0.6464578348803408,10.065457686017156,-10.360874859171709,10.687700788413123,-0.8736573832932956,-0.5417877739189761,-1.0559215775678767,1.9930676229114095,1.6754388183272566,0.16709492355615455,-0.03834682828259753,-0.7121309399880978,-1.1490545084335435,-0.12024213029664627,-1.9164851560508296,0.4003641389574937,-0.579208777033228,0.5427816634117498,0.6741391320216905,1.1679428653707151,0.6891523785945753,-1.1146800808951711,-2.614879787320391,1.526212274780336,0.22967648084028233,-7.4194103995211105,5.131384522638902,1.8155938500033824,-5.612119209930901,-1.176787269064952,-5.71315039212816,-1.332118621883106,-11.449427036904558,-0.4956709861231007,12.627443571690076,0.3761276273687708,-1.2063625096117354,3.0433939482059507,-0.36250802071915583,8.486601866388305,-10.292140315254638,11.352628132842522,2.434881181123427,-2.6237519815643573,-1.5713901749645425,0.48639765946259905,2.5755629411709124,0.5052041205970444,-1.5806471052966378,-0.617064412653371,-2.3716493658939872,1.7252235272421008,-6.565323726821631,-2.499254664890554,-0.9815469132426932,-0.30566141480127385,-0.11941746253879776,-1.0054243167025878,2.3739151316807074,-3.510685981373452,-3.4077699856333896,-0.6275554399857096,-0.8509086838637527,5.384805228080105,-0.2518066100939504,0.7981666582686943,1.7855074819555194,-0.2376150724082579,1.0142163126474975,1.2918704074515084,5.444165154596012,-0.36562195143657494,-5.760553128360817,0.41119526444135257,0.3986708631707024,-2.8385314872642127,1.8353222703003493,-4.931841669431069,3.905898643921557,-4.06204034173871,0.19232181944177681,1.2234499402709877,0.7965551890567975,-0.6154248879905162,-2.2288836301253903,0.49098081200213434,0.3225481266260776,0.888843697634242,1.810077138978644,-0.5652460095008784,5.259989579904808,1.2071738318501055,0.6411347673733839,-0.6241575495632739,-0.4544559362438077,0.29968788014687614,-0.565822670243278,0.9976922776608965,3.630138726553965,-0.22679794229495578,0.18251918555117416,-0.09939772165149811,-0.027804266810308804,0.304974177048971,0.4007475846640456,-0.048008056933487385,-0.22839437596375076,-0.10288558352665811,-0.5204769076653024,-0.001787326385024659,0.39746949531087056,-0.03892179132592651,0.6177257634409749,0.1834714340777787,0.5733003796460914,0.3513133943148073,-0.3584099890677151,0.24528404173807536,-0.16920940941377402,-0.2857585101103946,-0.1974683447236139,-0.12643808666029124,-0.2780935646302877,-0.14744612940857466,0.399078402977298,0.24178863244948556,0.056351300846882744,-0.03814829221430329,-0.09612000010549922,-0.11697047124241869,-0.6743529435801796,0.2546663493775809,-0.06709505730502373,0.1143355557023541,-0.04911644941497013,0.5128053753850408,0.14639643370938638,-0.2844936150714411,-0.5770107436781029,0.7098666667518493,-0.24364524480750438,-0.22855420754629552,-0.3067875887789856,-0.10488472591442483,0.03889730338654133,-0.21239852518378796,-0.6801539417867867,-0.32171883376793936,0.3107052617212638,-0.20386603286595534,0.009722680142220752,-0.07152342750334009,-0.18763229932404418,0.3937569372279675,-0.5499637948760842,0.5375584941499514,-0.3438368970970746,0.19471374574871878,0.05478363095493801,0.19833798277552814,0.26582474540489365,-0.5571135942854938,0.13371623523441456,0.8371080271752088,-0.3535580671309729,0.33042242265720634,-0.13704519011703378,0.04597923797728964,0.20770303762903247,-0.5098724609290987,-0.39188100446757074,0.40271939354151126,-0.39516175038775025,0.42406490854977025,-0.3405962393206242,-0.7324311322167514,0.33614630264872203,-0.3535956085803353,0.37333521549886434,0.2620479696174844,0.16075684514067656,-0.06249555360314344,-0.3366181609438756,-0.02225595436256672,-0.08307667051599844,0.6272355942680196,0.42676282929047543,0.11130451872243292,-0.5508004404142424,-0.191252988256137,0.40852722794256036,0.011517769447330245,-0.17905240541176057,0.3682658478977759,-0.583992479989599,-0.08775228177207732,0.0633905421081795,-0.29285752976910684,-0.5022736728812922,-0.12151190734727099,0.061293989718355604,-0.3518890305022868,-0.7713909719669128,-0.23488829202690414,-0.0645128672989515,-0.08632156072692844,-0.36030635040080733,0.32513006582470455,0.20185383475329532,-0.8619428328988732,0.16716643189920796,0.00437253112461157,-0.7807710481016565,-0.21416570461501533,0.5191602960503322,0.21957825575721615,-0.22240006425477074,-0.15982186920275848,0.06903280435700838,-0.3917783554606335,-0.09209420359044912,0.36398037296120955,-0.32687825300580475,0.28998817329641735,0.16522023521340454,-0.2711765688384582,-0.10083599389224732,-0.07683047570754938,-0.12727068555114304,0.05804019721543014,-0.6822787837012239,0.24708755790321463,-0.2647316462043453,0.598940205439702,0.646589515503465,-0.4734377136534527,-1.3418713955088006,0.22045509977122568,-0.8161126479061598,0.18205398225131714,-0.36691684459843676,-0.3261080341850733,0.2620388724053135,-0.4350638727592409,0.6519446375357056,0.4263615696163967,-0.5634305527343443,-0.49186284623524906,0.08972876819520838,0.07235469479952282,-0.24163994744602557,0.09478662874182589,0.34492692653274376,-0.3356715682030455,-0.04137173428207883,0.6474727728145977,-0.12373263498584743,0.03835137623817807,-0.12280502560658725,0.037794535090842775,-0.09431265770680006,-0.05154626231897494,0.4207608794984608,-0.030792027342174934,0.009372188249673421,-0.18045428245652637,0.5296794670773565,0.125129351090644,-0.06394183506121157,0.3115264345890138,-0.6114923051042348,0.04146862282125494,-0.12102892623657703,-0.16086422933528344,-0.010003763957148252,0.4221667763210002,0.17428440499246298,-0.02777403531603438,-0.026102634817390998,-0.7217925119268467,-0.49573719201131655,-0.3294190666095367,0.3467184155112809,-0.36879416517956776,-0.1190620945946485,-0.324218530592343,0.4284314725267424,0.3969287200420152,0.4376107278724587,0.24909542066136875,0.5329091205439452,0.44063387051746844,0.22816229171008504,-0.3615446035336092,-0.07928902427530245,0.6030596014385001,0.06368910164788352,-0.37759221759835343,-0.33583569309554895,0.05826052703245965,0.3519195446657852,1.4755118387809516,-0.6086751666074017,0.8606210380952641,0.6231595189035425,0.06098351007099612,-0.2772560635921745,0.05361889904292096,0.20186505408679595,-0.6027359320336102,0.26042705997433446,-0.2714818905810489,0.13276376725119238,0.2613708494424093,0.19708486414937385,0.15984938728495274,0.6046972994613832,0.35885980331187217,-0.16180063269798528,0.049992885863860304,0.543243701535063,-0.23938936225336793,-0.20471670750590024,0.8172335978479308,0.322087143492665,0.22845536560527507,-0.1217785088216811,-0.4482971969445249,0.003976028468659493,-0.05195638730253124,0.06729186815525424,0.03231139172781895,0.22702042037226655,0.06519597735557693,-0.022583702469611295,0.13714426798361104,0.02571926725084744,0.0019957077710934423,0.5303605367012311,0.021209166800844507,0.022578048952085514,0.002249834361613836,-0.002199486543991805,0.06390979738416136,-0.301453491265365,0.35347336363542725,-0.02248965441512256,-0.012975464204147916,-0.007001411245202908,-0.008213323867983648,-0.015678081020852372,-0.007586758159758088,0.035094391339904725,0.030672931765132323,0.01890334345186486,0.040952473427798765,-0.003989527829371247,0.035352266505152496,0.0002932995740891498,-0.028298673928405398,-0.017264670499045936,0.024464502271726737,-0.003343122545209423,0.026270082997636984,-0.008510873635915964,-0.011706615175946605,-0.09545208697461142,0.06304058317062379,0.22411560444956535,0.019197247622463387,-0.07704846912579329,0.04889767543298031,-0.4112066499058306,-0.06738906613814416,-0.09745423515226016,-0.03457349561558361,-0.10590563052071249,-0.02024763194135849,0.07112456404357623,0.1440966076117568,0.08031629136023033,0.047228202839583365,0.029946175877403725,-0.12073184987845982,-0.0855434153513897,0.028482258231855788,-0.10688802172299168,0.05115790425075163,0.1512931999986043,-0.0197332184904379,-0.41264479965194933,-0.09413856020600227,-0.05309108533846221,0.005591535603386873,0.014694072686179217,-0.0031620330147666353,-0.03043388148456292,-0.057839013092544446,-0.05018132037779442,0.012892769988585056,-0.01895095651805051,0.01706177743010153,0.017226776426162167,0.03848101845870058],"biases":[-12.319665415346476,-11.305136357451547,-12.822908041903194,6.145094946986762,-0.3854635742434649,-0.45212860039613506,-0.5279851721842718,-0.2186883588068759,-0.6606652819351693,-0.3941885627798654,-0.566832159087033,0.2413642245963048]}]},"angle":{"type":"sequence","name":"angle","networks":[{"type":"linear","name":"angle_layer0","inSize":76,"outSize":38,"weights":[-0.441459848059752,0.3272183269435681,-0.4467068207251457,0.33483626029815944,0.628314234683647,0.051082698879564264,0.7968510099913992,-0.28928644081573646,0.07548862593781439,-0.5820945476346767,0.3674958556975861,-0.3679978338514024,0.03154557417021702,0.2234566795237329,-0.4138787273269398,0.5159627653118692,-0.14710091396080568,-0.31048516142487603,-0.6710246301667062,-0.7180349104506544,-0.9317999711035172,0.16075837658415515,0.5202317865110704,-0.0832707565816965,1.7009238507973492,1.763749739292016,0.5479530912602688,-0.6818223304648272,0.27321437147710464,0.4387592609192685,-0.12552718759419493,-0.2616782833098256,-0.7501527620013733,-0.7228832786075321,-0.7629939259954431,-0.24490376251954868,-0.4299972636228273,0.30056466864784626,0.27206213590539446,0.1981641140401575,0.3522161628510433,0.056860452282792906,0.8553387568069075,0.7381578116993168,-0.17107655636228836,-0.21976909558280427,-0.4631672309076925,0.07387995827428945,-0.1543710045381697,0.18901140417778647,-1.3072175967752133,-0.45248472131850415,0.4130856015325819,-0.45516525253473955,-0.5225210942683881,-0.043751742730278376,0.295152863701779,-0.4590280282693164,-0.33723237907930576,-0.27368359587317226,0.5006931072876337,-0.47456717659733855,0.11598161223677053,-0.30153618516690006,0.6095368337055586,0.13667421672489988,0.10619812821425388,0.6654938634769948,-0.09204562494657315,0.06329157224722233,0.43462013102413877,0.17573078864399483,-0.046181826282900455,-0.09633735691900178,0.09467866604041689,-0.13441008017618492,0.1314233360590509,-2.1424036268245477,-0.09985593595047082,-1.4493154249097233,-0.7391004038062501,0.9087988804643871,-0.686170597301104,0.9094048816596663,-0.3176491262070202,0.1477389055751761,0.104190698514379,0.5667487126331637,-0.48244036060701545,0.3992656369584585,0.20812952682023353,1.2525658469922278,0.24127008842871603,-0.16050094061632364,1.480789466236264,2.922127757897846,0.551105358252805,3.1482418748890413,-1.696409025715919,-2.213026651743591,-0.4365261055035353,1.1020986868304494,-0.03421277744129421,-0.15969399038320695,0.100436278789146,-1.0817619324924042,-0.09314329825438585,-2.021857003528962,0.19374614691376016,-0.24457459283224514,0.5648045822452659,-0.24943632772934557,0.3576985440329573,1.0427886827883248,-0.145617960691927,2.715761243415789,-1.1830209760569574,-1.2009027730839565,-1.1851003277999823,-0.08222177618957072,0.05596286285980711,-1.5121011883947604,0.10866624989663547,-1.2047332363366723,0.04217643751603765,-0.39106856079147706,0.7205472690031699,-0.2348548168510983,-0.7470875205476962,0.8759025425064954,0.2601746994890129,-0.01683901015610535,0.6213913395873769,0.028177239590859732,0.4535130396754981,0.7666941513669658,0.03197807226234886,0.31345304702094595,0.4392323408765321,-0.027558828901342262,0.08851858954359912,-0.15135453447612346,0.3982523853358013,-0.09661917575514413,0.14573598742958652,-0.026002617022290057,0.08511429767043939,-0.5595727638944432,-0.0259162766345592,-0.0846101121598676,-0.03413414045850203,0.7084538181658974,-0.21181236683175497,-0.24888234106228085,-0.09156884149100325,-0.054953206039328135,-0.23871085859676835,0.05280569172029866,-0.08697788712277152,-0.012646734785414001,-0.0763139674868548,0.22179878451257992,0.2538404633945948,-0.28676419971022626,0.30771304360807317,-0.10177468271316506,-0.5000326352268949,0.062139743804452835,0.15461492115998723,-0.06485235857801283,-0.2834995058386848,-0.45037081397665457,0.6266176380229994,0.5960339123476426,-0.2074831942723252,0.06873727164999874,-0.5977784982821097,-0.6251617652587325,-0.08044129767346757,-0.35219897566774133,-0.2645176412187231,-0.3655345034748288,0.4307459754296514,0.2540176776969357,0.05816344867406076,0.1058016352976652,0.545547875910287,0.23755801896736173,0.3685462196411976,0.5094149343305541,0.36718762997432264,0.46402865538312676,-0.2696300905612235,-0.18632746412284557,0.39306104995527075,-0.171577815551042,0.1196411687631018,-0.14833183588383253,-0.13849839809741904,0.25632711479610115,-0.07772941314209368,-0.17665609122452072,-1.0209601785147888,-0.5245812592036606,-0.11056687085226974,0.34216850853691927,-0.0870765229017614,-0.1833295418845605,0.444231868054913,0.29517572602133657,-0.15505804348481103,-0.20671860612123658,0.31211966615021125,-0.00776459164588021,-0.21223085907364642,0.5125596212686993,0.07999670025305682,0.05771015334210423,0.10060063136041991,0.13302113225272613,0.2534505567116465,0.5795919053152742,-0.39653832642891584,-0.8079548165189658,-0.07798743577697387,0.18827813380044245,0.07412537549705529,-0.07877350788870366,-0.08117110140295986,-0.10541926446789489,0.24223272147126024,0.3063106642324372,1.2666874948557971,-1.4084688646049377,-0.07714965567203111,-0.692069671265958,0.45190303061653364,0.7619516952329349,-0.18349948050817122,-0.8285899715683178,0.13717141083173878,0.043227136855600715,-0.04110192552624538,-0.6319950905578257,-1.2034459490953766,1.014167143554059,-0.34214669401120157,0.2115631047089724,0.0010191755167844273,-1.1836781493536963,1.5289862700726853,1.6430498287137034,-0.18095151791384798,-0.7208895039148973,0.5278248407088926,0.3014560553367895,0.5141507002831964,2.1882745294604806,-0.24626444123235758,-0.04059890144726581,-0.3331555226745886,-0.4208525284361951,-1.8878566488076618,-1.7754667597835057,-0.097957626711949,-0.2027268837044541,-0.29453089482454725,0.15772179406494785,1.4835832105565978,0.8883818501719055,-0.6813536563466893,-0.07414750196841675,0.5261045762837139,0.2001928180716843,-0.5060606447148852,-0.22872992586827776,0.44766503404554026,-0.2621197939371466,0.16172535801658672,-0.09190889618879215,-2.0648782882263492,-0.8400108876749595,-0.8631683869900911,-0.6002054942687257,0.38625523455545435,-0.2189987406578268,-1.0532513717555296,-0.06459048282172568,0.6281961003651619,-0.23087832927456653,0.4216395820573891,0.5080162111867358,0.42655165460988065,0.4118782696407717,-0.016429603548103702,0.2987672429125867,0.39460831742782404,0.014819931649260121,0.1035186577292986,-0.05009937672558801,-0.10118890423309188,0.043855146546059515,0.1113115575152995,-3.193065404042233,0.08967630113697368,-0.15442836091946613,-0.15792284667293421,0.5692451265001555,-0.1698611297042138,-0.26216838746267707,-0.3026766000209362,0.2969111980851335,0.167564448130064,-0.06189987747755847,0.038716361146811165,-0.13239672678649647,-0.14966226392351223,0.2134074291516891,0.3732086967630402,-0.19823272121260954,-0.09320593275313478,0.1449508888831393,0.14105190858257502,0.15377113366179598,-0.2559534666422816,-0.0072072824443819945,0.2836320910862758,-0.22068998805805076,0.26785108456980666,-0.18824053913502686,-0.10123055242713687,-0.015195868382048089,0.2685607703254454,0.1678949609737263,-0.06998524782599033,0.11397997691970063,-0.1672025214902249,0.3727786482589356,-0.23690680074923692,-0.37971977724497846,0.42495393270280774,-0.014731129407934808,-0.1599874953267432,0.0033948459430228556,-0.017144201933892645,-0.10620700413020669,-0.2801388606007257,-0.3035571425640575,0.2362251829206068,-0.12221517019173787,-0.16173815014365378,-0.2946221136714506,-0.30149685892187944,-0.3013092375980857,0.4573297847212341,0.43192483809745774,-0.21204873617311498,0.10723887543838824,0.1542778195977432,0.1273165191042399,-0.13213314969962411,-0.0448535483843711,0.36265742351726826,0.5079055764055456,0.07378254441931602,-0.02845506295498479,0.3874766499655252,-0.15540681337028442,0.397086010862206,-0.37616591653497017,-0.5465768469458875,0.5466014493913608,0.4326055254627181,-0.5088823171720999,-0.09306933960020651,-0.16686630757438434,0.1092135386261375,-0.08118912620400286,0.04284116441899069,0.06429001392609529,-0.3536122630447682,-0.2458646095872218,-1.4183050490670888,-0.5536396733704437,0.7643086088357589,0.253573066454181,0.03635868101993717,-0.30478923413646125,-0.626358397335397,-0.09156616726107632,0.45456863019682403,-0.09949781268644191,0.36140031992728594,0.6906688873575929,0.49746431208653535,0.4169948415345161,2.168414812941318,-0.958611488982356,0.5378414596109453,0.3651480742609445,-2.1749735557290437,-0.2473636247787376,3.2600954896319303,-1.999050866229395,1.258431020863071,1.070171213474011,-3.0670314033294837,0.9123479200406169,1.0353297002388784,-0.9802653605028067,0.07610742434501303,-0.12704876871669055,-0.9886444381967288,0.14539129227515982,2.458493529828053,0.3464117379858589,-0.3737024146649273,0.3151657550984102,-1.521437979928197,0.44383683593293416,0.9689138683219999,-0.8623703194787408,0.7734928256226412,0.3784577096910878,-0.19810393197206405,0.9343860164198484,1.1230262498034367,-0.28025257942670273,-1.0841378061457831,-0.42033388646287145,-0.020583577697485103,-1.2708081184008988,1.334978302469552,-0.0713890869963711,-1.1905088836653803,0.2199371338465086,0.49125725303373424,-0.5563020957463385,0.5110280279449896,-0.006592693429604904,-0.3344431585771745,-0.5102812190236379,1.3616650415508227,-0.7415640550429559,0.054095009821274395,-0.12560175354236228,-0.4337551294520872,1.4174785422033098,0.01720273078206126,0.44444217988683493,-1.3104920671248255,0.6639442351632697,-0.3888160905647735,-0.13035897927716047,-0.2882760810542763,-0.22826452528881164,1.2707294009474468,0.0547928604722397,0.6286316295499494,-0.8522969210015037,-0.41594775756862334,-0.32331428494745384,-0.13136132938413314,-0.020554329411245235,-0.2815918731397566,0.8154256311022882,-0.8695191358353457,0.4588986262009064,-0.8236515991028729,0.9836357665044531,0.45570185030253113,-0.20563605593215564,0.46896588364084785,-1.261801445673415,1.6318611041213242,1.3617864413781418,2.0990507430118917,0.7478186425241645,-0.9174303576124299,-0.7255791667468514,-0.8483482033713189,0.05359437335378339,-0.9245759872797974,1.0177053085615737,-1.6522642640918659,-1.5086618723202345,-0.6870041371612232,-1.0442840515535246,1.1727159930371496,0.14507243611455226,0.957828497019722,0.09312628210092454,0.5301107166487535,0.11877852114335634,1.1672160033534251,0.4711785739028114,-0.9606933896964787,-0.7018711491306063,-0.9877362255441418,-0.8097313537382247,-0.6681936890009073,0.214306097370285,-0.4415410368449276,0.3231292477237941,-1.1017286826070687,-0.8672591955210018,0.916010550227249,0.5273466388587047,1.470275317984432,0.5620313852514401,0.19924751924262094,0.2939135246932732,0.07355738984927736,-0.05249154738059516,-0.29752833090354963,0.08288142720807498,0.06568364847524064,-0.38567873336885455,-0.09730735656538007,-0.11878947145266096,0.9845072292308343,0.468418432292629,-0.28531589125238577,-0.4012549698994569,-0.1439718528858091,0.4261971133844888,-0.10500922972131344,-0.33518964103929266,0.06977807955673282,0.02565005820074588,-0.1622453455587812,-4.454207298402056,0.6102887856680459,-0.5849794943703976,0.1680394943300817,-0.54281278962689,0.07718873684983894,0.957235604914056,-0.4686678720474709,0.20701072152569644,-0.21754175161081885,-0.9368422609864026,0.25681785443037464,-0.023897665155691517,-0.11050206788976254,0.7587960677290407,0.2242632955636743,-1.444634499175584,0.7394366911276571,0.759838679627586,1.9284017206398123,2.753590152174487,-0.010580708426739365,2.5585562066843637,0.7745024045699835,0.3483535451831869,0.8529084216310332,-1.2318543934918318,-0.7097092987656668,0.8082048807134402,0.16886067692436213,-1.6013225493896528,-0.2067791488976938,-0.36648399228123246,-0.11152186254333234,0.6603152099738533,0.14219061254667067,-1.1135577619678163,-0.6987888683949643,-0.5868424702971158,-0.373980874338199,1.1605951920140851,0.41447017522871593,-1.2135097841126157,-0.05369512134159439,-0.5941006208317132,0.7395450921940083,-0.11740264639267664,-1.0064747828404415,-1.5562481839796578,-0.7333287410197192,-0.8085571463176323,0.1533020190301356,-0.03483412936620244,0.026817176036425965,0.6401174670631431,-0.3128327562796728,-0.184295672702975,-0.20071180362211158,-1.138302342978637,-0.09815881040412823,-0.8635076956174783,-0.05822339692692567,-0.5680220075902739,-0.11048734552304255,-0.26878848052078697,-0.8649022736016755,0.30517112518996087,-0.1972062090657972,0.4902761959107711,0.019453312909283944,-0.1034224003788587,-0.32361148051921595,-0.14920160066553087,0.31654108426885236,-0.027963521395618897,-0.24945413055552546,0.20874723905811363,3.0360018924848506,-1.102526421346704,2.4823892979484325,0.5245696800848266,0.05744425450227513,-0.328039689465854,-0.0936967195599458,-0.6959433672426264,-0.42431021381240264,0.1403152443958666,0.06659106604627275,-0.3948020158321841,-1.9827654539007762,0.37302932018226787,-1.3321523390869152,0.27933468660757343,-0.453567039857285,0.5435331294346565,1.4847120732360748,-0.666354783500866,2.3373132995380623,0.6953876600702725,0.8731905536748628,-0.517229930502257,-0.2091958133203361,-0.29182204662020994,-0.6308167156606659,-0.045632993186379374,-0.7057445181924776,0.650397892948662,-1.899563104116405,-0.3846957978414544,-1.4130754495317617,0.24346531664865576,0.09896545838461987,-0.6422852658525563,1.5681952501836498,-1.344758725732303,2.7504976389169036,0.5614284930554752,0.4097238044911843,0.19333331246840868,-0.6969921740942158,-0.25303896493546796,-0.9977309915099052,0.1486576083554961,-0.10799329980347781,-0.03337783454667215,-0.7309867792774916,-0.40611690156032776,-1.2880019116857366,0.1790142052194882,0.5893161454735566,-1.1841923739832536,0.17289883275726944,-0.29074473487947144,-0.702433130241223,-0.42868851091295074,-0.4654533412669571,0.6389971050769937,-0.15083545922954164,0.09461136833578856,-0.5249167442593942,0.3548462881930907,0.044240781241583746,0.034093688835303906,-0.6573379095890751,-0.27267464662971136,-0.059371028563434104,0.5612955333675281,0.6101272966927415,-0.8767436453793284,0.13322016044295426,0.09749139183201655,-0.09368263313669897,2.5080265128741424,0.08739359149081775,-0.6874629010456912,0.3660325962596828,0.11987774575809074,1.6796486478740198,-0.40870157523916223,-0.035454991646006385,-0.8482175075472762,-0.7874364760789146,0.0694566938718649,1.5677319084072892,0.3129523334120598,0.2275138563108753,0.40389406231994546,-0.869071003366365,1.0694829151393535,0.916430254819806,-1.0296066492238944,0.06885604597484873,0.9915061768205311,2.9212089163208015,-1.2558489329072386,1.6378743762976455,-2.1464254466598174,0.2231897123835975,0.47237741087385854,-1.7431923265145446,1.4978466707431453,1.130715977454824,0.2653585398840882,-0.08450376646607237,-0.17447074334503795,-3.876481166933641,-0.08601144059747572,1.831713714104887,-0.29102454541420264,-1.01759061036156,-0.04063693878308855,1.654847879947432,-0.3236532822974007,2.5691873025075393,-1.4324558259359257,-0.4505077075922104,0.0006899468181252749,-2.2332983481140785,0.7779944016923772,2.7644758323587246,0.3650355486696922,1.0430592208124336,0.5638879445443358,-1.470079318194177,-0.028833403884628662,-1.1228276401375088,-0.5071858322024123,-1.1780882550292326,1.0576909970712638,-0.4420212037855601,-0.5213765192691284,0.27292037313756073,-0.06206349944128147,-0.2880825943654095,-1.1357587704082697,0.6547740677745444,-0.5742973092407134,-0.2576127938453608,0.9275385623136237,-0.07384627234332557,-0.11306889272068393,0.6526389676570076,-0.12325747310988684,-1.6915627113981966,0.36350231898920704,-0.3270322207888646,0.3797969337461495,-0.2337508054129944,-0.1882699278965508,0.2767274983255581,-0.2361224397615628,0.07890137917633135,-0.14247867304317097,-0.017808289858204346,0.02695908800797022,-0.33083077946856915,-0.07338066368345246,0.006565978249343344,-0.057682856169567524,-0.027489726069556054,0.13900487671431905,-0.10773873568900197,0.10140938212590432,0.02103210615699607,-0.18603331410314275,0.026567219382287382,-0.057150634136627354,-0.029829361809661843,0.5072706351515954,-0.15243667169938196,-0.10615558295785547,0.13095591499887876,-0.1957296223622347,-0.22437028872565307,-0.07121736546724194,0.002852018499545573,0.08237277553038502,-0.013226928264897221,0.19847674177060454,-0.041662869311591896,0.25636908348070636,0.11345294748894448,0.21897875625483162,-0.10870634282804,-0.3276539837057007,0.037963478484607065,-0.20551975512120677,-0.1199901742805021,-0.1232060113171335,-0.025181478540197214,-0.033790618475830966,-0.19687978218052085,0.1957775207570907,0.1931121749489485,-0.4040816374307611,-0.14665114905766574,0.16152013140833843,-0.11243735546015193,0.12779127657160286,0.1990875918730253,-0.15166085685579667,0.08736410679572583,-0.16605152390692648,0.22215000486435982,-0.0957267368891771,-0.022576313108778716,0.5543912772613165,0.6570379326315308,0.015088059864516924,0.573892025721162,-0.3896130716175079,-0.5076673530667957,0.34886920373434277,0.059328792460184854,-0.09096307897710354,-0.35947707547775914,0.3811026582002781,0.3111166776913629,0.21386019230701245,0.09489080582361982,-0.10041965414813317,0.00402999921000338,-0.05120441048381788,-0.017743466746206357,0.04096841947208792,-0.09602185464413289,-0.2333529206551273,1.4328765163250006,-0.36189237231133187,1.2291142520181824,-0.07480711039412526,-0.7822067456451909,-0.570914535912033,0.0031051777905430327,-0.4727248232048748,0.034671496275175025,1.056078487065224,-1.4366493396271904,-0.23071520822032432,-0.651714497051779,0.20905979427543783,-1.3415038568643027,0.34941410718392085,-0.447935745338377,0.00146478193692489,0.8014502457580409,0.23834654435053584,0.35927594378580646,0.966653427215553,-0.41817456614581405,0.7334143963127481,0.9285642305098021,-0.00832617698004842,-0.20288895954605515,-1.2833184088250738,-1.3827591630939198,-0.6708239741806222,-0.059102546629053516,0.7585455347972567,-1.495632288558879,-0.49654253928138875,-0.7624348347891899,0.19387642955917564,0.6253543708809632,-0.7335857910442499,0.7694839449108912,-0.28846235836339756,-0.08000910295402879,0.24154904397895993,-0.19664655386965094,-0.13243813993212494,-0.18206770157292249,-0.8396843282369532,-0.38538132534061526,0.502756453004998,0.08273738051805538,1.2171893572578858,-0.25288334599104395,0.6173734541283911,0.7051541562781805,-0.07005684348247497,-0.24246401940252588,0.2631586236109564,0.6111824975061422,-0.5494021470248951,-0.599345792142979,0.15113605589545234,0.2870855168078285,-0.13535758064775072,-0.8530740722013681,-0.12675522172710663,-0.11855361063668403,0.2635007492679393,0.37484347123914974,-0.2629974028429647,0.10595510153028727,0.03552081154575709,-0.1411191459506545,-0.18431042150249982,0.3396235740269677,1.2271774854008277,1.95366306599888,0.24485507829438607,0.5017528296792567,0.5910610627695561,0.42950687264791443,0.07800520985747408,0.40291871901678494,-0.6621170735411062,0.920006000603945,0.27412081754200973,0.9069111858840118,-0.37331681634920794,-1.0550183113047114,-0.3023592082335125,-0.3820904381300846,-0.5762371038196598,-0.5214268059923989,-0.6466557324600999,1.6497916087631133,-0.10969605483420898,-1.6207375120033571,-3.370072009353297,-0.6515372025290485,-1.235267677009558,0.19504209976288628,1.116185263172505,0.5824126931248099,0.36878979731321443,0.6438072435375412,0.29548655157262804,-1.4429031615639696,0.393242197936888,-0.34128598513307973,0.7833554652272475,0.14286923772587323,0.5452590525706182,0.9099191992041302,-0.1132081251330065,0.22254677177426807,-3.2106386521116876,0.48285294398360173,-1.8747705161553423,-0.3704936622537946,2.101944610494717,0.20022036637771126,2.114682193548756,-0.25436214805127955,1.7009172879708678,-0.2601999531329114,-0.7810432658849384,-0.26194746523678464,0.4361021909496875,0.4679164639413192,0.09923682831241412,-0.563958912677994,0.8397294643950167,-0.9782189126864087,-0.24415390979004137,-1.281855992958758,-0.781826563268789,0.6004973817802023,0.1524153410133399,-0.49890458828200546,1.889116488295331,-0.6689435973452896,0.4670649917596331,0.4929343199562999,-0.5829100495548629,0.7851243584910568,-0.17651292316978384,0.4030555893477878,-0.46581118947512407,0.021963823358977123,-0.04171480832239685,0.010230830158897097,0.1637172282582289,1.201456368807054,-0.5604347439052001,-0.203544662569638,0.6683429825632741,-0.6055356440260746,0.7367592293022551,0.8825677727834482,-0.5674715933867924,0.1630922244115182,0.8113282100150659,0.15105390035041685,-0.6234445247431676,-1.3288363532867016,1.0025092134798326,-0.6615062573358715,1.437719343714444,0.5142513806755802,-0.6276969052372328,0.4988541888547116,0.8601277541221756,-1.383122609349803,-2.4340664360892412,-1.233761756767395,-2.1559821318286914,1.861300526739276,3.4193321939578336,0.9712716298301138,-0.8526975665919991,0.21807413626882444,0.7014378258790501,-1.8019376797350763,-1.1859482545888327,-0.8403570592251984,-1.3834284225218563,1.4181204929938134,2.7807805983891045,0.5827133641702408,1.515607662705244,-0.5173843751666777,-0.8068574445879207,0.11218454548847105,-0.42472114504845654,0.8161620910506096,-0.1260958036045851,-0.6672073288682219,-0.39152718645189905,0.4019480425898346,1.6492509943276985,-1.6385493723830062,-1.6684596767245365,-2.1329414622640073,-1.2962387559623514,1.1287328026380903,1.108228123492903,0.028274201230910574,0.7998586451344625,0.6390947231662255,0.07261863616858011,-0.036299971410855836,0.07803720788480999,-0.7915528822439241,-0.22406810266264485,-0.6319900273638391,0.2274056750919429,-0.9796852460492017,0.2673652189527217,0.3288986433916135,-0.40834466601651753,1.5902241037021714,-0.5172396194976775,0.5380672499638134,-0.6356726829218796,-0.11570873264801104,0.100919814096451,-0.16307812607948874,0.28578266179293954,-0.8333527602958388,-0.005567812574332784,0.01683136366024779,0.533873849355716,-0.20888166566571942,-0.05655911161313049,0.4509482136885036,0.22656213421663143,0.3988819197248757,-0.26199819447214184,0.29841241841392324,-0.1279251967308061,-0.286580037985507,-0.03224597645357446,-0.12109840724041133,-0.0770006611006035,0.054139091649555285,-0.24079939258822503,-0.3664979773210176,-0.6873954027532545,0.012590774058845471,0.8017609386758794,0.04565412540851485,-0.09278290652237518,0.9775820636711977,0.41021995784804227,0.7095078883041968,-0.29745500523291846,-0.011172730192958766,0.030468172685179117,-0.013711816569472231,-0.2859424839546818,-0.47756957586325155,-0.01144871219418791,-0.2223828613658071,0.042092049510516025,-0.21662262823320452,0.1651091991421902,0.6318459504345983,0.2809391556212327,0.00371440877114349,0.3270085306863257,0.49796168358055787,0.6321867169699397,-0.10849921484476717,-0.8865159535361915,-0.2957284126205514,0.05657437106680332,-0.30280273047685197,0.11262933877418131,-0.6237783816180542,-0.7604479408034,0.15433171880401744,0.12907450141072388,0.5416658818561676,0.3702236155498695,0.4007780528580286,0.19183464687221874,-0.12297117781408073,-0.9511701983395264,0.31465842654166565,0.041583800046715844,-0.45878009585290674,0.11966411865381256,0.33226750562014007,0.2392187442098191,0.17608136670112545,-0.2610117021201228,-0.5265981878731179,-0.36539520748812354,-0.029767387967395118,-0.007526485275055022,-0.005243463255346524,0.05890973200215517,-0.0489698445714208,0.0039253013000799,-0.2148767873951159,-0.1361161873914343,0.1504009271339109,0.3391012695307812,-0.0498469450929619,0.07152348159478021,0.23249312497497265,0.13081043440824947,0.11795119399928976,-0.288390820997503,0.033579402554804405,0.10157673893706182,-0.1260031476828789,-0.3583321989705639,-0.07186387310141167,0.24627862722403937,0.08563275846350193,-0.2165598247924376,-0.3852396337522154,-0.4982304580138714,0.5935703981061362,0.6120939485964482,-0.26400626332676697,-0.0815738027089375,0.08059420529969995,-0.053585254151974356,-0.5028685956572182,-0.3247314213205695,-0.026907739793125933,-0.13594221792560438,0.36021723812211226,0.2782015363904136,-0.484502388092598,-0.2693069931253868,0.34536202220843304,0.10373972958350428,-0.05186644320782562,0.18176328367421743,0.023204622450846965,-0.08138688177313676,-0.20982933551144695,0.4865738609320588,0.5211741042319186,0.16920771092223813,-0.42610537970718376,-0.30715535071002353,0.3458728390011974,0.034281403217071044,-0.054034135826232434,-0.4465270742722683,-0.33459050855539924,-0.007215542242740756,-0.3944985783701019,-0.028460438456009856,0.7594968577205532,0.26783744917352126,0.008817307088589174,-0.01010716476268368,0.10536473733234564,-0.32826825884094635,-0.16616122252164625,0.2712726065873332,0.11639737066465133,0.027321239835999732,0.06807412683845956,0.27042189952762585,-0.12319081046315171,-0.5843947402837629,-0.6014557522724572,0.2420674188899032,-0.333372236300135,0.17701905283198952,0.013186667988312601,0.00595449401437498,0.05727193916055823,-0.027999157922227735,0.4621848360571285,-0.5388070275826111,-0.08560142751662699,-0.0641607637789391,0.011654636132967498,0.27500885398032515,0.11110405763538556,0.005543435695913557,-0.2705597618460686,0.31038720570568,-0.11096544204508914,-0.7668412737304506,-0.44613494582819496,0.022550100225845356,0.34409610396414986,-0.059367100814372756,-0.00601484593993578,0.34501660536810697,0.10498561061813569,0.6122242429703542,-0.5445323557453036,-0.8973683530029242,0.65492560690308,0.4988391727228658,0.7767141402770324,0.9814425524313996,0.07159312054090035,0.3155429086180162,-0.22385136249239798,-0.13983142348229477,-0.8062746653126529,-0.3854859489845628,0.3460625508512678,-0.5006413598827958,-0.06504999473974134,-0.18760526684621515,0.22096101022757575,0.09642620361558683,-0.3820348083732797,-0.31767744308285933,0.4059488738229593,0.23270433148684808,0.07154163293028218,0.00024258474054115802,-0.11297654295698095,0.05359233727593159,-0.6947614688747225,-0.13442426548430786,-0.7940427592731374,-0.2475052220479685,0.29915776590593013,-0.07111046977964121,0.3041844541839681,-0.0644644686302638,-0.2032871328749626,-0.4409735884990857,0.07453970273878242,-0.07383348305961805,-0.16898279396133586,0.6019150643935824,0.26588655328535266,0.10695762526336688,-0.1766132367792017,0.21739141558445974,0.3928837182006859,-0.10985291659845457,0.14046691201510864,0.0995311382438751,-0.0027644028746240754,0.3593264271020446,0.07573213915640203,-0.033002463130799894,0.08553442654062872,-0.030093784584487082,0.11902668884825443,3.9259958642609196,-0.4749528359796065,-0.7592290021550339,0.012142758720929573,0.6315417231595378,0.05244499595982434,0.2558620545546878,-0.013441328263889132,0.002030645761063183,0.5809716696569726,-0.4429745929298686,0.33800592978350846,-0.6675040430415355,-1.4222760432718142,0.6183510049737179,-0.24562364888063812,0.7897834031767954,-0.4832511100758785,0.1904913396434184,-0.7065222877608127,1.468421902285726,-0.4635338007237074,-1.2962485674285886,-0.9692438644103012,-0.4914442563948342,0.28639307702808026,1.8511433894182272,1.760035536230742,-0.14007915229546214,0.7494986323135439,-0.3754559865896665,-3.077756450085123,0.16347066848960648,1.2789294323880611,-0.9635475880137626,0.51488546256297,0.6947376858983497,-0.1319132359576608,1.2658093066638794,0.15259985978449145,-0.3383708148061748,0.40901124057388616,0.27615046940155674,-0.8416375359851012,-0.8706219641878835,0.2910057825777354,-0.256423760084761,0.9864825242259385,0.1261108101539606,-0.8766444032637349,0.3992054471838891,0.530233798533712,0.41340197278526286,-0.5799658864739401,-0.41941949078903307,0.8794190833061898,-0.4214537410026352,0.22219425895834374,0.5925938863836937,0.028947737299280896,0.14390640616609046,-0.257706158357561,0.035246503851565525,-0.11534683530587163,0.1690851060224095,-1.4411829976466697,-0.442772675563855,