{"name":"pyramid_linearfilters_targetAndGen","nnCache":{"target_level0_filter":{"type":"convolution","name":"target_level0_filter","inDepth":1,"outDepth":1,"filterWidth":3,"filterHeight":3,"strideX":1,"strideY":1,"padX":1,"padY":1,"filters":[-0.04308844603738356,-0.06206634106348166,-0.05781903700978524,-0.054927388488265394,-0.004278053650793437,-0.0391124677198261,-0.06383687241627731,-0.04687994791419965,-0.07478953125403157],"biases":[-0.07049232104525653]},"target_level1":{"type":"sequence","name":"sequenceNetwork","networks":[{"type":"meanpool","filterWidth":2,"filterHeight":2,"strideX":2,"strideY":2,"padX":0,"padY":0},{"type":"convolution","name":"target_level1_filter","inDepth":1,"outDepth":1,"filterWidth":3,"filterHeight":3,"strideX":1,"strideY":1,"padX":1,"padY":1,"filters":[0.1264611199714689,0.3051847143312919,0.07041559862680119,0.22236403540334382,-0.5978412101071793,0.1849730873494368,0.06797282333881613,0.21427526478502337,0.08817314883862071],"biases":[0.0826520570449981]}]},"target_level2":{"type":"sequence","name":"sequenceNetwork","networks":[{"type":"meanpool","filterWidth":2,"filterHeight":2,"strideX":2,"strideY":2,"padX":0,"padY":0},{"type":"convolution","name":"target_level2_filter","inDepth":1,"outDepth":1,"filterWidth":3,"filterHeight":3,"strideX":1,"strideY":1,"padX":1,"padY":1,"filters":[0.04632739488200884,-0.013146021643363037,-0.039085215870452036,-0.0029169504021515844,0.2520415797305026,0.15948576301188538,-0.05778323605959181,0.19335558093631053,-0.006852660366452925],"biases":[0.014581949739061791]}]},"target_level3":{"type":"sequence","name":"sequenceNetwork","networks":[{"type":"meanpool","filterWidth":2,"filterHeight":2,"strideX":2,"strideY":2,"padX":0,"padY":0},{"type":"convolution","name":"target_level3_filter","inDepth":1,"outDepth":1,"filterWidth":3,"filterHeight":3,"strideX":1,"strideY":1,"padX":1,"padY":1,"filters":[-0.2472176497725557,0.18542573571780968,-0.0011003039972168355,-0.011344193391464107,-0.030444950173743993,-0.3281039899894448,-0.2958828405393168,-0.2222159069538994,-0.06360796613622861],"biases":[-0.012538450298107759]}]},"gen_level0_filter":{"type":"convolution","name":"gen_level0_filter","inDepth":1,"outDepth":1,"filterWidth":3,"filterHeight":3,"strideX":1,"strideY":1,"padX":1,"padY":1,"filters":[-0.09386350826869151,-0.05856598417233426,-0.07590581995221489,-0.08246925373378987,0.01622053415491509,-0.07890417633688929,-0.08033090899911727,-0.09399887494230667,-0.04057547094931425],"biases":[0.3295832749808022]},"gen_level1":{"type":"sequence","name":"sequenceNetwork","networks":[{"type":"meanpool","filterWidth":2,"filterHeight":2,"strideX":2,"strideY":2,"padX":0,"padY":0},{"type":"convolution","name":"gen_level1_filter","inDepth":1,"outDepth":1,"filterWidth":3,"filterHeight":3,"strideX":1,"strideY":1,"padX":1,"padY":1,"filters":[0.10239991719490962,0.2626736591795681,0.0869016012365056,0.13675746441645714,-0.19607469981329873,0.19014304861173284,0.07804391290863645,0.20690291072669736,0.05481003143054609],"biases":[0.05158084579559673]}]},"gen_level2":{"type":"sequence","name":"sequenceNetwork","networks":[{"type":"meanpool","filterWidth":2,"filterHeight":2,"strideX":2,"strideY":2,"padX":0,"padY":0},{"type":"convolution","name":"gen_level2_filter","inDepth":1,"outDepth":1,"filterWidth":3,"filterHeight":3,"strideX":1,"strideY":1,"padX":1,"padY":1,"filters":[-0.035903342071323174,-0.052320068151080944,0.006775109133733862,-0.12445714165984391,0.44478104504369165,0.02784780856524063,0.09078179216180073,0.0241533179313518,0.05641014831542641],"biases":[0.028413854599372908]}]},"gen_level3":{"type":"sequence","name":"sequenceNetwork","networks":[{"type":"meanpool","filterWidth":2,"filterHeight":2,"strideX":2,"strideY":2,"padX":0,"padY":0},{"type":"convolution","name":"gen_level3_filter","inDepth":1,"outDepth":1,"filterWidth":3,"filterHeight":3,"strideX":1,"strideY":1,"padX":1,"padY":1,"filters":[0.12540356618765178,0.2839868489224785,0.023510477689586244,0.027621020927424286,0.1356978144895982,0.08546586779317458,0.40930060346447694,0.07893487934580884,0.30306238168443533],"biases":[-0.030882255539369734]}]},"target_outOfBounds":{"type":"constantparams","name":"target_outOfBounds","dims":[4,1],"params":[-0.545367001792971,-0.3335989300817767,-0.19689320927853438,-0.1014016241554771]},"gen_outOfBounds":{"type":"constantparams","name":"gen_outOfBounds","dims":[4,1],"params":[0.6136046417840746,-0.17922384958437929,-0.06601419601624274,0.1238842895273745]},"startAngle":{"type":"sequence","name":"startAngle","networks":[{"type":"linear","name":"startAngle_layer0","inSize":76,"outSize":38,"weights":[-1.5528609465691638,-0.09391031009455762,0.893004369476397,-0.09461365724370703,7.236590954897482,-0.09391675063464032,-1.1950507010086162,-0.0940213280539801,0.030811650939573304,-0.09410047460971192,1.8701791873240352,-0.0936267581429565,-3.3999125380242514,-0.09410479827685968,1.4914309327427981,-0.09387171929359943,0.11388726841240482,-0.09398087947649701,-1.3468096870812054,-0.1478757752086537,-1.11559743622704,-0.14858900027310168,4.138928149935153,-0.14889471697164447,-3.369066766950201,-0.14775437943591996,3.3878956476645303,-0.1483245988227892,4.768980849937131,-0.14863273896299317,-1.6736435320086887,-0.1440623876976796,1.0481337364173011,-0.14409996514867363,1.2299298411149469,-0.1439673164207202,-1.331484766500891,0.9211658335578345,-0.4847936110134437,0.9210068456011344,1.3530278355113465,0.9209723654060704,-1.1651784713255984,0.7194090566799851,3.2529565508851896,0.7194815227921902,1.987417743076979,0.7200130881416151,-0.8616222600753055,-0.13778551610465153,1.9354671319617605,-0.13757704085292186,1.7347187866294356,-0.13795589843886927,1.8963720944868487,-0.13729787760704004,0.7511266098515007,-0.13710938417979646,-0.14290412003873623,-0.10219485363352022,1.4660446698941016,-0.12908433779034081,0.025069201480320973,-0.1293931872261607,0.3045505024770185,-0.12728468158746697,-0.03296254429330074,-0.16659649072366198,-0.03333287288108684,-0.16583772472729963,-0.034106460357967675,-0.16650911408917354,-0.12402047034777892,0.14322123983816454,0.14377152912097727,-0.14384172057094335,-0.6050658449413369,0.043496036124317364,-0.16679383501096373,0.04425909720724104,2.0980112396385535,0.04353412681550521,-0.06238152172975723,0.04346805539966676,-0.06495217412238223,0.04388866361786305,1.2926565967254253,0.04372390379657022,-0.6788582740529155,0.04358137017288159,-1.199812753318013,0.04368174652210334,-2.2438051108176356,0.04439913164342697,-1.0812923549260167,0.28662181897907346,0.4085491565005699,0.2874172066817079,0.5416493737050193,0.2869257061900239,-1.3478222697882531,0.2869903219943639,-2.0548448801220527,0.28754011901533383,-0.4343022176241611,0.2871642834819709,-0.6784569623646826,0.30681741761498155,-1.137870477344727,0.3068956921580241,1.3018252571404862,0.30659238011533735,0.5965003180412745,0.20164911316180878,0.8664991442178605,0.20230340953604076,-0.11527510040666872,0.2022128106460006,-0.0607570273328582,-0.1422214899752246,0.565319730372391,-0.14252909604888545,-1.6285542702329787,-0.14237566049540054,-0.2073064409279089,0.2158602400672861,-0.07759603950526295,0.2153862521228524,-0.319713839453723,0.21573725771330365,0.7222820322768975,0.18846825794844485,1.643383433672013,0.1891123495276632,0.18803525417848788,0.2077815414578378,1.1647342257390638,0.21118634400815173,1.7570646474956064,0.2110126795490363,0.9610382703169382,0.18888280454592968,0.04917654410849152,-0.30187422679328263,0.04834335325498331,-0.3032224975872382,0.048570988066836095,-0.30282325527159887,1.9337604745325887,-0.07710915412304803,-0.07694330209193224,0.07671516919177485,0.21384289752849134,-0.15598623589687532,0.07851565027641091,-0.15617210538894322,-0.17533283486902942,-0.1559171448916566,0.058425444054586655,-0.15620165506807504,-0.2863843985718997,-0.15608189377084036,-0.21913489714615944,-0.15582262314172018,0.4022131685536233,-0.1556741962207962,0.615189799085347,-0.1560574416334588,-0.02537469976798231,-0.15659657027080193,-0.036033312243087375,-0.05036035267424195,-0.6388575307828266,-0.04998234670326002,-0.06650445429457053,-0.04985808374568185,1.3905762451035986,-0.05049675946462069,1.3257056514734435,-0.04979712024800714,0.022838428028281794,-0.050527173583349363,-0.10060962151007312,-0.0815621415953152,0.5053327275396247,-0.08171347010966261,-0.5459120141910865,-0.08186056468744161,0.5184505536993229,0.2701037459496762,-0.5373984677174765,0.26942298793443736,-0.6180151596847719,0.26961770529881596,0.08831817262741053,0.3263218542210937,-0.4225011832055839,0.3259757876412678,0.10697081744797003,0.32607104252247765,-0.26123265158489045,-0.40918081219424374,0.05932284801401267,-0.4089722229300232,0.44031187840888314,-0.4087944671375461,0.012642649620760506,-0.0331730462015349,0.15099998938143178,-0.03304126390467428,-0.47518734820493785,-0.05698372220610454,0.32039202642153425,0.03768390336922911,0.5182561314720401,0.03804421942214421,0.7105566619879861,0.04264393722727887,0.007775095914830291,1.3544998183907797,0.006164497933210255,1.3547647783464187,0.006909898666001562,1.3556170618026129,0.800662402448556,-0.0932664024217322,-0.09375921612182697,0.09352640674787589,2.017090992493161,-2.6969727773673546,3.1557737766685543,-2.697427698072573,1.8297270977268585,-2.6973271965550003,2.4193216073788,-2.6968493899424644,2.667065048639287,-2.697389837535186,1.0555600236103686,-2.6973586862653565,-0.4453798521562798,-2.696803644970159,0.30116254313308366,-2.6970360060061354,-2.9761954486103446,-2.69707521798758,-0.5642872269468033,-2.622049189979793,-1.581261914799094,-2.622237461448726,0.4299010886116289,-2.622346851645912,-1.592132570028076,-2.622269803597931,-2.0964302771739516,-2.6221874378556445,0.4200262608866959,-2.6213799171476064,-1.240709294111887,-2.6038098177612077,-1.5229965792291125,-2.603916447383131,1.4353752302220892,-2.6042344355262848,0.4629237341138087,-3.1060368244219854,1.31827607678657,-3.106907638342835,0.2733878919034109,-3.1063416524951775,-0.5836505173476397,-2.5545596003903315,0.505795471939657,-2.5551271617996694,-0.7886599602488653,-2.5553560717041806,0.24604478506035485,2.2787839542818564,-0.9188173268705099,2.27909198463102,-2.075997765650915,2.27913964323925,0.9517417426261715,-2.5120382679358095,1.769944908751794,-2.5123952157985063,2.5937090633749578,-2.1388932623921346,0.9933814868744703,-2.3667672052270308,1.968373736538717,-2.3671706638625243,1.172804050329048,-2.3858350434753075,-2.707278115284005,4.139872366258703,-2.707665811480392,4.140597293371058,-2.7071136364627892,4.14097555077439,-0.2855761265478923,2.732758373817361,2.733337514876883,-2.7329721823669137,0.83026093689987,-0.4960596369067326,1.517273095969451,-0.4950522541569481,1.7554021224684746,-0.49656428567417055,0.6404334983952925,-0.4959987092454764,0.8354411355370777,-0.49629954723853464,0.31271881699067305,-0.4959958086789956,-0.8949081300363447,-0.4968029840492132,0.3685190149274386,-0.49568054945339146,-1.8704556895151008,-0.4959596430183103,0.1602223985354319,-0.6352738624832878,-1.8497921422400676,-0.6352394922418393,-0.2029243356931058,-0.6342182253377379,-1.5637966874717002,-0.6340460817560197,-1.1683320526046284,-0.6343164441609098,-0.5654280397626624,-0.6351178930703588,-3.130269459838762,-0.5834792741976705,-1.9596400076755505,-0.5829481683034085,0.3223298752536083,-0.5828564076641575,-0.9817406407017998,-2.81776385946776,-0.07221038179918723,-2.8160354054204686,-1.0889374420416742,-2.8167331777471127,-1.8759754164998557,-2.2334913081597567,-1.0848200287701102,-2.2336667789350906,-0.6749056437384854,-2.23346374973984,-0.18271580544994728,0.15910301074046534,-0.48107477105751467,0.15874740942639265,-0.3162207605525551,0.158601617907714,0.2924569897637515,-0.5141001828547916,0.23389109885213838,-0.513977508184753,-0.7673096186897668,-0.3787956879719236,1.0326611005883333,-0.2699706437224892,-0.4499080316197217,-0.2697441617361192,-0.8110492377828665,-0.243444445341854,-0.8080403599297592,0.9239752745549585,-0.807168398088128,0.9239073586059432,-0.8079187581328322,0.9237142388517581,-2.019807406342716,0.8251308589831526,0.8249079000843317,-0.8245162705533277,-1.4450362816871796,0.7382125311292855,-0.6349191893556878,0.7376669496238859,-0.34530758420283925,0.7371035045010867,-1.1314090064100952,0.738027341004807,-0.8377308554916654,0.7381632228929937,-0.6879792049936287,0.7376549497755784,-1.0220490524385866,0.7374708811941908,-0.3049682008437988,0.7372895203994314,1.8395221329950509,0.7375037357601075,-1.4928917010807325,0.9226091751932463,-1.6230733719418227,0.9228820328686381,-1.6374037857182913,0.9228468402654323,-1.887610944672377,0.9226701655934387,-0.29142783031089836,0.9229542447275679,-0.7575184979388387,0.9224625659023645,-2.047344636949371,1.0090963877498529,-1.323372687330033,1.0081735443537176,-0.6352053079833297,1.008604030209092,-0.6113937343219239,0.9640249347979932,-0.1571552673974184,0.9630190073475446,0.1696856692616318,0.9634326088590386,-1.4226184092909173,1.0534008727896012,-0.38793980847453186,1.0538076392117621,1.5327106576468974,1.0533421253137931,-0.5596941804639464,0.49816359841617475,0.4372667509680463,0.49774211663465484,1.816654610307665,0.49723512157186256,-0.748175456290121,1.273053169865586,-1.4043536018789349,1.2737194850716915,-1.392741073387379,1.2336940972442803,-0.6470219683908375,1.2783597576843357,-1.6452294390952975,1.278402397059276,-0.29623706242545245,1.3463861013442098,0.801031267513843,-1.4271398793452166,0.8012107823902971,-1.4268835500679922,0.8008156304087056,-1.4271810872839934,0.42962523144060283,-0.8886242741264868,-0.8890364815442148,0.8888310540669769,0.3896845746642664,-0.07024718668002396,-0.09747232499288815,-0.0695474142702197,-0.35756190677824434,-0.07050448391876259,0.34999337211211906,-0.06938893278235668,0.4420011328121114,-0.06995877131550172,0.11943291518776221,-0.07014236054466373,-0.44781812400429716,-0.07021647890058759,-0.833138752933062,-0.0696249225380876,1.6001848973022508,-0.07036465405555824,-0.2760210441716661,-0.04702847450450733,0.3777274586128001,-0.047738148689458824,-0.15929465513407554,-0.04706056237064129,0.799037989927411,-0.047915398800654256,0.10645009089136004,-0.04762351902171382,0.481545034371376,-0.04717861079985266,0.15449238252985104,-0.060466551265229644,-0.6494734557637691,-0.06009258976695666,-0.36664890954548485,-0.06047551041852666,-0.4682979400111256,-0.604812398216991,-0.015191419055569446,-0.6042035972305312,0.19808556102492297,-0.6043197301702757,-0.5252689995899322,-0.6432941984757771,-0.5008176003662244,-0.6432141777359738,-0.1472045127929196,-0.6438978674019734,0.1297858942884615,-0.2581507687613651,-0.04534632319896182,-0.2585198751699067,0.18144021059621407,-0.2574693465593326,1.5537046084683965,0.13338144065399685,0.3757085548853993,0.13343023832135728,1.2424912755740634,0.13966423676558082,0.6089344014099154,-0.013062247489791788,0.6607435890374157,-0.012651511247514595,1.3822327701794177,-0.005082889491663806,0.12234245855047227,-1.4887326689217217,0.1221002946609229,-1.4888945552259512,0.12276807440525539,-1.4886290623488052,-1.1055670381207041,-0.010099774618683131,-0.011286520259666807,0.010858172237890715,-0.1706999296069973,0.044419927919956255,0.2434857418265435,0.0435823999811357,-0.08531392758775998,0.04365977306587535,-0.008857069120411341,0.04336060320729918,0.06033527974534098,0.044528949819658055,-0.24462954215484992,0.04298772971170387,0.2175022382425161,0.04355487137081152,-0.8186639781440336,0.04349616493190581,-0.5494736737426004,0.04312216464778618,0.8136403538224081,0.19316730209912356,0.12807644743184765,0.19268387138243667,0.32715174846096745,0.1931812394332941,-0.1544126931983263,0.19354490404089694,-0.47622728343846393,0.1933232495676109,-0.19562639530581774,0.19358468802528847,-0.6642829135315041,0.2769190802912006,-0.5757474669806761,0.27664063262822464,0.24560345621568488,0.2767306083813991,-0.2727180955951957,0.24466480315842215,-0.23962404364635898,0.24470724652794779,0.10639108291155705,0.24414949767235478,-0.1453184532626166,0.4009581477386627,0.2997557363595143,0.4013773932055088,0.7614167549888735,0.4008406401773229,0.7476290799924205,-0.22196526738357408,0.731731600064568,-0.22168680049203743,0.3344438685713294,-0.2220082221176914,0.03088723489923052,-0.09651686767078275,0.1454857068184049,-0.09694288065131075,0.5475081530297753,-0.03380043877701645,-0.21745495148541671,-0.009082799183221447,0.005371572124848305,-0.008756856639313935,0.5861929153965288,-0.015359971236820476,-0.0688858586030239,-0.3211144261224288,-0.06861976018829197,-0.3207204248953801,-0.0679435977321789,-0.3207805674325095,-0.7026385596462146,0.1045546371241238,0.10468976081256078,-0.10458138022280287,-1.192188552889673,0.007682918955910039,0.4837164432322934,0.00795546233106972,2.479288559899799,0.008093915236428936,-0.5996635798150199,0.0071809707074348035,-0.25018080407533594,0.007735209532529746,1.3947310379093918,0.007949987669781413,-1.3619753040707727,0.00785241461289676,0.3210017478416452,0.007710512332444058,-1.8184333361177607,0.007384682287473559,0.9250486427883498,0.16662260881997523,-0.8326189156497596,0.16719894919975245,0.6768253625114365,0.16708497562974048,-1.707782501167868,0.16680867768750726,-0.9149096175540589,0.16664161805330532,0.32021526957718555,0.16742797953775015,-1.7535561481224402,0.1866060967523631,-0.045951684388964124,0.18662628629751124,1.8242517453944036,0.18666370123429424,0.7920767779867639,0.6669387131513055,0.6231978927444094,0.6670522287284418,0.02594721775765939,0.6671785567158727,-0.008000169047487519,0.86195545315506,0.5846939179745927,0.8619415920704436,0.3000404195774505,0.8621712604071474,-0.9827082931408073,1.2721420669225698,-0.19259119540273734,1.2721341054965674,-0.6594036988749062,1.2720475909634499,-0.12915330352486876,-0.00579635803514946,0.7528342422859633,-0.006131199216203419,-0.5377344866556604,0.006121975563029381,0.850538501345591,0.047102203320366604,-0.2879856976897025,0.0475626403014566,-0.053080022435168135,0.04363843957697588,0.0014106786945373637,0.08876592486612177,0.001245235520638259,0.08868102605175586,0.0012200769572971934,0.08844442050599198,-0.4187411122942418,-0.009929609926307504,-0.008878971797481185,0.008468850419912383,-1.027946555099284,-0.12605031634381975,0.26377788504996097,-0.1275071092661555,1.1839430345002513,-0.1267463880272623,-0.3299172229359186,-0.12673034360179053,-0.1825357025462639,-0.1272394220320084,-0.04703729161089543,-0.12724971019138437,-0.33131666384905883,-0.12740871591321407,0.2956528720508165,-0.12742035786668998,-1.2773736036946226,-0.12680418134008037,0.22275655314740714,0.2069021894093602,-0.7631329286798229,0.20626167262354123,0.01601123211642571,0.20663186396491126,-1.2785127898183224,0.2074371455359126,-0.8270216400258232,0.20723363870692055,-1.0896700521489986,0.20593046873347204,-1.263796941523479,0.19152336990544352,0.1784439176325848,0.19047450211547493,0.24236210875504635,0.19055875086129817,0.49101964222398226,0.36954062648909647,-0.24834337691810338,0.3696234440335677,-0.19842324057632105,0.3699883809405548,-0.2076736436937991,0.2887924171454896,0.031763372792091356,0.2887296364567162,-0.28124316554787737,0.28902537069601614,-0.5026436559732387,0.1021194020166351,0.3403825727914241,0.10161291233647994,-0.13063423163693264,0.10232591151606425,1.2843530092821156,0.061978576798457995,0.6470729321333536,0.06188571930931449,-0.41847781350010066,0.04047033641106011,1.180216556074254,0.18397014403373155,-0.3196249266635186,0.18397586135474805,-0.20710082526078633,0.18619467742649112,0.11824088011829909,-0.6153344894676225,0.11821336560881188,-0.6156512415745639,0.11877029620702677,-0.6162137230647283,-0.62743468964756,-0.17308485736179638,-0.17323180421797485,0.17331861382339997,0.5420035561948137,-0.18875515922163327,-0.14283337962375886,-0.18950577175197325,-1.5146286474568127,-0.18946676090791992,0.16225426161087625,-0.18929700091263263,0.07521059501946925,-0.1895638702843822,-0.7082121065017107,-0.18975912917708876,0.5068887996053386,-0.1896313423263793,-0.33032444951704004,-0.1895514937791402,1.1702571488880047,-0.18964672590888138,0.17682537478989951,-0.22016164669384095,1.1642893080323422,-0.21993795532306712,-0.05055201596732822,-0.2195177472088782,1.3098607515343643,-0.2203250426567834,0.9126123167586723,-0.2201541409592713,0.31773775887129335,-0.21998443991618674,1.740752219402676,-0.24274398946589115,0.8372178723150827,-0.24216808747940077,-1.0489782371712704,-0.24270647187573968,-0.2488214036549896,0.843099410091007,-0.3008364098251207,0.8432494290572423,-0.12946761452400082,0.8426260696026886,1.5220373685377706,0.5344624409710617,0.07854524831395049,0.5348381662347086,0.46457197596684746,0.5347578306564673,-0.4250092062170106,-0.8890518704946091,-1.416596664279236,-0.8882928959883929,-1.0958280250361496,-0.8888239035617131,-0.3896472925502681,-0.5763749451051576,-0.06593084645297298,-0.5766112162658716,-0.9224717964428478,-0.7442893622894485,-1.1370814249186627,-0.571922014109348,-0.08843179269204515,-0.5726155266347859,-0.21867248036139128,-0.5532472075617243,-0.18811811532781347,-0.8819557986827076,-0.18806412263133593,-0.8828219722640371,-0.188580522249926,-0.8821589868649484,-1.978440831377215,0.10229681961922461,0.10139268665035939,-0.10186986666604515,0.6259795607057927,0.09143468493545696,-0.3067779992616433,0.09163787645154171,-1.17242566918101,0.09141261175265296,0.043513878216948035,0.09142789589729954,-0.15137430351580092,0.09098975257280285,0.14511193676613074,0.09155974605179072,-0.6123021814310943,0.09118587960828421,-0.19905844121002736,0.09162788865805012,1.4837385386440378,0.09123751321637556,-0.2094718929395383,0.08166278233777775,0.5078638531257299,0.0813262639802443,-0.5682889114932294,0.08166663337074472,-0.33866201801277473,0.08136832513014285,-0.32585601505306666,0.08167088242594463,0.21338625297064223,0.08157944106078481,-0.3153686555643979,0.13836568758730122,-0.5898753168896937,0.1395763673926826,-0.2493153806869913,0.1390133630545176,0.7752407659580681,-0.4792507359940782,-0.05254604635492471,-0.4793200610185807,-0.23118470417754172,-0.4792855620452482,0.23305484980780944,-0.5500153127497133,-0.49710440716201226,-0.5495660138428088,-0.19961485367887424,-0.5501793706010346,-1.0658865114173768,0.012982386864395325,-0.8171698304562904,0.013654692703670805,0.1529701811593268,0.013136940228593776,-0.28290366419229485,0.1954333071188563,-0.8635861300223409,0.19516134196317012,0.4942197762670147,0.05439878016145072,0.4246017251327536,0.031012555415283326,0.6182752687462932,0.031803445544279385,0.6462446836539824,0.034435983459490324,-0.06764929587566701,-0.41633895841502716,-0.0667223279918839,-0.4159836483913267,-0.06720198921269546,-0.4164448711588537,-0.028753701091500418,0.04226940045921205,0.04309763692416937,-0.04255734529849683,0.12925108753718223,-1.2978985106898893,1.5294317735805372,-1.2975302224667706,2.7143157652344927,-1.2981546523839913,1.1168892404620132,-1.297635887951216,1.1774657427235666,-1.2985225280689014,0.8632922932569292,-1.2984135953686924,2.2446260140174874,-1.298212814143777,-0.74062372103504,-1.2975266390093816,-5.856541969524008,-1.2980970219522983,0.7118883848312088,-0.9278081884218555,-0.15244477754476873,-0.9273726686342213,1.2351701092486818,-0.9273602642724049,-1.844664091161659,-0.9276136934725686,-3.879067870094575,-0.9272145592396587,-2.1120393269652253,-0.9276335050211005,-0.8498728031926267,-0.8949090165209012,-1.2118015302426939,-0.8947767764932036,1.3059763560685116,-0.8946192503802463,-0.4141189366279453,-0.6160132232814232,-0.059108147534981725,-0.6162090189230459,-1.5211863082957437,-0.6156030856445102,0.41911089827444903,-0.1583990967943592,-0.05281176945773008,-0.1592416146658962,-2.7369098384319708,-0.15903311403183845,0.47671493199415405,2.1198546240755705,0.14521391264791825,2.119158472877141,-2.1921490567955066,2.1194885961801906,0.2343417736342994,-0.7751870519775655,1.9655049488645615,-0.7747947050519913,-0.5975264274047264,-0.7326795294361813,1.499133988289721,-0.5162518035493825,1.1408222444419156,-0.5159673565006864,1.1246398399232451,-0.5114160883731623,-1.0686667277235846,0.7780729133770582,-1.068944151281675,0.7781848000504098,-1.0682020258879905,0.7781265894223458,0.5901985548991475,1.103769539880556,1.1039332243060123,-1.1039820522167574,0.20465156659111003,0.20607099522335615,0.3725623729272046,0.20638434380999537,1.703960606542666,0.20556071557187172,-0.0366284262960805,0.20564203753909588,0.0030226401633630124,0.2057457602034985,0.756124223111568,0.20572801893377762,-0.47720849593456305,0.2059887905657764,1.7386368665142258,0.20542377090558284,1.353739452382029,0.20587764731614805,-0.3008885382907946,0.36559628931776333,-0.9025201130543301,0.3657643062106051,0.9082165831444335,0.36516411763368484,-1.882930899963096,0.36582665835300987,-0.5977350777423541,0.3652676507423738,-0.733751920384533,0.36569652401059016,-3.428266255174293,0.3600133508142524,-2.2376100214180528,0.36099192674314157,-0.06899033751212984,0.36033829795458133,-0.5995862801574772,-2.4398712662266355,-1.145706340859325,-2.438974838639835,-0.21283700617469364,-2.4398230513288253,-1.3382491288915144,-2.4901053940792317,-0.3557762453756429,-2.4898354697438996,0.24081208386507238,-2.4896705161938697,-1.1574741917496354,-0.6443527349483349,0.643465697488492,-0.6448333156200712,1.2369396604946192,-0.644825419178225,0.1680572545046494,0.744845293156766,-1.763575038680466,0.7448994402482043,-0.7667173752044371,0.6615876168171121,-0.9822261274031483,0.7303168866297167,-0.44821876566797053,0.7306727139761822,-0.22554589113151388,0.7351069179891426,0.31445371903519603,2.498059889365126,0.31445615962355233,2.4982094700184394,0.3140620158012912,2.499015376559777,-1.606816327710705,-0.29991984620048984,-0.2994107814390594,0.2998164238145672,-0.9102282875002657,1.3159452790421535,-1.2039014604492606,1.3167928500811894,-0.4547538264124983,1.3160412055929473,-1.0982985143709425,1.3160734127618605,-1.1271770907206529,1.3164575246790666,0.13322268041984484,1.3167005430517067,-0.322288471484221,1.3160983956162302,0.7910759399698483,1.3165262567413536,2.6784532298911032,1.3165315830400646,-1.2890213253133038,1.2050353273203116,-0.683649454543189,1.2052261081416888,-2.4860795323136005,1.2047014108053478,-0.3166348021903245,1.2048140539688983,0.8558381274800759,1.2054732876782583,-0.8404410885282915,1.2054878571306717,-1.435456391683879,1.2381436048996624,-1.3967583942151858,1.2386697792881214,-0.14897872340875515,1.2389459289765599,-0.06221234173612983,-1.7720502049444804,-0.4171652595174567,-1.773049391603269,0.13825800320637474,-1.772611933202277,-1.9080598921068177,-2.217603913426038,-0.3608757960430156,-2.2172922648899003,1.229281081099742,-2.2177650647441296,-0.5266434735356804,-1.876672715121955,0.1665937450622492,-1.8770376105773043,1.25494144850411,-1.876309360271355,-0.2671591727018942,1.6601880057010998,-1.8944903340658603,1.6606186597946127,-0.4966321084241947,1.6029044296444315,-1.8331864908429574,1.5756616163906938,-1.120581326852052,1.5757176479967545,0.30318755939720077,1.6796114359493517,1.1287427243976125,-0.3319631467203981,1.1290717664787686,-0.330887638197183,1.1293900064692592,-0.33172272434127065,0.1918328748986234,-1.197150079335408,-1.1971793331114777,1.1970416856532358,-0.4962106120664652,-0.28664525749705755,1.222797685094514,-0.28620447902023566,1.072127876494077,-0.28715366911395984,-0.16986751112556145,-0.2866636633433877,0.380710866933588,-0.28683390726077956,-0.4819247976373932,-0.2868542392684322,-1.9208057162066672,-0.2866671509917201,0.12299206893123217,-0.2864131089102561,-1.1030423160922884,-0.28685094421955576,0.9164742204457225,-0.24007530919824488,-1.7462246670434676,-0.24081740716095756,0.8641550050963681,-0.24058960830657955,-1.2056370022423244,-0.24039486931274012,-0.12999946535940732,-0.2409331737087846,0.6974931621937835,-0.2407304944271108,-2.8458033879330746,-0.24344923137754568,-1.5766304466776855,-0.24386010466806782,-1.2335529572605328,-0.24368954652944383,-1.2987602388777109,-2.0014479671519303,-0.1182262597555295,-2.0007539676837536,0.769707267860673,-2.0016126644925354,-1.896804172312856,-1.7230352305862016,0.38544691421411614,-1.7224662530887684,0.4483580919206096,-1.7225762465949033,-0.3529062270309292,0.019992783162075957,-0.4554534848684191,0.0202520013311279,-0.4630218551015099,0.021022149035732275,-0.1175300618776807,-0.2657913681783942,0.877715967816877,-0.26550532625718415,-1.0802164335088318,-0.15318593671612327,0.43008933431080176,0.04325403523376361,-0.7011907095399329,0.04254688418130598,-0.737265860536315,0.052470978240829684,-0.34825357799588214,0.5970487606155177,-0.34870284326672246,0.5966451396032322,-0.34961124928305237,0.5971646474022483,-1.5656633477531483,0.32412908131265256,0.32357167255637215,-0.32398003009537857,0.13570248430520965,-0.6573416191010731,0.264605607440359,-0.6577749499452538,0.1289747717221505,-0.6571233240201254,-0.08936084302411651,-0.6573690394538628,0.45604315469874607,-0.6568068570125724,0.47899232489140553,-0.6568938508991317,-4.585385378603734,-0.657004537067691,0.5590079795231917,-0.6577788145022064,1.6617630628992939,-0.6574560046826708,-1.8897222374517444,-0.3626805974934391,-1.6496212482014292,-0.36278297074760407,0.189822875336593,-0.3621828736975066,-3.01979968529424,-0.3621486992859922,-2.6486251484950674,-0.3623600113382373,-0.5567021941358854,-0.362512287742858,-1.7059601869195777,-0.3884264959466714,-1.5852058132780174,-0.38808086838672357,0.956070070814597,-0.38816916595432155,-0.5494130856941125,1.7217342150203936,-1.6311514055161693,1.7215471896867895,-0.527360418389046,1.722009338455139,-0.8301885936123615,1.816133698144143,-0.7639768849551146,1.8166570240109225,0.4625947608637191,1.8169130719351176,-2.5100647632448156,1.6594783131404176,-1.500417378583396,1.6597844903102077,1.2761519464664879,1.6594806337126533,1.8453391391700213,-0.482771203382806,0.2121712448885152,-0.48355846956712845,0.42041142082700633,-0.46541052378299336,1.1554945567196553,-0.45980708877363174,0.9946689844262158,-0.46006238897272234,0.3456806446984344,-0.5150801234101805,-0.28609055572685427,0.6443049638698796,-0.28665850673848825,0.6444698045080882,-0.2865560509189492,0.6443543182029657,0.8352603080110953,0.322810139605793,0.32273782835702053,-0.32278761522109845,1.8195490973819757,-2.3536097275355377,2.1771460458443554,-2.353473876137864,1.3678739015896697,-2.353177844446828,2.107345003965301,-2.3536313289443513,2.184403799891151,-2.3530703397354853,1.4293386787870577,-2.3530713180474616,0.812103556483992,-2.3532904582159877,0.1950176265808649,-2.3525159861775156,-3.3175672649958177,-2.3539429091927775,-0.0918304310305871,-2.309670191692121,-0.4510123630927243,-2.30956854561479,0.13301359223064324,-2.3088924704861458,-1.491996305627215,-2.309345768346756,-2.992152844010423,-2.3091386271767687,-1.2657914777724106,-2.308870080005627,-1.032305556658531,-2.3295228618639423,-0.7427550955126346,-2.3284912514923315,1.7202335113786977,-2.329570432221922,1.144292781262402,-1.4632472400305139,0.31636071265784177,-1.463190936430127,-0.9306660175573904,-1.4632107351735668,0.9192992767167213,-1.2269786791301842,-0.0750037779951701,-1.226520846288423,-2.4116898354888003,-1.2267426846266714,-0.716241820545132,2.021417028630041,-1.3276091787038398,2.0217094354147056,-2.681468352596759,2.021423056044827,1.5809206108360383,-2.2975444745357474,2.3567483119869115,-2.297640279130552,2.2538120109272684,-2.2848077027532625,1.4081303182698819,-2.030408628868988,2.2064775446681684,-2.031393243661893,1.2529918773224944,-2.0110153463996117,-2.2414936386530813,2.4182485276522585,-2.241782081405091,2.4186693499900738,-2.241640560602705,2.418710337772472,0.2519644129930467,2.301543628437268,2.3021049634080852,-2.302281233740295,-0.36970653735706965,0.17320915380960628,0.3340343690680297,0.17355303647609582,0.8327527003434116,0.1733532575114604,-0.3791218378865939,0.17292144379688074,-0.08149398849159147,0.1730742747636877,-0.8532011761051633,0.17307800696970327,1.10839050755458,0.172711235229201,0.09285547101699683,0.17372564022842613,-1.582925398372983,0.17394309330696645,0.22685201311647465,-0.11206742057465505,-1.245343860685878,-0.11270714803043039,0.11591309211750486,-0.11208242801833915,-0.21817448225793282,-0.11189111543489264,0.23892472527132236,-0.11168225995772216,0.33193282337520164,-0.11196690617915275,-0.1288269374287067,-0.13337407304715856,0.29588792054047486,-0.13341557310892507,0.3463171291998327,-0.133687292554147,-0.328607417583404,0.33725565133346663,0.2752945835891824,0.3368387327999692,-0.09807520033742516,0.337220360966015,0.41922019066771643,0.6051384621006822,0.802480608619557,0.6047122304572626,-0.17701598937652774,0.6048335767361414,1.2648557161547678,-0.3941392148112675,0.18829118956901292,-0.39445579495454736,-0.522782640460343,-0.394518274834505,-1.0612558833420027,0.03615519124144976,0.6062526645397672,0.03597629241496656,-0.7885972417284585,0.05178337116131459,0.30908595092600794,0.10667730006394766,0.13146902801459368,0.10731484726951013,-1.2111875235447394,0.10827040441766611,-0.006667748586264963,0.3644554258322981,-0.006644962867201629,0.36482448280215524,-0.006426041069313411,0.36437171407144503,0.4496378844655683,0.03508552266734825,0.03442240934970656,-0.034469973545728234,-0.2463193459517879,0.09536244413569848,-0.3896987078839145,0.09606764353056445,0.5685244505069031,0.09631697129494836,-0.6427560563405478,0.09612811439206907,-0.24964298121664824,0.09595676081975256,1.5797896243586858,0.09582973805299609,-2.907461497482693,0.09562384959507157,1.0183364346510189,0.09587554140045272,-0.6457151834631174,0.09556658595441923,2.1105830357039586,0.41467736479853795,2.726068943712414,0.41434126263734666,2.0480594850659313,0.414417446026949,0.821887816345679,0.41495612849922553,-1.1963992736986393,0.41373377053607346,1.1063688828232174,0.41446346211931334,-0.5242765458140632,0.38311589281852027,-1.499527085922074,0.3834292893103865,0.6319435287282518,0.3831574121513401,3.3075464481631824,-0.2666885061059188,2.7699651005744226,-0.2668684267690999,0.5387876278912133,-0.2663247692621396,2.3276587442694927,-0.2814376424993642,1.7609769772857298,-0.2817185840627524,-0.19752511577376183,-0.2806118242183112,-0.9265311295643311,1.5666409160397599,-0.38375953361911436,1.5669367450718055,0.531025608970368,1.566415001739703,-0.33298210967054087,0.5781569561214643,-0.4774452168873539,0.5785108791077069,0.7177541061166756,0.6341622470178174,1.6100536416635598,0.6080569516701222,0.45462662442571167,0.6075223493919941,1.144855595658869,0.5673833977844174,0.3735896553891193,0.42314678238440107,0.3740318553900778,0.42357220673923535,0.37338809118470245,0.42389184931024215,-1.2035315772648274,-0.3720370479632637,-0.3716771751864868,0.3721074158405367,-0.8731016638165034,-0.209732779440645,0.867553834374631,-0.2103063184686254,2.156630617850854,-0.20944797632179468,0.07998208952389652,-0.21034920640179872,0.2785199381247884,-0.21014951408359783,1.0134499540381119,-0.2102431283463591,0.48972900981636347,-0.20986807722430006,-0.44250345282838754,-0.2096106956225705,-4.858824471764526,-0.2099445643573863,-0.30668383724437065,-0.12769762157239456,-0.7742564939127212,-0.12670684968609058,0.8347344897588372,-0.12745490674998028,-0.36818279608914867,-0.1272779759549999,-2.161943084552888,-0.12702305513272072,-1.0922371421691348,-0.12657089054566995,-0.1708353222438793,-0.12410798932176158,-0.09224384363012601,-0.12463447543235921,1.9409111504613483,-0.12429242468583966,-0.09808218240232505,-0.023911046544010172,0.3342265801068329,-0.02466088750990537,-0.6071368588767202,-0.023680495739803725,-0.5543510675632207,0.16132413126427048,-0.5849412041743598,0.1612811404378316,-2.188459179420325,0.16131862170260713,-0.4198696536862525,1.4443676271202346,-1.0290902144683076,1.444789508405865,-2.6277494725262804,1.4447561270715443,0.5387259705158254,-0.0213204355289293,1.6911375491677327,-0.020396485384147133,-1.3177328084186095,-0.0812572334326863,0.6504704090309781,0.10893759990082555,0.6622962954167262,0.10945059290356254,0.7743965430103581,0.1346063511998421,-0.2511934182808997,-1.7619529282607773,-0.25223753269577376,-1.762330633955801,-0.25210807723260226,-1.7620848104385203,0.37627354859955237,0.21017678964507125,0.21049849861648298,-0.21025747080620044,-0.25561042428481634,0.22748296116572797,0.39204418497414484,0.22782791443750972,0.3768100660753237,0.22681754288078465,-0.45960841821082715,0.22755300429833303,-0.0864189938446599,0.2273641349511798,0.09264466906689588,0.22654597073729782,0.1986662321691963,0.22704454287958376,1.2351858122202848,0.22751629958617714,-1.092344992505445,0.2271465119395164,1.4443995589983916,-0.021677127064979883,-1.8974999747672034,-0.021352224471645153,0.5162656839677083,-0.02073386754218721,-0.4922115449423769,-0.0216862435595629,0.03133917184335312,-0.021740513171084507,0.6055276435266667,-0.021367540445339794,-1.0794513915338106,0.004809067438527206,0.07132274904547706,0.005615408749873921,0.9684528026662242,0.0057976444333155885,0.49462782555548485,-0.26461055525405,-0.03501735592383887,-0.264493101171249,-0.7205551909384432,-0.2653713875001968,0.024927887010912014,-0.2947077251859949,-0.20623948404911588,-0.2941499131968988,0.14491322717304683,-0.2946229175767287,0.130441965401226,-0.6282588131655024,0.2543863390396932,-0.6280936306528951,0.05156824128250537,-0.6282948711461903,-0.874556834141795,0.1393609503228094,-0.5704334242209492,0.14001054632404256,-0.14780276148191382,0.19450910025904333,0.23447971575725188,0.05544118784925654,-0.26788408902603006,0.054883572553994724,-0.02940309050451919,0.050482980930659165,-0.07396807267545079,1.2401237119963424,-0.07331371563847537,1.2401041743381263,-0.07400579415603163,1.2391349018278826,0.8372762336302025,0.09610044270641338,0.09647570638012369,-0.09656472782306441,-2.4151628641222476,1.4593613103726184,-1.5986727294473664,1.4594948400429046,-0.247802961495916,1.4594150504462158,-2.4019063195642785,1.4590333602956178,-1.7254528268410767,1.4595045481202227,-1.1950853569514346,1.4599738193778842,-3.164157396817672,1.4594553124860432,-0.714909591280803,1.4598531724767774,4.053812854848038,1.459525027700434,-1.1354086165203945,1.4481974564984028,-1.5095410388726695,1.4473234732149247,-0.3276334599536026,1.4480752563340242,-0.6695328476169188,1.4478220170920568,1.084344398571287,1.4477588437325017,-0.41441602405231037,1.447771774410963,-2.2221696160660405,1.4919917490272538,-1.902948193854388,1.4914367792638308,-1.2626197173127989,1.4918143152638976,0.37815653992006454,0.5810789212466493,-0.5855182510701606,0.5807807080507058,-0.9685105064377906,0.5816102369248192,-1.1837355663994165,0.6670236840463372,-0.812722459863838,0.6670981289099401,1.5116877375072166,0.6671026396597087,-1.3310384648304143,-0.788732615974262,1.203421845746092,-0.7884775178062653,3.167922776945826,-0.7885549594780104,0.8231846321273489,1.7869967527285415,-1.8555003508414865,1.7871733663822442,-1.1425125269116176,1.8494784562748958,-0.8562985881901231,1.8958952349052995,-2.3898154002564986,1.896196090408711,-0.44789343707776413,1.9531713489369444,1.5573950252311688,-1.9224512017302098,1.5572840058931536,-1.9222421057342938,1.5577983573646268,-1.9221102511116885,-1.5900145248276096,-1.6225334676012868,-1.623235015827877,1.6231326889061495,-0.07414655506865839,-0.47457091047814787,0.7101780799803644,-0.4741159229950615,0.7874322530178983,-0.4746786091202559,0.4331061968008838,-0.4745113112918515,0.47499380050731005,-0.474648313488466,0.21553920193349033,-0.47408750801222244,0.6350825914543838,-0.47428482740145544,-0.9397132624203691,-0.4748564804768724,-5.459167794405138,-0.47490534836454085,-0.8381014543340911,-0.3715734599155269,-1.929907569584425,-0.37160269998780815,-0.7460720554411703,-0.37117525048888267,-2.075798519292955,-0.3715900662950322,-3.407380670391105,-0.3710059197199712,-2.9093998827938607,-0.3714795776271915,-1.0559929871493952,-0.29112087889636495,-0.7128804037479859,-0.2911951521286179,0.6381600270820103,-0.291408891989008,0.09809748023370113,0.9891379170406529,1.2971368861218717,0.9897603474238943,-0.9970676963235895,0.9895366051128953,-0.33008767670263744,1.3122167643349392,-1.052671674092621,1.3125566842160623,-2.8581214136832003,1.3126568744292957,-1.5371787696259576,2.3743171290416587,-2.5447864855885793,2.3743013181607013,-3.7153079444831167,2.3742892395733284,-0.24961546870256607,-0.24082357328842766,2.4441781210597275,-0.24062864689861566,0.44099714086682446,-0.17221152671506051,0.8949253438027573,-0.20689614986536012,1.970946166004766,-0.20747501143920835,0.2139836822788323,-0.18164688664741846,-0.49116858703775634,0.038310533421571646,-0.4904025185244506,0.037690740860311156,-0.49129105528096206,0.03797336430551829,0.5325208545529836,0.5028710160000615,0.5028838457399025,-0.5029403498244336,0.8010113473799073,0.22244375532586586,-0.3870298956714365,0.2227398688146942,-0.5258503100299364,0.22237001888282598,0.2616408060560773,0.222712635070611,0.0385487131144506,0.2229689624926401,1.1414838496811823,0.22213845734892151,-0.8446867618633064,0.2226558478376341,0.4469432257001508,0.22211265710702838,-0.4463854690827648,0.22214486421754137,-0.6101212639892729,-0.043100293755731295,0.8745337944132535,-0.043618946930303534,-0.9792690561047446,-0.04374098628402777,0.25747534611260164,-0.04366884380186835,-1.2044659982984347,-0.043466405434677696,-0.5388505859234423,-0.04349350649092168,0.6124131910332428,-0.04795218622056677,0.8979598041590044,-0.04786833772018209,0.9150999915868888,-0.04837202527648515,0.08086168124419707,-0.15256097757808382,1.496442992206943,-0.15276834688773674,0.7459401778868131,-0.1529211569309483,0.540364106801961,-0.3253422478015067,0.7875095502883787,-0.325121260034226,-0.033650028285456594,-0.32500162176837727,-0.5085787173636317,-0.2551730803891552,-0.2281143155513645,-0.25453149001571446,-1.1151448234127086,-0.25536214524757683,0.18144791623015344,-0.08855623971283161,0.591836411616067,-0.08878725826656858,1.2140495534029474,-0.11303515498869483,0.05980538270100358,0.010844198487590093,1.4725644446233692,0.011110854081302399,0.8872940075369412,0.013823079667869238,0.008021921064745,-0.6206467581471924,0.008513132982566033,-0.620142332256657,0.007192321184934921,-0.6205589453963425,-0.5910039173107393,0.017701357718468036,0.018540766954693793,-0.01831619444307004,-1.0563090060843003,0.22967763664764426,0.6523151204638253,0.22953047955963532,1.2031240444334652,0.22995207023717043,-0.6022016923137293,0.22860778853020025,-0.05663355761310956,0.22924473333431566,-0.09345848255517442,0.22957360233655486,-1.5455323535087677,0.22934773067277645,1.0195725925177102,0.22922608733662225,-0.2364483953285463,0.22965687725603542,-0.4151805564234718,0.048432906851869476,-2.35175646378034,0.04871596125560508,0.038953397826687976,0.048699654440898535,-1.802390698261992,0.04932442071253772,-0.4790536252817805,0.049214665815442746,-0.960829647313878,0.04835310673270328,-3.4046825712953455,0.07695980613453363,-1.7717729561173448,0.07755472899569554,-0.9419302282497799,0.07821458036372386,-0.19125935003885602,-1.4520283717572464,0.14023584811292894,-1.4522061427024993,-0.6101996763550465,-1.4521681842164422,-3.2649615900537476,-1.3705649130156505,-0.4493390473674241,-1.3714140017328833,0.18867863780728483,-1.3714759707517876,-1.5372204536334797,0.028471557581390902,0.06973040581075532,0.028766609901854687,0.23991234567568387,0.028874466681075878,0.42307334144290404,0.3407248139009765,0.804653566636845,0.3414198648174928,-1.1824300547947244,0.4433420150900283,0.5059588281481536,0.35284268042973843,-0.5325442789572405,0.35292991977904387,-0.6688633286837088,0.34980710528924736,-0.08748546819217633,0.39681233848166336,-0.08806472505528139,0.397494131012117,-0.08814803526836688,0.39712323905217933,-1.3272594769686248,0.14044307781578547,0.14028301781235672,-0.14061088148780715,0.6117851565851165,-0.6105445759712503,-0.07245976576469068,-0.6097848398745745,-0.8319488136740473,-0.6105845190989577,0.1354913962334523,-0.610019366755263,0.5804753038355278,-0.610360777703388,0.7006921852331108,-0.6100332199653474,-5.314951241991341,-0.6100909020169555,1.7850780582317924,-0.610062381530749,4.34084465991954,-0.610884620075192,-2.418808962667565,-0.3464152121140749,-1.1062834466947542,-0.3467597506473572,-0.6221537119450051,-0.3470998019979443,-3.638474467878074,-0.34665154643205187,-3.4637705972393915,-0.347083005968327,-0.5411371098659519,-0.3466789957343155,-2.5340091823451227,-0.3285686335935616,-2.7901966363014954,-0.3283661660020163,0.06725875208184393,-0.3284278606223141,-0.17439360781756608,1.0105037355160247,0.026585983588824417,1.0111467664470386,1.4193848138154213,1.0107532895091478,-2.050713561809717,0.9643460459532235,0.023482127991464888,0.9641193705678411,2.671869811951274,0.9644367501089185,-2.893570353576038,1.4320019962655797,-0.5781039757639346,1.4316391231985646,3.159559481659817,1.431886882935799,1.8002457554068003,-0.1600649966068858,-2.014220679815698,-0.15999047914922346,-0.23637690932030683,-0.06901321679190964,0.08659117724201348,-0.5682924099278297,-0.5976906861604632,-0.5684690542706516,0.22074779172291487,-0.6064756523323644,-0.33728062522694213,0.24133537644481876,-0.3366305326277578,0.24129524386829462,-0.33778868645987015,0.24099882230691763,-1.2756250988358813,0.3617263916599881,0.3612422755507924,-0.3620905275694405,0.5721745843168796,0.23522011217799363,0.0034244598293938742,0.2359148704649319,-1.3066377428557223,0.2356323898284484,0.19504670086849535,0.2357813961822375,0.16160092939639156,0.2357672071735988,-1.2463320105011204,0.23588448149804678,1.587573627795192,0.23582045164558132,-0.27952688119424424,0.23599275605715467,1.0856039657296606,0.23612962653596006,-0.02166314063993205,-0.03264018970153037,-0.1507251397935769,-0.032700414854675806,-1.3058481141134735,-0.0326282877396119,0.7967667580715284,-0.032378784728116915,1.64363205960774,-0.032960262347422685,0.5061478097056823,-0.032718812936910834,-0.09260441193390305,0.04016159322144373,0.7786100600809726,0.03985846914768649,-2.0718577034418217,0.03981578581857843,-1.3616673682645506,-0.965967411935847,-0.7904743133902121,-0.9653235975041801,-0.2341287430612189,-0.965683753381986,-0.6146462539948397,-1.0358099491527404,0.1884642303498255,-1.0361410060120275,0.5943811578870091,-1.0360379772959378,1.4110341972674398,0.14043939281603998,0.07581842273750417,0.14036443416034075,0.2078688520436013,0.13961572158319396,-1.4784398069871427,0.3226386352400399,-0.215133261004007,0.32206234343351925,-0.8557051315994966,0.3835507700824423,-1.4910284206679945,0.06937782007336087,-1.707509755331101,0.06938871336749737,-0.6663754489464251,0.0685541643846035,-0.13830557248385605,1.095010682196486,-0.13848525015816426,1.0951991755083001,-0.13826337907198322,1.095016654767819,1.3448486348682571,0.0911953770563259,0.09078232224544919,-0.09107570307162628,-0.2549124505923678,-0.7297994953128878,0.5682253872840451,-0.7304222780166642,1.4599201421211665,-0.7308317498786566,0.479150260021249,-0.7297720291055335,0.7080872868976096,-0.7304575317044398,0.46910898269457946,-0.7302371557066695,-0.07024222310673288,-0.7301035370562626,-0.5425250222309874,-0.7298804381878424,-3.2407922216013856,-0.7304750257162124,0.02800257842586655,-0.35785644843957426,-1.3866188026961217,-0.3589681671469542,0.12566945469958882,-0.3582963879532565,-1.8876282637036124,-0.35817625554021365,-2.800511877336442,-0.3582367942635762,-1.7437630855819863,-0.358475880526357,-1.6802545009820804,-0.31567370329895805,-1.1896420634176146,-0.31545394990414666,-0.14844931060128813,-0.3152794452859853,-1.1509618710004352,0.3091160332375754,-1.0448610995063392,0.3089958502418023,-1.7454720820490146,0.30872895760515806,-0.9620562973888235,0.3380092280660484,-0.46938537514239514,0.3372208429617473,-1.4894767127934534,0.3373312716382674,-0.9924224770271934,0.10190386184554974,-1.0193548221656314,0.1020237645969669,-2.113573508032159,0.10280984105221937,2.0553423690805714,-0.12731032213533314,2.757033532262983,-0.1271914463138262,0.6429695196630901,-0.06430380623368837,1.7234576013548093,-0.0018010745358349014,1.209247603002813,-0.0013039463005460909,0.7831762967933936,0.02009528057760014,-0.5427551710569777,0.6501972372167847,-0.5430261997557012,0.6501652072668874,-0.5425294034509213,0.6500409608920171,0.5471986096432642,0.5512260421081777,0.5507533805302505,-0.5511687895372518,-2.1206703015937727,2.8344811780816173,-2.257880823748727,2.8353780528705887,-2.0658855749254754,2.834945844573444,-2.702765228462741,2.8348697098219393,-2.1856067921162796,2.835057200887681,-1.5798882046087486,2.834860500618242,-0.8632189532402711,2.8348354178476938,-0.15619409270109022,2.8345163192506457,3.4339946151711325,2.8348949568769006,0.30967159343642137,2.5418037916467635,0.3133778473463124,2.542567506407456,-0.9216082530156339,2.5422898501000217,1.4771467637391635,2.54291140012608,2.3554754589069242,2.5420190237314686,0.021846538078878177,2.5427304858415885,-0.21846761855499044,2.562813425543283,0.485870411308486,2.5629959315555513,-0.9775373096099993,2.563283520488532,0.1531003757089927,1.6757116647179682,-0.28893478374453874,1.6764683792759276,0.8146072906388743,1.67665279102582,-1.0326261424833556,1.1581778305544566,-0.14427974654422204,1.158426625368975,1.8818464343046326,1.1583882363382612,-0.09971441920965733,-1.874415579097482,1.2860292966337932,-1.8734613359549033,2.0721010579395944,-1.8738522189316713,-1.3028165973591117,2.387999728164562,-2.065899253890814,2.3879833920822957,-1.7787559737397929,2.0767118442772627,-0.6217415577428851,2.1749466889883213,-1.7350038545576179,2.174524845808317,-1.1490157652105328,2.177827916920727,2.561836763429345,-5.110318767134863,2.5624260126717764,-5.111321643181805,2.562039761042294,-5.11055155191078,0.3714710313439003,-2.5111229258742385,-2.5112780452923027,2.5118403476980973,-0.28519109825401784,0.13456802499005813,0.27975213120147074,0.13551896178835662,0.11958531672800764,0.1352851491883489,-0.24607571906158093,0.13424766525849416,0.027239477221138432,0.13494482764785595,-0.6128062131213255,0.13460211886131032,0.05857788995289368,0.13561756646715342,0.17224779498788217,0.13476367812963466,0.044126502595087075,0.1346472677678601,1.1825117722765492,-0.012379763248640138,-0.4179559760124672,-0.012790354328106518,0.24798130628776513,-0.012571708581573554,0.0971049266773137,-0.012751546540704234,0.49411967899490683,-0.012533390905673764,0.3650938613042903,-0.012776815515930046,-1.088699820893055,0.0032300646288153743,-0.36246370093784697,0.003829043403776442,-0.12387076217361735,0.003964643583278105,0.043937663307419626,-0.4654338140275797,0.19302122217687515,-0.4653660064854776,-0.38658065595091007,-0.4653435694041203,-0.7489944635767486,-0.18600304822208313,-0.5132055651014288,-0.18682445969713313,-0.18721072671207836,-0.18675577590793324,-0.16856289407205124,0.10828883694266084,-0.4805453157324721,0.10864103902562333,-0.07046839329450233,0.10871624862372958,-0.22440945968220252,0.028183956721989173,-0.12059175713467815,0.027755298433799536,-0.014257819037496275,0.05842128420150124,-0.6190933921804159,0.0454711670617368,-0.32081168671360255,0.04606316530059466,-1.2994832839537729,0.0603054836177299,-0.09016396076516113,0.16368085589190098,-0.0900537812715289,0.16435802192652046,-0.0905676938179298,0.16394538297380243,-0.39767504683555793,0.1046565554838459,0.10480329256077785,-0.10461561433033838,-0.6406407245538198,0.13623074489027406,0.483098764398111,0.13560722643271886,0.4269977585274207,0.13555611922006364,-0.39776892852185974,0.1361746871723771,0.05702828547926401,0.13644608072628753,-0.9644448074758653,0.1368127872919003,-0.6007216877540407,0.13628371277484305,-0.6203243615262918,0.1360113405829881,-0.6285483864317385,0.13619948912219812,-0.15862305478927877,-0.06972386619777389,-1.2040567022317703,-0.06997687312689245,0.4255007722901968,-0.07029921857800371,-0.52092688055745,-0.06996730038110595,1.2057943799221662,-0.06900270002774221,0.6781501950584649,-0.06990693019634116,-1.055138621226433,-0.0757008258595332,-0.2886517351563427,-0.07563268308434334,-0.1885446976437548,-0.07646509154488856,-0.41361334188858645,-0.27342568150498286,0.6217198586771917,-0.27385114228717516,0.44773388557039445,-0.27378758057145064,-1.0558847701482967,-0.3108884744289973,0.31880324526801196,-0.3111146016159619,0.01390343715766847,-0.31061736431971904,1.3920361081913037,-0.18582908076054397,1.4938838962743803,-0.18492503941429758,-0.29646777508878336,-0.18506066155574244,-1.4642971785125665,-0.09845232942529995,0.21540329089577312,-0.0992456577502158,-0.7920578400523057,-0.09238224981288683,-1.130161473408018,0.10498714062720695,-0.5705197889214133,0.10489082667321138,-2.2463909605324988,0.11077763370560897,0.0035730205695473187,-0.26624516551764393,0.004236173937072662,-0.26615578054206135,0.0037326804341407636,-0.2664385437827927,-0.7424093596793955,0.01869886255842352,0.017929368609763182,-0.018249223883315152,-0.7941711310175178,0.16331077738706604,0.21670120922210195,0.16246402137122526,0.7610050734183413,0.16324909933530032,-0.2219924904042519,0.16314578859748993,-0.21869002411922844,0.16330181829216386,0.41121975356488505,0.16412765007650973,0.7970438210958859,0.16388724146049152,0.2142218050166952,0.16294114403596263,-2.1123707331050303,0.1632045612967102,-0.06340845291235166,0.20436904441397213,-1.5087826221109202,0.2048606692084009,0.7233462747594164,0.2044275885163998,0.26252503871582666,0.20486558619766776,-0.9224882841881998,0.204638304106384,-0.9338859514222205,0.20394594733242444,0.2406048854380486,0.23719077715109618,0.5074792185253525,0.23675037851161898,1.0175124995432805,0.2365403226117915,0.7826523168651984,-0.4077402510203991,0.6769098095375252,-0.408563759967947,-0.8899256424541158,-0.40751684837636026,0.43255005846171596,-0.32776220681302454,-0.4185248338725857,-0.3279481110363989,-0.7835744101466753,-0.32781082990567983,1.399840024426911,1.5420042497195452,-0.414825304107165,1.5414399784298711,-0.22989830412092221,1.541962011647345,-0.930198835070604,0.08828042243230273,-0.9039673235316795,0.08787736709219564,-0.3398479626951813,0.014031834996306903,-0.23088015171744303,0.24523767352131445,-1.0105779695806874,0.24609866875261896,-0.02603693017167316,0.23488096097658748,0.05180361961956181,0.5121740285818118,0.05230739565958578,0.5128767493824568,0.052160121590997394,0.5120016688684726,0.17796384160734152,-0.07070556664179174,-0.07079951946828816,0.07138613800332584,-1.796490611694609,2.585059317158873,-2.7371050205227396,2.5844984626408807,-2.6708746027370753,2.5843670845018143,-2.2999617503278618,2.5847362820912125,-2.467489617172282,2.584469815783065,-1.4328771148929291,2.5845158092437948,-0.09273952780113486,2.584826672567799,0.6799044115999412,2.583969410892752,5.181370427424276,2.5845852690654483,-0.6322541960723438,2.633417724805774,-0.4569287977415918,2.635039024406483,-0.8547372965258718,2.6342162410535663,1.5051348614039428,2.634343369723267,3.0323327991986697,2.634659754298359,0.5685298209762123,2.6337138583225568,-0.23265517112528591,2.569609569425381,-0.74145747741891,2.5694249314996624,-2.4469731878359444,2.569463375423281,1.3226948295118428,-0.398060436767724,0.5381394316923622,-0.3975897840561419,1.4223328510961268,-0.3981260356630662,-0.9426524090375722,-0.8914186953511937,-1.3144407463268377,-0.8907707758676917,1.0107325939879337,-0.8907184460043576,0.20904715044640607,-3.270414542025064,0.4947883127875597,-3.2711229871345826,2.945777640714131,-3.2704605780132243,-2.1495854686228215,2.2604205402580213,-3.0053109409630547,2.2612712903546077,-0.9691975241104751,1.9736026560667794,-1.5416555191815762,2.4873350901537945,-2.4782049053925617,2.486935531687728,-1.549768213811954,2.540712387267663,2.67409491467431,-1.7184705993410085,2.673725627186418,-1.7185878275760784,2.6735288868472122,-1.718844057057246,1.4836978153558729,-2.812422646664856,-2.8114288918804227,2.8119351948400406,-0.17110122549940643,0.0167126558934331,0.3726158281894867,0.01696863924937567,-0.01926680794698806,0.017377394651701825,-0.10270822627202117,0.0164373621910078,-0.1193983064306191,0.016610355687115917,-0.6258153667128535,0.016728609366259892,-1.545218929114698,0.016760589237745514,0.7643876977921754,0.01690152565172701,-0.2447532054760625,0.01676763784992522,-0.23947556496368094,0.1287374286069966,-0.5045266464312002,0.12863199265090758,0.14468492967217245,0.1289979923641073,-1.9011018387603034,0.129180576453149,-1.861455923257873,0.1283787740855295,-0.45765522206901377,0.12850502918576184,-1.7818672417798194,0.19112557847034256,-1.4265740879852953,0.191282663909621,0.3808761646174616,0.1913539874244503,0.722992976029311,-0.3197247232792488,0.9814481709142505,-0.3193999852976627,-0.3151868157424039,-0.31947142940077183,-0.13409541694334526,0.015968146835214525,-0.293041339033999,0.016347018429074822,-0.057717864909014836,0.01593166079219699,-0.6813218438654004,1.4315207633201061,-0.7494393355318653,1.4312880955424836,0.42880199256923973,1.4314802476027468,0.30180468201998034,-0.2613023106327827,0.5599119877742575,-0.26047310539875473,-0.2150092540208918,-0.13002808971483248,0.5371590191624557,0.2560142231434378,0.10687273972432641,0.25632358593681803,-0.553950902911996,0.21401081168660557,-0.02525019698167142,1.0451803115704645,-0.02500277529841833,1.0449929303857075,-0.025736288777417307,1.0445292603928864,-1.2312029893584902,0.05027778445789214,0.050023518644940416,-0.05051498622240777,-2.218533344398768,2.7966720633615814,-2.266682554221903,2.79706849656934,-1.857205530542026,2.796223516513995,-2.5395849751665374,2.796822075927048,-2.3365740313272974,2.79696413014562,-1.0847383030246676,2.7961074523342497,-0.6367279851999311,2.796709068220428,0.5996582506182908,2.796615032199869,3.4586469703745317,2.796051332434654,-0.29327257222505504,2.54553049451226,-0.4734606766357559,2.544933019846435,-1.4133551666160875,2.5454340978342227,0.7153691492887383,2.545786535587818,2.554062519183474,2.5456756331076136,0.5000620954528241,2.5454053197268722,-0.6057150479562226,2.588536350251069,0.8907087563164902,2.588707320572657,-0.9892916618021563,2.589019834385273,0.9475235382475677,0.3931438414013698,1.256273021139368,0.39280964092091,0.9040818192298732,0.39304785281304655,-2.0550229312441908,-0.031899392462804384,-0.6436484459513416,-0.031883842441556405,1.610937371643984,-0.031802865578171476,-0.6908445780661949,-2.3493307108409236,1.159977511326411,-2.3491250959902987,1.8045674697826244,-2.349449560238872,-2.128515937786821,2.6974184539984316,-2.736212181027691,2.69774003288411,-1.804396414280764,2.4912190314206173,-2.538504777599161,2.6872454407638484,-2.4821624709141568,2.687353552471949,-1.5722262083006688,2.763034060083016,2.554807104466252,-2.14328973197601,2.5552918011714087,-2.1425708062454216,2.5547000404715785,-2.1432279390976356,-0.24149926893104598,-2.5825275858209276,-2.582830671338841,2.5821326830307747,1.8920973999296213,-2.6388112519268208,2.6913261644845434,-2.63898167640215,2.213914050339738,-2.6388992328744783,1.8412974439913345,-2.6394927217418562,2.4447368399363785,-2.6386318264375466,0.8929048372857116,-2.6390726973756786,-0.32202042086370203,-2.639052946352579,-0.3776798988316083,-2.6392935935005934,-2.281459210086813,-2.6393445240236617,0.32603215678216046,-2.435540348156895,-0.44383603853639086,-2.434575963879927,2.3041567744241482,-2.434033375088405,-0.7926786822755779,-2.4342631859469392,-1.5665863426814473,-2.434495012322775,0.13540978462758818,-2.434099664662341,-0.9985048243032977,-2.5842002612234367,-1.4219002379253172,-2.5835449611190313,1.1709774686222942,-2.584010896039925,0.3541541613572467,0.060483625761746325,-0.6280303179128117,0.06069723697673208,-1.3486333726252548,0.06058696049051988,0.06312253162308286,0.3709149372395771,-0.8676919458435072,0.3706280749241904,-1.4236560973935661,0.37114623887639697,-2.013751121124787,2.00368795042503,-2.4902736153956755,2.00394624567129,-2.2650916833768,2.003869589946527,1.0804522083430907,-2.8713157152060145,2.397460637609641,-2.871694016947523,1.3581221806816794,-2.8640049420954368,2.3006634572866957,-2.7509802048786938,1.6569702028182594,-2.750017893073939,0.5518416390758569,-2.7356345096939223,-2.446813096895691,1.5522739504585477,-2.4474871664076194,1.5517214428181845,-2.4474840641081568,1.5519566233975584,0.14566870620300096,2.436216861687142,2.435879679132632,-2.4364082159894327,-0.4675099401121647,-0.06182026885562562,-0.08011327320903394,-0.06185280100176003,0.5645036784191465,-0.06166306800913677,-0.08203154229456135,-0.061665163061688656,-0.07111819885587065,-0.06130188071097096,0.5548985857756462,-0.06113983345930659,-0.8795457058300369,-0.061356745336640074,0.9330438250642443,-0.0611907861005568,-0.8399649888092665,-0.061127208337447524,0.914001926341467,0.23906000630717272,0.09408367735643255,0.2390754290841962,0.1017633369011553,0.23935245130485594,-0.043007018579850564,0.23885892619361349,-0.47376330101496916,0.2389497236043422,-0.9294340313752396,0.2391182642995081,0.27693733602238924,0.2596726078375785,0.30689442227639185,0.2597526822691706,-0.07018188779291824,0.2597010784671726,-0.5570385977833054,-0.18654100857934713,-0.3410323815865035,-0.18709172763347515,-0.4418324643674146,-0.1866249173870636,1.307708613291504,0.06047367631745089,0.23568694665428397,0.06100064347968236,0.05626264844063331,0.06050625370430525,-0.10145022071925033,0.18545621655423902,-0.8264134364840399,0.18568520362217686,0.12500379241906365,0.1855962788118872,0.5664427236304224,0.1742560096326284,0.23412706397690888,0.17342807314178818,0.37354855778286145,0.20360176922460818,-0.528561417364297,0.21252035999920624,-0.1255395236301739,0.2116734990549076,-0.6387032241613235,0.22015722407467053,0.10631264543410367,0.6752905639934988,0.10681900956407099,0.6752487934319075,0.10664467674481627,0.674713133572077,-0.5740549091225478,-0.11492937788615301,-0.11473915338200064,0.11455196877859011],"biases":[0.11091094719530119,-0.07565163339874233,-0.09711611390660702,2.756110343920339,0.8298701569446308,-0.9275289960034092,0.019863341205027262,0.15711337071957787,-0.014651488794511816,-0.23970084141494089,0.09390477091582389,0.055489862472445264,1.0908696078818063,-0.34253061272681556,-1.2167553965207076,0.3400253724743693,0.26805812040164,2.2962610747360492,0.04698270549049131,-0.4000675550322172,0.18254009768793822,0.10984451808675152,-1.5701449850354323,0.46696261492091523,0.05482400719804178,0.1576645428965105,0.34003080210107983,0.10084125594184477,0.5439245421192466,-2.497207120693649,0.12223015908757025,0.06131563830583592,-0.06482788383980805,-2.829606447179891,0.07794760229066264,-2.5566130372587317,2.4351593783962455,-0.12452119104206198]},{"type":"tanh"},{"type":"linear","name":"startAngle_layer1","inSize":38,"outSize":12,"weights":[-5.127774705478963,-2.388095651604293,4.494393038456942,0.3446067725464188,9.504600364207871,1.2380988699623594,-3.734310693812703,-8.228620669675234,2.772862341708689,-0.07116752099778548,1.678969819309114,-1.0113470414745283,-9.574549804540954,6.234131664761889,4.215239255778303,6.7924017083799635,-5.104061177666145,2.0901634289303805,5.197403905216232,-3.8396238053874523,-8.716785528858882,4.6578479312162795,4.015909617776126,0.8395452193119315,-0.18764427986549592,7.621558218625972,-12.862072833081863,4.0224014723218655,-7.851749220243792,-2.3893156921928687,5.677372356125619,7.899409031862169,3.7435819888721715,5.102731297716929,-1.466772711928437,9.589609421833769,-8.7002935256754,-2.0238018399711137,-4.008536767097951,-6.392575172248071,4.5159878930768995,6.928421165263063,7.5943464165571095,-3.869045718732612,-6.820135355060404,-8.874343009134881,7.558662042100907,-6.082608722884189,3.8005912285685035,0.3780235571508256,-5.446393971161146,5.679816456056802,-0.5163836993160181,3.2868976631121467,0.4961042141566092,8.924753593551593,6.076509255977433,-7.731918989164713,-2.5740692936001275,5.46579144815115,-1.2202352406258277,8.136271654714276,-4.152837565944635,3.2692518356167537,-7.974457406999981,2.6774244659660966,-5.236844678817345,-6.654634247677257,8.744259204795549,6.377798550628472,5.457662371093992,-1.0106336889265988,1.1386338762159574,4.163205204974635,-2.5206519161624956,-1.1640134105063127,-3.2756525311934297,-3.991825040013919,4.36187372501963,0.4491923256465034,9.521814637546111,2.112689486075505,-1.9950755064017387,-5.271149922979682,1.987854873784979,-0.26482514419231584,0.9172156382967349,-0.4181835814780376,-7.590504537123362,6.525035409318413,5.335903210529897,5.947247582663143,-5.285950450303694,0.24345780047305648,4.699663585277617,-2.8182614430252615,-7.138637641614867,4.456605742518464,4.001544233017411,-0.2993869987533334,-0.3582634513949504,5.570486970065027,-12.460172573040767,3.88085797892595,-5.114617484684935,-1.2413701086778566,6.357786110802,4.30209324855139,2.20215377282724,4.473865179646469,-1.8199739749888417,9.602104898989682,-7.589514622362349,-2.9606956113782883,-0.2695385969704759,4.613803404978784,-1.1593284842958445,-2.9275385599575254,-0.045602682066749826,5.041060479032099,3.0747546429057904,2.495247498868585,-3.4016369163781177,3.2557443967364614,-2.7569402735607356,-1.9892432065226233,-1.0414000183595058,2.5883359970316397,3.953514884106125,1.5553369855221606,-2.774171002745803,-4.9253527980899765,-2.2993352414241914,6.145320365312402,-2.6918383169411046,1.868172544062459,4.649197862941392,-4.466182573548208,-1.1176933847491415,2.553625443717083,-1.6442366829146375,1.2515446698236912,1.0881299071713275,3.6875660136118515,0.3487769961590097,-2.297944651283712,-1.336443496554493,6.023662062373463,-2.646619926886966,3.0952342889376925,-2.456130054118907,1.4911960993964837,0.05759381082170217,0.16057352673591593,-0.14332700439234372,-0.061726083235519945,0.5152141650014078,0.466164647247519,-0.10451256088866187,-0.3339085531877249,0.20995853011923193,-0.08791516936191696,0.31395807358920075,-0.14166129740894093,0.2605903190302864,0.0031790083670123004,0.2367857243249629,0.03879572448853462,-0.14398905485161045,0.08485472642762176,0.15553323751815618,-0.20495005364147356,-0.08206008442811444,-0.20244446436478708,0.2923430123852439,0.15338713577643104,0.049251337740829126,0.13558801053514266,-0.1693190833176466,0.07359627943433387,0.16230126135122364,0.02625429094834183,0.04979274916012187,-0.018503807329537655,-0.05091539172303233,0.12273027392194907,0.2821644620027683,0.10980103132882094,-0.3887401694071733,0.12032500229574906,-0.03548141905594779,0.20891082993084029,0.41598502758382405,-0.32680027414135365,0.23396712026760613,0.29298697775609056,0.04538320599079881,-0.07835263992641237,0.06481675155969989,0.24743718449273813,0.1027156513835422,0.2409265517218382,-0.03850691233173255,-0.1065840336993656,0.45538607036690815,-0.07214868176114257,-0.07335894273019078,-0.1426720301831922,-0.37809284367111434,-0.10035284759243684,0.37068951785577475,-0.16384939330119555,0.06173767562528028,-0.0020236647217960575,-0.4537419357248172,0.027677647742228393,-0.2474321805803072,0.47747094708130733,0.27892992871184247,-0.1278572093429118,-0.3800023125834467,-0.28059991336464774,0.09901383306779957,-0.020324159144483225,-0.05736085841743609,-0.3498377840767167,0.27555982316416666,-0.3980741337108029,0.39316000394339823,0.05097956854318589,-0.011960165992631704,-0.00961067570691063,0.1084353934905857,0.2186378345659685,-0.0042215939552463005,-0.007374221262591662,0.041991220208979274,-0.04087130444459745,-0.07511299635287846,0.019493341709629235,0.10408245023831471,0.037706712615526605,0.3244094814985445,0.0606136377800216,-0.44507845273034397,0.09980096948074596,0.016259504742383274,-0.20991519324146538,0.04681322695630363,0.01958650331629224,0.2068641472067867,0.20547647852268935,-0.0048770259327713845,0.18255093733126437,-0.4143211338741886,-0.0000397078954239927,0.10618875419285248,0.03124501858267774,0.008794408949732775,0.00845883694204147,-0.02538607630734855,-0.09173405821792777,0.11644237279973386,0.23650995854822274,-0.35743546109975877,-0.03272373980017429,0.11418467543006657,-0.07166162811202074,0.013145981890236474,-0.09205479588631255,-0.23141291412574183,-0.12802132360644902,-0.009806879360196766,-0.03624898306831832,-0.09070109356562467,0.054260783249972105,0.035838313474252204,0.011064504266461557,-0.00886588342640542,-0.016894126356360433,-0.24730828372397887,-0.0929448072686695,0.08951452985866054,0.0477043802859235,0.006705887241693376,-0.05672430990439871,-0.06782963818341098,-0.023472311708286325,-0.08351770636091484,-0.13309970342931068,-0.011272171891148566,-0.1396007165502085,-0.05767803398442609,0.084232919113641,0.05846865731264403,0.29971630838335944,-0.03195120829332226,0.032165603430132625,0.07228143480491307,0.32380284244880025,-0.09798185370456948,0.1784487059174715,-0.020064707076175088,0.03788922578343626,0.2282948114596532,-0.07774792250033614,-0.19167739531758785,-0.25820828859182793,0.31965897644251245,0.0363511356544247,0.2917656739583339,0.04117329134500344,0.18918073929167392,-0.0461706289651008,0.11992443759926052,-0.2143194675924664,-0.14254234840329075,0.2017330409553204,0.5206829494854373,0.0781452773535569,-0.08891966769422646,-0.30777691155297277,0.11193443439036486,0.3408375071917827,0.32648590140263783,-0.18143264345435414,0.5234782850594395,0.2816196995198811,0.4101027655638163,0.13148680638690777,-0.5619772665993642,0.25151540065468786,0.20315941014434552,-0.10366259141386021,-0.45018547306683243,-0.11528758385639268,-0.6125465399833835,0.0209238653383922,0.2142243983926949,0.2083524809418402,-0.252263356566484,0.5673971739130453,0.2579477859559883,-0.04191238522560195,-0.2417287789097074,0.5165273043141395,-0.024251292256400533,-0.23308961271672632,0.15997990613525534,-0.1421485031593098,-0.4290260883170236,-0.23889159930872225,-0.12506300577524843,0.4664166958774741,-0.43997550437295213,0.39915999902911686,-0.006071046742610024,-0.04167589583267554,-0.4415115822923151,0.07942505898073177,-0.5670648996482397,-0.5124292087012701,-0.17265733741090702,-0.6618173457436791,0.2504619991295999,-0.09902474659410349,0.40184106216586984,-0.006399266146589945,-0.243104530974916,0.29021978721725084,-0.13352432059869407,0.08435468916806774,-0.148780367771697,0.37820641899181495,-0.26061408878920034,-0.4356041779129169,-0.42498021901570415,0.3377213358390702,-0.14749728410882137,0.21720619208162253,0.41381635830626035,0.17944234828371886,-0.17084241388254895,-0.00938425419319475,-0.04708915024436921,0.08499991606593593,0.03833662317310586,-0.19562691019207298,0.2704082737056597,0.11878244354096587,-0.10562556760843785,0.050133951521033865,-0.13726696649153475,-0.189367180937667,0.12643046279669468,0.2634424716778694,-0.09845769551695388,-0.19095810417472447,0.1459511486632661,-0.09653376483706691,-0.13693035411407734,0.07056967664436556,0.04309671839330011,-0.04912720938379618,0.306650178188943,0.2531942252368344,-0.16941699756002923,-0.07299784193408537,-0.09076011715860628,0.10779452050756719,-0.22333636975485058,-0.10816239532592413,0.17857893795710295,0.092112662998746,0.1624644010552047,0.17076882365294294,0.0016789406096266678,0.541555355138387,0.08527980718885504,-0.05758572248714404,0.5183716305174221,0.2120791204882189,0.21346882724887004,0.07983562108515507,-0.0364331477443209,0.23244932218482026,0.06212064692980065,0.0026998260212101697,-0.11834520431499503,-0.3406116244235809,0.2154502353092462,0.4031179916239381,0.21079947204755908,-0.008916364507931053,0.0012124949024694062,-0.045358830775775905,0.498131915910553,0.10353924044629241,0.04631190097243222,-0.07924852833463991,0.11822232788978758,-0.2516647205862569,-0.12297949113105172,-0.2429596339371474,-0.10202701371881967,-0.19860384706818704,-0.09469800333038579,-0.07802166583061057,0.49886895140477894,-0.33878216486093204,-0.18772154993768847,0.1274535349854827,-0.012411105224089782,0.09254874999682022,-0.08190336802482837,-0.01924766900208281],"biases":[-14.014961163498704,-9.855124938422534,-12.628874864254438,-2.736617487028202,-0.6250985423553346,-0.21983048914298092,-0.6154131664620179,0.273228164187611,-0.6870286383816363,-0.17284980369063618,-0.5158592547069079,0.35361500395916323]}]},"angle":{"type":"sequence","name":"angle","networks":[{"type":"linear","name":"angle_layer0","inSize":76,"outSize":38,"weights":[-1.3791053143102072,1.0379554043226926,-1.0375192898667656,-0.1427645692140329,-1.5158816623474618,-2.4073420481437062,-0.48635256521408626,0.5987908205836422,0.594266050581894,-1.0013116392970085,1.3768582893148509,-1.7954039333835718,0.294885821823167,0.08049513791124864,0.27373554353126156,0.4054852647854481,1.0159382850544396,-0.007601761882763783,-0.29735543077263116,-0.3437750710505982,-0.8126782779475162,-2.4522090676573036,1.1363114892345787,-2.3710013072062632,-1.5314339968808752,0.4558770415518388,-2.4000239266606194,-0.4004662247878177,0.41708504006163705,-1.9440235189576796,-0.06217556593275056,1.0682603680710538,0.5759076630073975,0.8659115771738901,0.6750342564253712,0.6316054113331362,0.266390107553773,0.5956830110424081,-0.1550832460653713,-1.550555319053685,0.20440597833963994,-1.9385991062663597,-0.5258683296238001,1.1636301276351593,0.4933826674082638,0.0829501301027474,0.21112147272648868,-1.6318377759215672,0.28776758237708305,0.7458035564550339,0.1190436175232147,0.12584594287587506,-1.0178759066163998,-0.466651310344656,-0.1381339380520033,0.09673141044486427,0.2171824443903611,0.3315467907218443,-1.2625232507898017,-0.0460969600655766,0.18306040484444835,0.5543537499544567,0.7327508156987008,-0.14832703515845602,0.8107123988838417,0.10892555282779526,-1.02269470113893,0.4779902614136265,-1.0655942795436724,-0.2784260434778477,-1.4618753110237557,0.5258746189020017,0.08094454637598902,0.2124621385851178,0.8649404096631382,0.6081545253657661,-0.23843285272691817,0.19301749955416553,0.639489858155425,-0.19577114857661257,-0.2783917076999421,-0.17545231278009008,-0.15203515336414955,0.24547876370331118,0.7842821471386654,-0.09856004218386626,-0.8369952678057511,0.0641848756682184,-0.7577534113501895,-0.2645196795022486,1.077783533397631,0.01630986413107206,-0.01306796420774764,-0.29749028643443526,-0.009882214454287571,-0.46111961113884536,0.2839668575924275,0.7836626375917941,-0.24893411981963628,0.1531596776486145,0.029844690889556953,0.27476067226511824,-0.705778632039069,0.34858358275163154,-0.14807716319515046,-0.3712393432243289,-0.5351413032817326,0.5743527830379687,0.3166277505939232,0.5418810721745919,-0.28359031739219986,0.4704565312385197,0.1271881533743158,-0.503758902863438,1.2689670988011077,-0.41984366431477993,-1.2159897014818006,0.38192079979521765,-1.1799466468677167,-0.016647853485597625,1.8711154951344264,-0.5615040476225457,-0.18941469430926933,0.38219955410380413,-0.2327829773909301,0.24418610868533308,0.5872907972792639,-0.7918245812024081,-0.7307234783546933,-0.3329230389708117,0.08654968912896512,0.5005740405146034,0.024206051828673213,0.07917210236160392,-0.8360624246643947,0.6519003052525236,-0.5490788898114882,-0.5041361158806636,-0.33551686248336193,-0.5143513051821266,-0.40453667945070504,-0.7713609734252562,0.3901720180800449,0.09195123852594544,0.45574823722137314,-0.08070851697097986,0.5749800740062151,0.2158350823407763,-0.09994458171880657,0.03914158241029554,0.03994637967076415,-0.04206903829519574,0.14101437625576796,0.48105101223312474,1.330385203589045,-0.4464337133467171,2.138112315329628,-1.8859910747395185,0.7907549117757227,0.07573767526919634,0.29485638338775094,-0.16105482864737006,-1.0646703733553946,0.5942509043980013,0.14504263087868352,0.48354020547618376,-0.836551646870686,0.29182641986301155,-1.7840616133635974,0.6413783387494998,0.3860188120198905,0.23351359091130483,1.4986632141348935,-0.6208002596460164,1.1945645223263888,-1.5144939051716209,-0.9888624333084923,0.6018051499085841,-0.10617864309121652,-0.499303026591748,0.05401328145505038,-1.1128768363327277,0.24581810495008533,0.7424122234580568,-0.8675290252372319,0.5499344799635717,-1.5227360951933193,0.6389322266543209,-0.3577883934832814,-0.1069943065743673,0.5466281418409318,-0.8084217117928948,0.4231865787163058,0.08707021168867721,-0.2965374102662568,0.8302504740053683,0.7539416990806089,-0.32190366673701815,-0.4502003456068505,-0.19495590023639775,-0.5484785166389157,0.3027486219642416,0.24353008435558204,0.049793979698165264,-1.3966269867911736,0.6584918502029268,0.671798039197322,0.17193182288729206,0.004916710235182164,0.0869474828326616,-0.1749322318100108,0.4477179560390739,-0.11521998045600201,-0.5110368807297045,0.5138884389453294,-0.042136577909622296,-0.5043802363179796,0.3615861830662014,-0.45185699058548284,-0.3636871480462817,0.24290285528040886,-0.10256677749114264,-0.1330733046587144,0.09310880854574956,-0.4784631003527218,-0.073980093130283,-0.182027796393899,-5.323914759619396,1.7005122578618366,-0.672868021550861,-0.371823854328783,-0.06723789919335015,0.8209151380190327,0.07995410408277853,-0.004304490935922814,0.18699458804312385,-2.0336628045439515,-0.022834884820066167,0.2996200198959487,-0.39759505506647064,-0.350642379868218,0.4851521519651103,0.11142450166268077,0.5964279753655372,1.2155774816711167,-0.8836378853208905,-0.07278244156047071,-0.31175873837026735,0.21310759666467965,-0.5281396226279084,-1.118537602272129,0.3520587679927437,0.23657919475201147,-0.3916764139107441,0.702679539750487,-0.38351775888783673,-1.2927351544845986,0.5742832865395555,-0.630418462391998,0.8566568782369832,-0.5452634594467843,0.7540312071496382,0.03906429361766598,0.8755859094179146,2.0757088054512147,-1.4490161376418988,-0.7191185266657734,-0.664855430662937,0.39869766578027904,-1.035478380267326,0.4147845965421602,-0.6363591527029141,-2.5461373950817054,0.5583354577480825,0.3538814462829688,-0.07853521500343034,0.35093004404020084,-0.6112940851468283,-0.8846743964347547,0.012702354138963274,1.7266331034417042,-1.7327466532476274,0.6338805977777919,0.08807179161140351,-0.36182107002223585,0.5198425107202012,0.9378330882334098,-0.45228958090647664,0.12000853118063098,0.6492808439170237,-0.6162422481343218,0.5686088296865331,-0.5463859898333939,0.1807088031410668,0.2981906503453513,0.19445583298687483,0.6330217229430913,0.12855815258766323,0.6225243138332951,0.6056736247161774,0.012271128580245172,0.10742771620766296,-0.2140530365250421,-0.22219002914826072,-0.505707498841077,-0.43687542679865743,-1.2882210949368536,0.2860215965518098,0.17431758267402006,0.368379648507248,-0.75361930542526,-0.13608516050317046,-0.6564831874704401,0.838485909868072,1.3713050080526403,-0.6681570481515461,-1.8011084717220227,0.9503748177725275,0.9968694102531501,-0.8027331162485677,3.0024314931944023,-1.6618359271085037,-1.2394075129459468,-0.7630052666206287,-0.18997837074410204,0.6703770167752895,0.13387074680133712,0.8740263465387352,-0.9548504119154281,-0.2664208216268526,-0.317565349027742,0.1804094891135019,1.6842816082121381,-0.2975645006643049,-1.3419638421141546,0.832935132359456,-1.2435287979014678,1.0244457463906753,1.4729896421567885,-0.6681656453123579,1.145307385743428,-0.5866668709088558,0.3965472171002221,0.8930553055083014,0.6987347222593338,1.34303598348567,-0.21461226351367207,-1.4459660111878574,-0.5532539239628429,-0.6660932918261271,0.8366022380657014,-0.5837807437524829,-1.4193659942350867,1.2880261868936018,0.4469437515586254,0.011329621076010175,2.010281630372241,-2.155578889086309,1.2554013673648199,-0.337960062770936,-0.22898630592036506,0.6209543116097923,1.191889266262819,-0.10422186456901683,0.6524456097044598,-0.26444249744566023,-0.6034324623905397,1.0632473389810155,-0.7323190201420381,0.8905928144957628,0.47885977235121724,0.0816121186254406,0.27601082946497685,0.44697928868417847,0.6161497160103648,-0.5202330852257484,-0.39536275542110794,0.19974650407941053,-0.5935957890973264,-4.233996989655916,-0.830714524336163,-2.349987076756817,-0.8543108578332566,-2.05538334249785,-1.759264980486876,0.34597083217577324,1.0998425117431168,-1.523421653328841,1.0744764980757628,-1.4476483747507696,-0.7740389381263142,1.4382078805154541,0.9035583451238701,0.13245040553802795,0.7678771773958946,1.2590175949191138,0.26724030094596196,0.5652336605409303,1.0069113059372554,-1.4788007163914965,0.27275097250051916,-2.2332780013876494,-1.2450444879297873,-0.7802356161743871,-0.3442626788667929,-1.0626450125560196,-2.2472262568669623,-1.3976201246166133,-0.3527267999282314,0.2696725841482151,0.6543867811178478,1.0815390833420713,-0.7545682252935105,1.8141042021019087,-1.6966232183258372,1.9371836668682527,-0.28228167755159483,-1.9081569077812377,-0.4865387571544226,-2.8793159265407544,-0.6618201231073876,-0.8179626713599459,0.08932703953222051,-1.0193594911872048,-0.6932868221672179,-0.11235175030150145,-1.3047205659397034,0.884812467461393,-0.6088316641843767,-0.7794040605965905,0.8357349239447925,1.0235743934659212,0.6263823776662883,0.12556483904280347,-0.05955479719712135,0.28994150725853696,-0.33278973556311975,0.4064315131511148,0.3347495574292444,0.5310792476252003,0.22764211715767066,-0.051275235181623614,1.2779047835141937,-0.31522896144574997,-1.4494067564649475,0.2468206106561449,-0.2555059493340981,0.8943201998501266,-0.9004497525106766,0.5356642310234476,0.2767547307992027,2.10976496881801,0.12806771323031815,-0.0020588875503363933,1.4217218498912934,-0.3193358417484491,-0.8596288912132727,1.3323876004628539,-0.5088995800458709,0.05237970455453318,-1.6426035309898768,0.494465958047208,0.17311125891289983,0.19321355961674036,-0.4022396338577881,-0.5490468153568615,-1.4079018204807694,0.1612704963827938,1.7388770125658382,-0.558070831776345,2.068502894119342,0.031588026748145634,-0.05612800182320128,0.7825636258013637,-0.2595729679540385,0.42002591506823217,-0.7598009787926386,-0.031823477960320846,-0.5606922974293962,-0.506193524863427,0.2169853600526644,0.08327131411672571,1.3129174905249845,-0.2554895271868597,-0.8473897972519355,-0.6700202452654457,0.9784302740659632,-0.7818869481966777,1.2129807216612778,0.458437896308885,-0.7600502063450765,1.2757349923186025,-1.5302590908153626,1.1886397901471273,0.12629781747774294,0.8971811177383804,-0.5514163762827955,-0.32409718336013144,-0.035298823018381054,0.23434201354680154,-0.3641100331720595,0.1425545732420293,-2.0511942702018255,-0.17836213475421905,1.9642011954220369,-0.8992365528724475,1.2423793656851594,-0.12674109683960477,-0.7606408452653068,1.24644015796096,-0.7484864670769271,-0.05214106218229655,0.5320659960730507,0.5169012745139479,-0.6560281124624148,0.8458827767249704,-1.3884139482940967,-0.5370650161051889,-0.08463855075385504,-0.5226371004813242,-0.38039558674244944,-1.2448371930315942,0.29589009203612726,0.6226526752513497,0.5831732170189895,0.4429796246222867,0.6144910831023673,-0.2557823770436402,0.1472072934719012,-0.08268360691731126,-0.22912749639855087,3.9626010356860335,0.6713328727976885,-0.4959960564605223,0.24670173181253108,-0.22150717482181873,0.10139175487659544,-0.371836796057548,0.20035399001266652,0.21173570390964228,-0.8242307962273382,-0.16575450377200518,-0.23314696152293227,0.20544288174988884,0.008415550675876425,0.19988650338451772,-0.18248032824044944,-0.025926668524759805,0.8107582949604878,-0.5247024084736296,-0.11419715826298202,-0.05306541041945979,-0.5871665098541785,-0.6631654956388747,-0.02416494934430909,0.16305253993110227,0.29646331260248904,-0.1543441779992005,0.10720575457203928,-0.859199406550974,0.26117190084017605,0.15805375210078626,-0.24252050121617397,0.8437063989844278,-0.3192832378094082,0.06295539897434722,0.010405309385796636,0.6108213389188479,0.451983114668172,-0.7736597590338052,0.1724016279390015,-0.4393342234731441,-0.6218883276554015,0.040071738329786576,-0.12151137071575778,0.7859289909535635,-0.7045922791414396,1.3395078794289101,-0.06168747917652796,0.6344870747519472,-0.7119483180518013,0.31483179839814385,-0.5021970307825333,0.12432976892703342,0.6096318807075548,-0.7038966961961861,0.2565207952669058,-0.05435307178685941,-0.177008470654796,0.4154954378975745,-0.17469119872720673,-0.1496580770846946,-1.0777467086173271,-0.11016842714897906,-0.3219622613111032,-0.41692234097819103,-0.04122579326423302,-0.03804293260840448,-0.30125209538274944,0.1997377714885867,0.8339710264747239,-0.23615248738341382,1.0468801293284975,-0.029247325699584246,0.029538344658560145,-0.04346416070975344,0.39393396050483037,-0.432698624569798,1.2226248595150895,-1.0449583843908867,-1.240163038002475,0.37503378956579414,-1.4968958797198477,0.8127063841145713,1.0065583526684245,-0.2507627596984988,-1.0032571061719138,0.2700655787970045,-0.7044910588932652,0.3606996338353653,0.2393777092572996,-0.05072271578877345,0.5220286541026959,-0.7722757779324004,1.579370735871106,0.19345138229596415,0.43019589559221466,-0.841710153244059,-0.7825891148902426,0.1269230500370905,-0.848067453036691,1.4061686183684454,1.3735208579497349,-0.47555693723898845,-0.13135212798080703,-0.063575970095724,-1.0280009183367609,1.7251211748771602,0.921466715449485,-0.29023108180874874,0.14793680622443842,-1.0985753789873849,0.18237890695620873,0.1397149486064645,0.9782384231372023,-0.6088014094111796,-0.21213264525818268,1.0139430428762592,-0.3192412880585949,0.5963807733604718,0.8504959332240756,-1.8408820839984184,0.08687361993886875,-0.09096328426319468,-0.5985397336066064,0.6583465851518882,-0.12096740011625409,-0.12130614756469274,0.29268989251480587,0.7862135805549882,1.0648028511056704,-0.5058620917993376,0.590570906934084,0.13594491576902917,0.22667101121817113,-0.16576943541181163,0.04979183417004448,0.09142559158713495,0.4499940303192277,0.8101483407120514,0.3406456605473666,0.32188538928095634,0.10189017419209356,-0.1625264338697428,0.2828879709108854,-0.23765919419018738,0.003771559486952087,0.26602612183059593,0.17543064121845764,-0.09418100134600385,0.16722480071292417,0.124855851659015,-0.3890779744195621,-3.2640650309556594,0.30040429538129876,0.7139789361282597,1.3753548220510845,-0.08431916154863912,0.35566465651609613,-0.837534930120746,-1.7545831204273696,0.6819384069546468,-0.028171842824024247,0.8012274989541764,-0.024272606742496018,-0.030079490861110694,-2.139803737230986,0.1422634641562154,0.19388914869151921,-1.0684131506585364,0.6183228372286652,-0.9445088700580385,0.2285758465894064,0.547175343472976,0.8233666930100271,0.7149576765235999,1.6014836640177401,0.7291157350718106,-1.349055564518576,0.2759736070615081,-1.2010485233394257,-1.2997186576743784,1.3825819960692416,-0.15268706806346888,-2.276118278705861,-0.9896036380805378,-1.3156113494277193,-1.4680039933758704,0.7283751092242655,-0.0046183935555125285,0.6846364453516082,-0.18393610679733044,1.7230816352907592,-0.3810898857306699,0.8463070963867279,0.015744194013841493,-2.6237208394106752,1.3675548422299444,-0.427795644410771,0.1527032405759493,-1.8164311008538123,-0.03537675757262408,-0.5341721841959314,0.19301284680736633,1.523500001101512,-1.9065953089477263,0.1801236329244813,0.3039559018110013,-0.7987863351497309,-0.4033178413351223,0.6740450340025022,-0.4636911219095345,0.3051439720473215,0.15152714513783677,0.6855043452633235,-0.08072020016411216,0.2833517060580721,0.09671841281164223,0.9350612120426097,0.3173651778854488,-0.4303553437935872,0.3484646086848663,0.005332056077753836,-0.1968187851474456,-1.9809277050254057,-0.10680537416377628,-0.16002610258166475,-0.016643770714531027,0.20251983147551453,-4.141893946709385,0.18556811100722964,-0.5715938848395082,-0.7463744584081624,1.1443410007590098,0.02066622958748552,0.3261841012855841,-0.23043651422888078,0.1978413194087473,-1.1130672158230426,-0.14980019737540076,0.8380623054552121,-0.2150958090980587,0.9160126698195942,-0.4199426129073075,-0.810745061867576,-0.06936017239179984,0.4791283170138254,-0.27401304219023725,0.17554025127971684,-0.22608095280099696,0.13921727570097117,-0.16905887748039417,0.17468756422400944,0.42150326191588167,0.15486092675616916,-0.4532445689971632,0.4580086574430219,-0.594020014974223,-0.6704617153040584,0.0836572607216886,0.005361175169166714,-0.041100448983410545,0.5322220101135936,-0.7507138699566174,0.2639327873057414,0.18891248469248018,0.4733454870167675,0.10207282316492318,0.5744897563928549,-0.028266244560959088,-0.4256701320715421,0.0805798158560767,1.1244892892580036,0.5717330234257756,-1.020366656528142,0.8663690502901614,-0.00434186789647795,0.2909693099385406,-1.0867409796349319,0.4241015589937044,-0.4145828631877147,-0.032933090105900634,0.8758189453183471,-0.2698537841406817,-0.34884427039907556,0.10059595141692967,0.6376150021348218,-0.21775078441462653,0.9784722410157288,-0.43121327719095887,0.13017844356437006,0.1254507859478086,-0.36384272159934944,-0.39100076162174946,-0.6823364880659486,-0.1614508076666305,-0.04976135082417785,0.2551326198298352,-0.030705845829393813,0.0016487040289537651,0.09159231390978867,-0.5135716408980947,0.24193656582831785,0.0707387934657191,-0.04695017831330477,0.35843161860364586,-1.3543969265401457,0.9323584726237589,0.3860261551810344,0.14438060497975075,-1.4737311087109835,-0.5615598119615591,-0.21200905082499466,0.22205733784475384,0.9101393246701763,-1.0536581068227324,-3.191844969258498,0.11388214625149848,0.47167549677569665,0.7006305105512751,1.8760956757137712,-0.04980736689272616,-0.6927999346792733,2.0272389891680627,0.4825342491275985,0.3142155570773597,-0.48282926390250946,-0.7896111106976013,0.7599925068054267,-1.6304429763555761,-0.756893960517401,0.012812039436176599,-2.9165500118398313,-0.4947277252239995,0.44419345844348973,-0.19211700878097232,-0.8452301165129577,-0.7244731556203255,0.6483156783965415,0.07633506778169703,0.6698310437954468,1.7014191248644,0.12387173116608835,0.05356300540232605,2.755957109834737,-0.33284213151238995,0.33035848706077053,0.10736940732934722,-1.994758290371751,4.06730948058225,1.5137768614323337,1.083476398807408,-2.2129398982312702,2.1532935313114465,-1.8819728337906123,0.3271626549091871,1.453312803080193,-0.9717948237259892,-0.9608746470852959,2.924177986443875,-1.3517289512525672,-0.8530254679697983,-1.6304558693514504,-0.7261996529629767,-1.7509525527357492,-1.0925532827516395,-0.6438199096836803,0.27333415745828366,1.696777941131618,-0.08596170835791715,0.32157027307126484,-1.3044780282632151,-0.34382036459608817,0.5360035316004665,-0.021050734123109018,0.3232337703156409,0.08846584875305182,-0.9030086527047914,-0.09958639652914467,0.03737586531296986,-0.753511035203648,-1.8506426234724729,-0.9459569448183103,0.4761937258879323,0.2687631796742241,-0.25871314026532255,1.8774581485521107,-0.4194381210158111,-1.6595725273217325,1.585132372428496,-1.2294591234000625,-1.156080291332126,1.512509732934915,-3.5381173481470527,-0.6191720316413589,-0.10400028242740915,0.08025174373888387,-0.36518343352825344,1.4694243027157488,-0.46733281778015057,-1.1843946531769876,0.40600429419496814,0.2264809590132086,-1.0458975033578803,0.9197917000818625,-0.4961004478114395,-0.706042482331774,0.8945130172484227,0.8449377799406339,-0.25279942361550783,1.08711592460261,-0.6674626155311137,-1.044601052945053,0.6647816258471643,0.40737270948592225,-1.0402843889491766,1.6962790138603727,-0.2501868425609673,-0.9387926283766032,1.1630934424361563,0.1355702852156,-0.6613778212866287,-0.5949899438806697,-0.44943894166510856,-1.6735132960144898,1.6794245394151248,1.3908959072286433,-0.512396254102066,1.720594127439694,0.11871460781688535,0.16698043751770106,-0.2512248433763653,-0.2263016571610464,-1.7150383698555787,-0.010011552361910555,0.03801559085508127,0.7941055271466987,0.45963900923735346,-0.23265328647971328,0.5206772596901555,-0.0073615478660356195,0.36848327839268963,0.04587203620957717,-0.0024547016361765404,-2.4877349732165874,-0.22906660503946813,0.6760586070566669,-0.7437116724985154,0.20079517662531368,0.5718687565158715,-0.3716313719458362,0.3977512124672308,0.1339821457017407,-1.1500725346354366,0.0981272105089253,-0.24315796091986797,1.1444575683219715,0.39572986621160683,-1.8581477771390242,0.22154384120283374,-0.7772475877385194,0.18182267970211788,3.3886597403634613,-0.9577218674028992,-0.2299810555054335,0.1619760634743217,-2.0666848689764583,0.21545180882001105,1.0298097501595718,-0.0033198528806208808,-0.01891440350322139,0.03566815363719571,-0.6178121334617801,0.6881471516424443,1.335568860604774,-0.4898175029719318,-0.03164928071576577,0.22442094600015225,-0.567356249092795,-0.16328118067517416,2.3662769188056223,-0.08950079982520345,-0.8811524751178306,0.5538241317988907,-0.30854648366964726,-0.3015852542675392,1.361327735653926,1.307863216274467,-0.12638862475428747,-0.7098454821732225,-0.08321110002195072,-1.2442340606682163,1.4275218821140598,-0.0882475390228177,-0.765866598324525,0.11799060950176962,-1.4353632509788277,-1.2346173189136243,0.4814324058264867,0.07362258894187938,1.490917457379993,1.0203057171733205,0.7392135807574992,0.33794735093677125,1.7735292517803376,-0.08361696208955366,-0.3524180629385464,-0.2073247699527162,-1.2739369548225798,-0.1289722340680562,1.1860308533692239,0.9679751426409945,0.10525811772811937,0.2058215337707774,-0.3697704681973361,-0.3272574101049356,-1.3978520203975433,-0.004677079055474293,0.3264409645398984,-0.24273767886587225,0.17019260694179011,-0.19030840606373883,0.9038641802385962,-0.03825744218691217,0.9830362601946505,1.0151544902634562,-0.4296763110774683,0.23950174838562924,0.7254548042491462,-0.15725056890151715,-0.28491639929980256,-0.12957116789134068,0.0044390932511337005,-3.3877336530731874,1.6067764349161864,-0.7060887901739002,0.8135158410998887,-0.8967665081669357,0.7859571240812047,-1.2611131570958076,-0.8702195698492904,-0.1995107311649501,-1.9354659716244993,1.467046716262328,0.14193275982467707,-1.192600907421556,0.8828913028350014,-0.5472082303281143,-0.3356222239255934,0.8568527301885834,1.1117797858743572,-2.202060878906735,0.4627040190635797,0.7316419732715549,-2.197995979166426,-0.0755355721167911,-1.6158557059214713,1.111248688809677,-0.5710979050114647,1.450473647824155,-2.548399331164475,0.9577159998960219,-3.7157890093434696,2.012785392537016,-1.1453877386454059,2.33619471388344,-3.118403116506323,1.3631669697242692,-2.7008241863367197,1.682557600351686,2.813661626040102,-3.1009305735524317,1.6189832254321217,-3.336400942371976,1.8436362460289495,-1.9312279709677078,1.240075088871602,-4.050007842396708,-2.7909536690726697,-3.7086864650720592,0.1316181912975122,-2.642457359656094,2.462685441372892,-3.3904326507055544,0.22557643465282243,-2.8648456036146426,2.2590401198227474,-2.585080078608138,1.1127550425356936,2.200037320722837,0.5747953843782306,0.8564203974618035,0.7130927330463258,1.8961667872473575,-1.4924905369536847,2.2667597660272203,-3.691089934239253,2.3627990214558467,-1.792778301029916,3.0662429573536203,1.4216901945500127,-0.7236342608784478,0.20121496590547563,-0.11673129076991945,0.18996822654142428,-0.27485452171192926,0.4080993111274154,-0.16670489885292206,-0.3588312053458242,0.16353369998669598,-2.829817169705246,1.4960777955265008,-1.6970504836889388,0.14625103894896094,2.5702418123628803,-1.3901927209288667,0.06677418966669983,-0.15548579813173058,-0.19275564841135306,-0.08066797561684444,1.0770003640106847,-0.03510230626492837,1.163079320681129,-1.0892713762376867,-0.0969286761687739,-0.16207974563215446,-0.4190427299777374,0.28375109911817403,-2.5648661744164913,1.869268654607511,-0.24049817207512986,-0.18851192646911608,1.5620814446324869,-0.6918503885005419,-1.361290377891952,1.3674178396112433,-0.10347000528351454,0.40785712739162555,1.5462509087606127,-0.9819031796746067,0.34094826241236514,-0.5947348179310393,-0.05669752341887587,0.013645079649134396,0.6229717634958583,0.3554742110253838,-2.2506666624381584,1.3939789658710724,0.18504947483656856,0.623604657427562,2.546317177682129,-1.7857720286274221,0.5604284827739219,0.65143157814459,-1.0513416422797852,0.3879627458958082,-0.06474754193768055,-1.5991594537367353,1.9492029285152022,-0.8728144661242668,-0.41992083629555976,-0.04968002555319851,-0.5983966499261975,0.3116589454423854,0.48031968548092935,0.195568319625363,-0.7381682365188121,-0.3374581985081676,0.22154740893681418,0.18747643771882325,-0.5205230553606017,-0.3141594169547502,-0.6200569901941448,0.5697373322340804,0.11467993515156376,1.043119542180963,0.16773782706517204,0.44725141498620336,-0.021599487533125485,-0.5320687958218389,0.11068028353163525,-0.5432659109326405,-0.0636350292045505,0.0820695370106315,-0.20390341321783975,4.349593790789681,0.8330140880514882,1.1827557894406284,-0.3745663435786441,1.7962941436046607,0.44092737873348464,1.2606418789949907,0.002143617856860497,1.1083453077987087,-1.6784676312335736,5.456304185558514,0.3976318844702736,1.2281502283123753,1.0913406877914134,1.044069191284267,-0.22905561027268206,1.503625017666756,0.019893135620089132,1.0329387207708376,-0.23590275279519113,-0.2913052135390272,-0.12149203087625995,1.034080990514123,0.5517087857296618,0.6830680635025423,-0.4103880247981467,0.16839111678840582,1.3886772735859374,1.6577262642327546,-0.008537307546007478,0.4652020378273047,0.3138181206913287,0.018812749085223464,0.059123765094012126,0.5859176619223576,0.01038789906615571,1.1104277640406892,1.2035553316576926,-0.6990605133063497,0.3418455824032377,-0.18289559776180586,0.8126028785364582,-1.5272356409207843,0.32104842349802865,-0.21804769668847515,-1.6919566495761862,1.0303284017754688,0.32353306213150196,0.08485117672305605,1.396271389195795,-0.9690131456968544,-0.04155752841832603,0.26638438505038975,0.9397204541807015,-0.6293062632104143,0.5108323456957093,-0.6198163588438438,0.21366240455952856,-0.8943744817018159,0.2576214749360354,-0.34469207043322286,-0.4131372722880383,0.39784212545850683,-1.0652570412850937,-0.162269936742372,-0.39713594812253294,0.7321670645485754,1.6269785390604696,1.1953384798565976,0.474347928088348,0.23406956317359726,1.1354344556459366,0.4289810114553046,0.19888624302435653,-0.06544229329460756,-2.9850539856558433,-0.34117806241551846,2.0723525016920994,0.07134864805575576,0.47461700374327936,-0.4114471124111183,0.08863496744611832,-0.6546579574377814,0.6305143991320717,2.9459026950369096,-1.4664623777046344,-0.8569526083967131,-0.058231292573004405,-0.6816697434913429,0.9875547041697897,1.3550053393878623,-2.3946628857464316,1.011500385304423,-0.6025513331163568,-0.1252818681587068,1.513911447719,0.4832298517444493,1.9174197172623249,-0.06674079714341626,-0.8948516749212851,-1.5974301622495741,1.4566151483975192,1.9647326442777757,1.9278966248605003,0.43526300075655977,-1.6306777289435248,-1.927394246453589,-0.28084465904084843,1.5938631119970255,0.3707994939357243,0.44192075685888726,0.16867154083001812,-1.4571523099867822,0.14405807994323122,0.48566854799810016,-1.1241309438471627,0.28132513655559216,0.6952085478000171,-0.435690495467882,1.2323450351629583,2.3411160944248723,-0.6760542409738527,1.2874095275551978,0.8259930061230459,-2.084980504182022,1.0494866521296413,3.1066011585587345,-2.0107000931182464,1.3151141847331567,-0.7933854753899325,-0.9490917012671132,0.6625477027268015,-1.5659323639663998,-1.2698814726631134,-0.983146369410599,-0.6353254380635535,0.1339313544202926,-0.48113619533533264,-0.07310949370782559,-1.2671648787802223,0.8594019138508558,0.214081361544603,0.1504473516674258,1.041418121872706,-0.2872382041078122,1.4679729038054687,0.6078555853710048,-0.0957305864954395,-0.6849459726875559,0.018525251168850728,0.38286456729193213,-0.4878564969527429,0.4909621429170637,0.3567872231192602,-0.29581848715953685,-0.3012670990229259,0.1815847170768679,-0.3629324372046208,0.39131240771744574,0.0928355861193674,-0.24443663852045427,0.517645235988426,0.05570853929931392,0.1158265992202944,0.01704310114845274,-0.4784033360951447,0.28800492270019273,-0.374773284397774,0.19137128965551725,0.13273074807972368,0.010293943216301237,-0.12415942039413863,0.22975240909708688,-0.4177383685853269,-0.23228863464567945,-0.2325858238190414,-0.3355913919670399,0.5394314686447544,-0.33079405874763895,-0.3531703474623622,0.11074365807717931,0.2220053045317866,0.1866776257241128,0.4741351542532077,-0.05183391148795301,-0.04947242490743883,-0.024668575245413892,0.10880096984034296,-0.17967635099490972,0.3528568664665934,-0.2324953740460087,-0.6919322416245952,0.15916791244850953,0.029141166271300062,-0.23127204450353112,0.17649040547615527,0.3549778948527506,-0.13031762258447138,0.5044583354187429,0.9508510510869905,-0.0073456027746724205,-0.966911141129268,